timestamp ba_x ba_y ba_z bg_x bg_y bg_z
1683722116.913568 0.00000081 -0.00000039 -0.00146173 0.00016471 0.00003015 0.00068811
1683722116.980279 0.00000390 -0.00000264 -0.00159002 0.00013847 -0.00001623 0.00070237
1683722117.046990 0.00000523 -0.00000973 -0.00078764 0.00007068 0.00004878 0.00068945
1683722117.113701 0.00000523 -0.00000973 -0.00078764 0.00007068 0.00004878 0.00068945
1683722117.180413 0.00000751 -0.00001107 -0.00078678 0.00007449 -0.00001015 0.00065837
1683722117.247125 0.00000963 -0.00001133 -0.00097465 0.00005400 0.00002661 0.00066039
1683722117.313838 0.00000741 -0.00001788 -0.00007922 0.00007696 0.00004754 0.00065128
1683722117.380551 0.00000784 -0.00002102 0.00008923 0.00008669 0.00003196 0.00064595
1683722117.447265 0.00000856 -0.00002427 0.00019415 0.00008306 0.00005481 0.00062071
1683722117.513979 0.00002001 -0.00004662 0.00010387 0.00006295 0.00008460 0.00060507
1683722117.580687 0.00002739 -0.00008258 0.00045839 0.00005691 0.00005311 0.00061607
1683722117.647387 0.00003419 -0.00012262 0.00066369 0.00006478 0.00002096 0.00062837
1683722117.714088 0.00004295 -0.00014893 0.00066439 0.00004498 0.00002501 0.00063784
1683722117.780789 0.00005379 -0.00021127 0.00102502 0.00002266 0.00004100 0.00064278
1683722117.847490 0.00005882 -0.00022081 0.00084957 0.00002349 0.00003840 0.00065348
1683722117.914192 0.00006305 -0.00023313 0.00092512 0.00003942 0.00004186 0.00066527
1683722117.980893 0.00006771 -0.00024580 0.00094745 0.00007018 0.00003571 0.00066739
1683722118.047595 0.00007252 -0.00025754 0.00093890 0.00008572 0.00003849 0.00066454
1683722118.114297 0.00007684 -0.00027147 0.00097659 0.00009968 0.00003865 0.00065783
1683722118.180999 0.00008484 -0.00028695 0.00092846 0.00010702 0.00004193 0.00065837
1683722118.247701 0.00008898 -0.00030078 0.00097621 0.00010776 0.00004104 0.00067115
1683722118.314404 0.00009132 -0.00033177 0.00110085 0.00010992 0.00002505 0.00069067
1683722118.381106 0.00009511 -0.00036116 0.00107621 0.00009738 0.00001647 0.00070483
1683722118.447809 0.00009971 -0.00038840 0.00108098 0.00007385 0.00001433 0.00071424
1683722118.514512 0.00010232 -0.00040757 0.00110750 0.00006396 0.00001858 0.00072058
1683722118.581254 0.00010694 -0.00042489 0.00110702 0.00006330 0.00002732 0.00072660
1683722118.648038 0.00010639 -0.00045185 0.00124585 0.00007022 0.00002978 0.00072992
1683722118.714826 0.00010615 -0.00047892 0.00126753 0.00007599 0.00002907 0.00073114
1683722118.781618 0.00010705 -0.00050414 0.00125481 0.00008387 0.00002556 0.00073193
1683722118.848414 0.00011016 -0.00052626 0.00122847 0.00009318 0.00002219 0.00073544
1683722118.915213 0.00010859 -0.00053922 0.00127728 0.00010270 0.00001437 0.00073558
1683722118.982016 0.00010273 -0.00056230 0.00124935 0.00010391 0.00000509 0.00072896
1683722119.048824 0.00009744 -0.00058419 0.00124361 0.00009039 0.00000358 0.00073069
1683722119.115634 0.00008494 -0.00061432 0.00125516 0.00009182 0.00000168 0.00073780
1683722119.182449 0.00007320 -0.00064088 0.00123943 0.00009588 -0.00000140 0.00074109
1683722119.249267 0.00005432 -0.00066565 0.00123077 0.00009841 -0.00000440 0.00073274
1683722119.316090 0.00003550 -0.00068835 0.00122541 0.00010311 -0.00001037 0.00072323
1683722119.382915 0.00001622 -0.00071234 0.00123060 0.00011245 -0.00001454 0.00072103
1683722119.449745 -0.00001866 -0.00074581 0.00128266 0.00011799 -0.00001966 0.00072014
1683722119.516579 -0.00006130 -0.00078557 0.00126308 0.00010565 -0.00002229 0.00072030
1683722119.583350 -0.00011457 -0.00082669 0.00128139 0.00010128 -0.00002516 0.00072102
1683722119.650058 -0.00015598 -0.00085782 0.00124100 0.00009228 -0.00002161 0.00073260
1683722119.716766 -0.00021368 -0.00089529 0.00129362 0.00007938 -0.00001934 0.00074133
1683722119.783474 -0.00027027 -0.00093034 0.00133339 0.00007894 -0.00002466 0.00073852
1683722119.850182 -0.00034139 -0.00096414 0.00129674 0.00007300 -0.00002607 0.00073314
1683722119.916889 -0.00043151 -0.00100917 0.00131715 0.00007190 -0.00002576 0.00073016
1683722119.983597 -0.00050884 -0.00105985 0.00137757 0.00008027 -0.00002845 0.00073508
1683722120.050304 -0.00057368 -0.00110116 0.00133667 0.00008614 -0.00002898 0.00074245
1683722120.117012 -0.00066881 -0.00115935 0.00136139 0.00008946 -0.00003240 0.00074404
1683722120.183719 -0.00073221 -0.00119641 0.00138357 0.00009046 -0.00003491 0.00073886
1683722120.250426 -0.00077329 -0.00123659 0.00137504 0.00008395 -0.00003414 0.00074621
1683722120.317133 -0.00084443 -0.00129775 0.00145285 0.00008104 -0.00004159 0.00075513
1683722120.383840 -0.00093390 -0.00136230 0.00141316 0.00007614 -0.00004713 0.00076050
1683722120.450547 -0.00100198 -0.00139462 0.00138405 0.00006992 -0.00004196 0.00076037
1683722120.517253 -0.00107727 -0.00142839 0.00138874 0.00006898 -0.00003812 0.00075898
1683722120.583961 -0.00116446 -0.00147713 0.00140114 0.00006377 -0.00003626 0.00076583
1683722120.650669 -0.00126111 -0.00153036 0.00141963 0.00006243 -0.00003563 0.00077355
1683722120.717377 -0.00137425 -0.00161040 0.00148274 0.00006245 -0.00003821 0.00077916
1683722120.784085 -0.00143957 -0.00160755 0.00134270 0.00006377 -0.00003397 0.00078134
1683722120.850792 -0.00152800 -0.00162401 0.00139771 0.00007072 -0.00003215 0.00077693
1683722120.917500 -0.00160401 -0.00165577 0.00142546 0.00006696 -0.00003075 0.00078111
1683722120.984208 -0.00170748 -0.00168219 0.00141199 0.00005962 -0.00002938 0.00079041
1683722121.050915 -0.00186132 -0.00173617 0.00149440 0.00005434 -0.00003027 0.00079113
1683722121.117623 -0.00200480 -0.00179468 0.00148359 0.00004977 -0.00002737 0.00078971
1683722121.184330 -0.00217809 -0.00186125 0.00147378 0.00004756 -0.00002551 0.00079619
1683722121.251037 -0.00232418 -0.00194640 0.00152971 0.00004580 -0.00002758 0.00080463
1683722121.317744 -0.00247868 -0.00201524 0.00149317 0.00005051 -0.00002950 0.00080583
1683722121.384451 -0.00262753 -0.00208989 0.00150893 0.00005406 -0.00002945 0.00080463
1683722121.451158 -0.00274215 -0.00214098 0.00146385 0.00005153 -0.00002691 0.00081130
1683722121.517864 -0.00288599 -0.00221374 0.00150386 0.00005469 -0.00002839 0.00081727
1683722121.584571 -0.00304563 -0.00230776 0.00152011 0.00005839 -0.00003429 0.00081576
1683722121.651277 -0.00317798 -0.00234322 0.00144264 0.00005789 -0.00003520 0.00081481
1683722121.717983 -0.00330433 -0.00235982 0.00141769 0.00005051 -0.00003101 0.00082070
1683722121.784689 -0.00344275 -0.00238536 0.00143138 0.00003977 -0.00002692 0.00082906
1683722121.851395 -0.00361787 -0.00244190 0.00147577 0.00003420 -0.00002773 0.00083453
1683722121.918101 -0.00379681 -0.00248663 0.00147631 0.00003440 -0.00003274 0.00083405
1683722121.984806 -0.00398879 -0.00252601 0.00146089 0.00002971 -0.00003480 0.00083161
1683722122.051512 -0.00417261 -0.00252408 0.00141605 0.00002988 -0.00003192 0.00082822
1683722122.118217 -0.00434276 -0.00255498 0.00145760 0.00003346 -0.00002921 0.00082907
1683722122.184922 -0.00456893 -0.00260885 0.00149060 0.00003960 -0.00003269 0.00082611
1683722122.251627 -0.00475723 -0.00260986 0.00143816 0.00004578 -0.00003543 0.00081853
1683722122.318332 -0.00493254 -0.00260959 0.00145067 0.00004649 -0.00003228 0.00081598
1683722122.385037 -0.00509651 -0.00262503 0.00147431 0.00004542 -0.00003184 0.00081982
1683722122.451742 -0.00527684 -0.00261842 0.00145468 0.00004337 -0.00003440 0.00082148
1683722122.518446 -0.00545383 -0.00260499 0.00143941 0.00003975 -0.00003441 0.00081940
1683722122.585154 -0.00564932 -0.00257452 0.00140873 0.00003968 -0.00003409 0.00081726
1683722122.651864 -0.00585138 -0.00256685 0.00146988 0.00003799 -0.00003167 0.00081818
1683722122.718574 -0.00612712 -0.00256335 0.00146397 0.00003523 -0.00002955 0.00082412
1683722122.785284 -0.00641356 -0.00262597 0.00150278 0.00003887 -0.00003287 0.00082840
1683722122.851993 -0.00665772 -0.00252624 0.00139132 0.00003535 -0.00002384 0.00082839
1683722122.918703 -0.00684769 -0.00253680 0.00147286 0.00003010 -0.00001740 0.00082996
1683722122.985413 -0.00704049 -0.00268975 0.00155673 0.00003719 -0.00002414 0.00083583
1683722123.052122 -0.00719661 -0.00283057 0.00156293 0.00004259 -0.00003204 0.00084135
1683722123.118832 -0.00735838 -0.00287040 0.00147281 0.00004184 -0.00003451 0.00084399
1683722123.185541 -0.00749673 -0.00279719 0.00139825 0.00003686 -0.00003067 0.00084490
1683722123.252251 -0.00761158 -0.00265064 0.00135126 0.00003036 -0.00002289 0.00084871
1683722123.318960 -0.00780703 -0.00266152 0.00149288 0.00003239 -0.00002439 0.00085153
1683722123.385670 -0.00798903 -0.00272853 0.00150942 0.00004102 -0.00002895 0.00085038
1683722123.452379 -0.00825250 -0.00300596 0.00165386 0.00004977 -0.00004275 0.00084565
1683722123.519089 -0.00785550 -0.00028923 0.00084104 0.00001626 0.00001092 0.00084814
1683722123.585799 -0.00929069 -0.00049943 0.00176238 0.00000132 0.00002674 0.00085132
1683722123.652512 -0.01081336 -0.00498499 0.00249671 0.00008018 -0.00008528 0.00085751
1683722123.719224 -0.00865028 -0.00247903 0.00061752 0.00008493 -0.00007822 0.00085631
1683722123.785937 -0.00862760 -0.00183178 0.00102243 0.00001363 0.00000772 0.00085420
1683722123.852649 -0.01055347 -0.00545979 0.00243313 0.00004841 -0.00005685 0.00085590
1683722123.919362 -0.00923973 -0.00284665 0.00065794 0.00004930 -0.00005525 0.00086465
1683722123.986074 -0.01036870 -0.00159653 0.00129743 -0.00000092 0.00000409 0.00086462
1683722124.052787 -0.01188744 -0.00267697 0.00186300 0.00002645 -0.00003014 0.00085827
1683722124.119499 -0.01176162 -0.00256482 0.00139987 0.00005600 -0.00005401 0.00085623
1683722124.186211 -0.01167459 -0.00234872 0.00123612 0.00004777 -0.00003896 0.00086058
1683722124.252924 -0.01179792 -0.00215984 0.00139686 0.00003245 -0.00002664 0.00086288
1683722124.319637 -0.01230103 -0.00203420 0.00147950 0.00002786 -0.00002822 0.00086405
1683722124.386349 -0.01269638 -0.00170091 0.00140790 0.00002720 -0.00002924 0.00086594
1683722124.453061 -0.01303843 -0.00144980 0.00143260 0.00002946 -0.00003034 0.00086844
1683722124.519774 -0.01351055 -0.00140980 0.00149637 0.00003520 -0.00003863 0.00087050
1683722124.586486 -0.01366489 -0.00099710 0.00135365 0.00003507 -0.00003800 0.00087034
1683722124.653199 -0.01378693 -0.00059095 0.00130291 0.00003014 -0.00002974 0.00087005
1683722124.719913 -0.01391354 -0.00033655 0.00139383 0.00003052 -0.00002747 0.00087188
1683722124.786626 -0.01408373 -0.00020343 0.00145579 0.00004024 -0.00003305 0.00087372
1683722124.853339 -0.01409967 0.00022758 0.00133412 0.00004388 -0.00003211 0.00087627
1683722124.920052 -0.01422569 0.00081913 0.00133830 0.00004129 -0.00002333 0.00087701
1683722124.986765 -0.01432544 0.00105145 0.00143329 0.00004151 -0.00002081 0.00087821
1683722125.053478 -0.01437467 0.00150322 0.00140782 0.00004280 -0.00002171 0.00088295
1683722125.120191 -0.01449051 0.00185803 0.00140651 0.00004094 -0.00002046 0.00088789
1683722125.186904 -0.01496226 0.00231782 0.00144234 0.00003872 -0.00001977 0.00088766
1683722125.253618 -0.01546297 0.00281076 0.00145631 0.00003932 -0.00002182 0.00088509
1683722125.320331 -0.01564189 0.00333481 0.00139864 0.00003898 -0.00002127 0.00088631
1683722125.387044 -0.01576385 0.00371476 0.00141804 0.00003775 -0.00001955 0.00088950
1683722125.453757 -0.01601237 0.00423542 0.00143509 0.00003643 -0.00002077 0.00089168
1683722125.520470 -0.01641021 0.00489935 0.00143531 0.00003261 -0.00002219 0.00089454
1683722125.587183 -0.01667773 0.00554760 0.00138849 0.00002804 -0.00002062 0.00089698
1683722125.653895 -0.01702307 0.00598487 0.00143222 0.00002418 -0.00001925 0.00089939
1683722125.720608 -0.01771841 0.00656053 0.00146904 0.00001922 -0.00002035 0.00090346
1683722125.787320 -0.01844614 0.00701935 0.00145044 0.00001361 -0.00002066 0.00090408
1683722125.854032 -0.01918585 0.00747248 0.00145864 0.00000986 -0.00002000 0.00090196
1683722125.920745 -0.01974576 0.00776670 0.00147737 0.00001194 -0.00001972 0.00090358
1683722125.987457 -0.02037090 0.00802316 0.00149252 0.00001715 -0.00002170 0.00090473
1683722126.054169 -0.02075265 0.00820087 0.00148307 0.00001993 -0.00002334 0.00090442
1683722126.120882 -0.02117651 0.00852081 0.00146918 0.00001901 -0.00002282 0.00090646
1683722126.187594 -0.02148041 0.00867870 0.00147794 0.00001838 -0.00002137 0.00091046
1683722126.254307 -0.02186245 0.00870586 0.00152540 0.00001676 -0.00002196 0.00091401
1683722126.321019 -0.02226193 0.00881176 0.00149993 0.00001715 -0.00002345 0.00091502
1683722126.387732 -0.02250651 0.00890278 0.00147333 0.00001923 -0.00002248 0.00091338
1683722126.454444 -0.02296509 0.00908019 0.00149417 0.00001784 -0.00002134 0.00091465
1683722126.521157 -0.02360053 0.00911045 0.00153117 0.00001926 -0.00002470 0.00091767
1683722126.587867 -0.02402442 0.00919666 0.00150321 0.00002254 -0.00002706 0.00091894
1683722126.654574 -0.02443485 0.00950336 0.00147033 0.00002404 -0.00002665 0.00091990
1683722126.721282 -0.02470974 0.00966978 0.00148118 0.00002261 -0.00002693 0.00092192
1683722126.787989 -0.02502651 0.00979812 0.00148800 0.00002043 -0.00002785 0.00092472
1683722126.854696 -0.02502652 0.00979812 0.00148800 0.00011685 -0.00057658 0.00127673
1683722126.921403 -0.02502652 0.00979812 0.00148800 -0.00041043 0.00013350 0.00051261
1683722126.988111 -0.02502652 0.00979812 0.00148800 -0.00004724 -0.00015208 0.00084247
1683722127.054818 -0.02502652 0.00979812 0.00148800 0.00010124 -0.00005396 0.00116850
1683722127.121525 -0.02502652 0.00979812 0.00148800 0.00027933 0.00021125 0.00065666
1683722127.188232 -0.02502652 0.00979812 0.00148800 0.00061634 -0.00029647 0.00088739
1683722127.254939 -0.02502652 0.00979812 0.00148800 0.00005561 0.00010380 0.00076898
1683722127.321646 -0.02502652 0.00979812 0.00148800 0.00001380 0.00022139 0.00075082
1683722127.388353 -0.02502652 0.00979812 0.00148800 0.00040065 -0.00048977 0.00129448
1683722127.455060 -0.02502652 0.00979812 0.00148800 -0.00059681 0.00068496 0.00091838
1683722127.521767 -0.02502652 0.00979812 0.00148800 0.00028810 -0.00008689 0.00091643
1683722127.588479 -0.02502652 0.00979812 0.00148800 0.00013352 0.00009361 0.00092151
1683722127.655196 -0.02502652 0.00979812 0.00148800 -0.00027469 -0.00038549 0.00154496
1683722127.721913 -0.02502652 0.00979812 0.00148801 0.00018546 -0.00017386 0.00096323
1683722127.788630 -0.02502652 0.00979812 0.00148801 0.00018402 -0.00021284 0.00116116
1683722127.855347 -0.02502652 0.00979812 0.00148801 0.00003066 0.00013665 0.00089096
1683722127.922064 -0.02502652 0.00979812 0.00148801 0.00064649 -0.00005235 0.00104645
1683722127.988781 -0.02502652 0.00979812 0.00148801 0.00039818 -0.00006116 0.00119390
1683722128.055498 -0.02502652 0.00979812 0.00148801 0.00017827 0.00042708 0.00025528
1683722128.122216 -0.02502652 0.00979812 0.00148801 0.00049663 -0.00018247 0.00094878
1683722128.188933 -0.02502652 0.00979812 0.00148801 0.00003497 0.00008891 0.00168053
1683722128.255651 -0.02502652 0.00979812 0.00148801 0.00007455 -0.00036822 0.00170220
1683722128.322368 -0.02502652 0.00979812 0.00148801 0.00027074 -0.00049659 0.00112163
1683722128.389086 -0.02502652 0.00979812 0.00148801 0.00025547 0.00002526 0.00031406
1683722128.455804 -0.02502652 0.00979812 0.00148800 -0.00120877 0.00008679 0.00161119
1683722128.522522 -0.02502652 0.00979812 0.00148800 0.00026688 0.00013901 0.00118941
1683722128.589236 -0.02502652 0.00979812 0.00148800 0.00041792 0.00002669 0.00100128
1683722128.655946 -0.02502652 0.00979812 0.00148800 0.00054901 -0.00045662 0.00061916
1683722128.722656 -0.02502652 0.00979812 0.00148800 0.00053266 0.00019795 0.00087574
1683722128.789366 -0.02502652 0.00979812 0.00148800 -0.00046221 0.00004732 0.00115741
1683722128.856076 -0.02502652 0.00979812 0.00148800 -0.00043669 -0.00018192 0.00101127
1683722128.922786 -0.02502652 0.00979813 0.00148800 0.00095690 -0.00019832 0.00034406
1683722128.989495 -0.02502652 0.00979812 0.00148800 -0.00028048 0.00015065 0.00052338
1683722129.056205 -0.02502652 0.00979812 0.00148800 -0.00006491 0.00010258 0.00140330
1683722129.122915 -0.02502652 0.00979812 0.00148800 0.00004744 0.00015140 0.00129995
1683722129.189625 -0.02502652 0.00979812 0.00148800 -0.00019836 0.00044937 0.00100028
1683722129.256335 -0.02502652 0.00979812 0.00148801 -0.00092341 0.00031071 0.00096463
1683722129.323045 -0.02502652 0.00979812 0.00148801 0.00077231 -0.00032592 0.00132265
1683722129.389754 -0.02502652 0.00979812 0.00148801 0.00052577 0.00000448 0.00140521
1683722129.456464 -0.02502652 0.00979812 0.00148801 0.00073384 -0.00001589 0.00109425
1683722129.523174 -0.02502652 0.00979812 0.00148801 -0.00010809 0.00001959 0.00083433
1683722129.589886 -0.02502652 0.00979812 0.00148801 0.00000448 0.00003299 0.00114906
1683722129.656600 -0.02502652 0.00979812 0.00148801 -0.00000997 0.00005425 0.00139008
1683722129.723314 -0.02502652 0.00979812 0.00148801 -0.00028602 0.00009682 0.00183575
1683722129.790027 -0.02502652 0.00979812 0.00148800 -0.00095702 0.00003403 0.00122431
1683722129.856741 -0.02502652 0.00979812 0.00148800 0.00022711 -0.00003026 0.00117005
1683722129.923455 -0.02502652 0.00979812 0.00148801 0.00068922 -0.00046987 0.00105907
1683722129.990170 -0.02502652 0.00979812 0.00148801 0.00034159 0.00007474 0.00104185
1683722130.056884 -0.02502652 0.00979812 0.00148801 0.00019419 -0.00020805 0.00081024
1683722130.123598 -0.02502652 0.00979812 0.00148801 -0.00054194 0.00006886 0.00097447
1683722130.190313 -0.02502652 0.00979812 0.00148801 0.00075200 -0.00028000 0.00056080
1683722130.257027 -0.02502652 0.00979812 0.00148801 0.00013866 0.00009363 0.00070161
1683722130.323742 -0.02502652 0.00979812 0.00148801 -0.00034872 0.00010269 0.00094339
1683722130.390456 -0.02502652 0.00979812 0.00148801 0.00016961 0.00015401 0.00074998
1683722130.457171 -0.02502652 0.00979812 0.00148801 0.00018554 -0.00004220 0.00045014
1683722130.523886 -0.02502652 0.00979812 0.00148801 0.00013856 -0.00005367 0.00096525
1683722130.590602 -0.02502652 0.00979812 0.00148801 0.00032530 0.00008247 0.00117279
1683722130.657320 -0.02502652 0.00979812 0.00148801 -0.00034266 -0.00000708 0.00140525
1683722130.724038 -0.02502652 0.00979812 0.00148801 0.00052510 -0.00014499 0.00011568
1683722130.790757 -0.02502652 0.00979812 0.00148801 -0.00041412 0.00060234 0.00093984
1683722130.857475 -0.02502652 0.00979812 0.00148801 -0.00010279 -0.00007624 0.00141250
1683722130.924194 -0.02502652 0.00979812 0.00148801 -0.00009912 -0.00003906 0.00143835
1683722130.990913 -0.02502652 0.00979812 0.00148801 0.00049781 -0.00033398 0.00062236
1683722131.057631 -0.02502652 0.00979812 0.00148801 -0.00014772 0.00009858 0.00089251
1683722131.124351 -0.02502652 0.00979812 0.00148801 0.00003531 0.00036663 0.00125833
1683722131.191070 -0.02502652 0.00979812 0.00148801 -0.00039245 0.00011878 0.00133948
1683722131.257789 -0.02502652 0.00979812 0.00148801 0.00016062 -0.00023602 0.00086062
1683722131.324508 -0.02502652 0.00979812 0.00148801 0.00008795 -0.00032091 0.00089565
1683722131.391227 -0.02502652 0.00979812 0.00148801 -0.00053421 0.00039045 0.00143779
1683722131.457947 -0.02502652 0.00979812 0.00148801 0.00013870 -0.00049323 0.00158141
1683722131.524667 -0.02502652 0.00979812 0.00148801 -0.00043178 -0.00056513 0.00151722
1683722131.591384 -0.02502652 0.00979812 0.00148801 0.00006302 0.00023842 0.00093762
1683722131.658098 -0.02502652 0.00979812 0.00148801 -0.00082039 0.00004062 0.00128153
1683722131.724813 -0.02502652 0.00979812 0.00148801 0.00068097 -0.00038504 0.00112924
1683722131.791528 -0.02502652 0.00979812 0.00148801 -0.00029949 -0.00002008 0.00109903
1683722131.858243 -0.02502652 0.00979812 0.00148801 0.00076617 -0.00026229 0.00040996
1683722131.924957 -0.02502652 0.00979812 0.00148801 -0.00000878 0.00006567 0.00044274
1683722131.991672 -0.02502652 0.00979813 0.00148801 0.00129807 -0.00033518 0.00110097
1683722132.058387 -0.02502652 0.00979813 0.00148801 -0.00034872 -0.00003186 0.00133132
1683722132.125102 -0.02502652 0.00979813 0.00148801 0.00012866 -0.00004142 0.00054614
1683722132.191817 -0.02502652 0.00979813 0.00148801 0.00019609 -0.00155078 0.00037446
1683722132.258532 -0.02502652 0.00979812 0.00148801 -0.00141646 0.00224614 0.00087554
1683722132.325247 -0.02502652 0.00979812 0.00148801 -0.00223632 0.00253125 0.00314420
1683722132.391962 -0.02502652 0.00979813 0.00148801 0.00228736 -0.00166487 0.00046106
1683722132.458677 -0.02502652 0.00979813 0.00148801 0.00055792 -0.00018324 0.00025908
1683722132.525393 -0.02502652 0.00979813 0.00148801 0.00072248 -0.00009323 0.00078491
1683722132.592109 -0.02502652 0.00979813 0.00148800 0.00055635 -0.00034331 0.00150817
1683722132.658826 -0.02502652 0.00979813 0.00148801 0.00031457 -0.00001502 0.00114875
1683722132.725543 -0.02502652 0.00979813 0.00148801 0.00089005 0.00014520 0.00054472
1683722132.792261 -0.02502652 0.00979813 0.00148801 -0.00134679 0.00122992 0.00042358
1683722132.858979 -0.02502652 0.00979813 0.00148801 -0.00013099 -0.00082129 0.00177849
1683722132.925696 -0.02502652 0.00979813 0.00148801 -0.00063916 0.00074477 0.00085887
1683722132.992414 -0.02502652 0.00979813 0.00148801 -0.00038426 0.00012679 0.00145332
1683722133.059132 -0.02502653 0.00979814 0.00148801 0.00028846 0.00016546 0.00090528
1683722133.125850 -0.02502653 0.00979814 0.00148801 0.00013583 0.00001888 0.00122845
1683722133.192567 -0.02502652 0.00979814 0.00148801 0.00016922 -0.00038323 0.00105208
1683722133.259285 -0.02502652 0.00979814 0.00148801 -0.00033415 -0.00004741 0.00090814
1683722133.326004 -0.02502652 0.00979814 0.00148801 -0.00022477 -0.00015181 0.00093788
1683722133.392722 -0.02502652 0.00979814 0.00148801 0.00011557 0.00010738 0.00100538
1683722133.459440 -0.02502653 0.00979814 0.00148801 -0.00004503 0.00021683 0.00165339
1683722133.526158 -0.02502653 0.00979814 0.00148801 -0.00040824 -0.00031213 0.00179124
1683722133.592874 -0.02502653 0.00979814 0.00148801 -0.00006998 0.00012810 0.00081752
1683722133.659587 -0.02502653 0.00979814 0.00148801 0.00025262 -0.00019964 0.00036466
1683722133.726300 -0.02502652 0.00979814 0.00148801 -0.00086989 0.00048890 0.00160609
1683722133.793012 -0.02502652 0.00979814 0.00148801 0.00119603 0.00003774 0.00054198
1683722133.859725 -0.02502652 0.00979814 0.00148801 0.00031155 0.00011656 0.00108887
1683722133.926438 -0.02502652 0.00979813 0.00148800 -0.00051833 0.00026265 0.00115393
1683722133.993150 -0.02502652 0.00979814 0.00148801 -0.00013499 -0.00018880 0.00094441
1683722134.059863 -0.02502652 0.00979814 0.00148801 0.00134255 -0.00329085 0.00088923
1683722134.126576 -0.02502652 0.00979813 0.00148801 -0.00267527 0.00450154 0.00192240
1683722134.193288 -0.02502652 0.00979814 0.00148801 -0.00042150 0.00068998 0.00008591
1683722134.260001 -0.02502652 0.00979814 0.00148801 0.00977439 -0.00015452 0.00204449
1683722134.326714 -0.02502653 0.00979814 0.00148801 0.00214155 0.01572655 0.00636492
1683722134.393426 -0.02502652 0.00979814 0.00148801 -0.01016867 -0.01259799 -0.00242787
1683722134.460139 -0.02502651 0.00979816 0.00148799 0.01963804 -0.02726171 0.00089215
1683722134.526851 -0.02502653 0.00979814 0.00148799 -0.01832044 0.01802187 -0.00084070
1683722134.593564 -0.02502653 0.00979815 0.00148799 -0.00080420 0.00219460 -0.00037218
1683722134.660276 -0.02502653 0.00979815 0.00148799 -0.00112420 0.00270779 0.00098968
1683722134.726989 -0.02502653 0.00979815 0.00148799 -0.00097429 -0.00299412 -0.00095427
1683722134.793701 -0.02502654 0.00979813 0.00148799 -0.05372611 0.05527466 -0.01023838
1683722134.860413 -0.02502649 0.00979819 0.00148798 0.10326320 -0.10448327 0.00940364
1683722134.927125 -0.02502652 0.00979816 0.00148799 -0.08248640 0.08318593 0.00327993
1683722134.993838 -0.02502649 0.00979820 0.00148799 0.02319399 -0.01952619 -0.04534503
1683722135.060550 -0.02502649 0.00979818 0.00148799 -0.01154920 -0.00510689 0.00528990
1683722135.127262 -0.02502647 0.00979821 0.00148799 0.08902440 -0.06974433 -0.15533378
1683722135.193975 -0.02502647 0.00979816 0.00148799 -0.04102351 -0.06222339 0.01101643
1683722135.260687 0.08847699 0.90255223 0.79332213 -0.05206980 -0.09498995 0.04880973
1683722135.327399 -0.04107676 0.47314680 0.04717164 -0.04723052 -0.09755489 0.06767038
1683722135.394112 0.40891387 0.21352292 -1.12849661 -0.05135367 -0.08379352 0.07346238
1683722135.460824 0.67549372 0.08543447 -2.17312377 -0.04695943 -0.05935723 0.07597347
1683722135.527536 0.80741845 -0.13191594 -2.72439979 -0.04513294 -0.04689237 0.07569308
1683722135.594248 0.75183636 -0.41137427 -2.64546274 -0.04638712 -0.04828467 0.07489393
1683722135.660958 0.62490709 -0.64698596 -2.55952969 -0.04467459 -0.04855830 0.06962636
1683722135.727668 0.60408998 -0.85371734 -2.59158234 -0.04718260 -0.05074871 0.07078971
1683722135.794378 0.54441550 -1.08034737 -2.50935590 -0.04998262 -0.04952673 0.06564708
1683722135.861088 0.59685754 -0.85980761 -1.15383713 -0.00961142 0.00665849 -0.00791778
1683722135.927798 0.38600315 -0.68255778 -0.43874472 0.01052791 0.00072797 -0.00100494
1683722135.994508 0.23332742 -0.41290488 0.10911424 -0.00441830 0.00422869 0.01075966
1683722136.061218 0.06155587 -0.16941281 0.12982940 -0.00406885 0.00139085 0.01798312
1683722136.127927 -0.05143324 0.09836095 0.19123217 0.00470756 0.01101062 0.00352782
1683722136.194637 -0.15901994 0.29603522 0.11483827 0.00428614 0.00691353 0.00768206
1683722136.261347 -0.33038556 0.49631864 0.07401119 -0.00187890 0.01276609 0.00614051
1683722136.328057 -0.48318023 0.65437058 0.06105000 -0.00368003 0.01198766 0.00702791
1683722136.394766 -0.52837590 0.77282424 0.07636935 -0.00230785 0.01282012 0.00750607
1683722136.461476 -0.50317054 0.76363587 0.07650380 -0.00341921 0.01101612 0.00787547
1683722136.528186 -0.52593329 0.73074281 0.07244838 -0.00527760 0.01017465 0.00796931
1683722136.594896 -0.46173877 0.64536133 0.06647876 -0.00434221 0.00867172 0.00817437
1683722136.661605 -0.32750801 0.54331358 0.05519169 -0.00078693 0.00717917 0.00809524
1683722136.728316 -0.36670323 0.47706850 0.04668475 -0.00170225 0.00621810 0.00717469
1683722136.795026 -0.39765519 0.47079356 0.04783156 -0.00240546 0.00636473 0.00753173
1683722136.861736 -0.31673196 0.41394013 0.04043252 -0.00085364 0.00514966 0.00736293
1683722136.928445 -0.25413948 0.39394998 0.04258680 -0.00231871 0.00507770 0.00788653
1683722136.995155 -0.11380454 0.34673156 0.03235961 -0.00052005 0.00462766 0.00710225
1683722137.061865 -0.11824290 0.35362079 0.04090161 -0.00412914 0.00400808 0.00971196
1683722137.128575 -0.11583549 0.33549541 0.04268344 -0.00505728 0.00333797 0.01051438
1683722137.195285 -0.18090559 0.21531041 0.04018377 -0.00481953 0.00210343 0.01016862
1683722137.261994 -0.18520370 0.09437129 0.03748681 -0.00346730 0.00165571 0.00952802
1683722137.328704 -0.21258471 -0.00363459 0.03300460 -0.00272239 0.00188585 0.00904831
1683722137.395414 -0.21684853 -0.06277999 0.03429252 -0.00271100 0.00200156 0.00894585
1683722137.462123 -0.20470816 -0.05893158 0.03359082 -0.00271623 0.00172606 0.00896604
1683722137.528833 -0.18021258 0.00009080 0.03131695 -0.00182845 0.00200762 0.00895486
1683722137.595543 -0.22243568 -0.12684593 0.02937511 -0.00107374 0.00213363 0.00819663
1683722137.662254 -0.18897990 -0.24370146 0.02925132 0.00007046 0.00224008 0.00762598
1683722137.728966 -0.07741596 -0.30999753 0.02823935 0.00039275 0.00222273 0.00686684
1683722137.795677 0.07618493 -0.35321138 0.02435360 0.00122675 0.00230143 0.00624415
1683722137.862388 0.19927329 -0.40546533 0.02251711 0.00159357 0.00208297 0.00562153
1683722137.929100 0.23506083 -0.40754808 0.02137083 0.00280709 0.00210148 0.00482554
1683722137.995811 0.34443669 -0.36849416 0.01479580 0.00415054 0.00229140 0.00360889
1683722138.062522 0.33324188 -0.38480282 0.01436432 0.00440515 0.00108781 0.00275978
1683722138.129233 0.29472528 -0.28973599 0.00740018 0.00442991 0.00063614 0.00251941
1683722138.195944 0.20370374 -0.21685413 0.00509712 0.00354845 0.00040806 0.00205470
1683722138.262655 0.13691292 -0.24983623 0.00938649 0.00289359 0.00064030 0.00087226
1683722138.329366 0.08918219 -0.23835847 0.00886099 0.00239349 0.00092737 0.00021338
1683722138.396077 0.01686380 -0.22510280 0.00967417 0.00214155 0.00128408 -0.00007912
1683722138.462788 -0.04621381 -0.20368338 0.00924023 0.00225489 0.00181716 -0.00004870
1683722138.529499 -0.11891696 -0.19242087 0.01089115 0.00233367 0.00240356 0.00015021
1683722138.596210 -0.07905670 -0.22277294 0.00985176 0.00235059 0.00307638 0.00053100
1683722138.662920 -0.04271538 -0.23753359 0.00763995 0.00245595 0.00348369 0.00093315
1683722138.729630 0.02979105 -0.26254235 0.00505274 0.00268357 0.00348043 0.00144363
1683722138.796340 0.02770331 -0.21392727 0.01373347 0.00162689 0.00232898 0.00202641
1683722138.863050 0.05704436 -0.20929559 0.01123090 0.00159310 0.00206329 0.00211874
1683722138.929760 0.11839308 -0.23222751 0.00754659 0.00150525 0.00178304 0.00233094
1683722138.996469 0.12333664 -0.22228430 0.00652836 0.00158936 0.00192675 0.00225385
1683722139.063179 0.13194044 -0.20772537 0.00244724 0.00141928 0.00165415 0.00214780
1683722139.129889 0.12059558 -0.19603874 0.00184146 0.00120692 0.00140005 0.00220941
1683722139.196599 0.13154607 -0.19960860 0.00145341 0.00118226 0.00124584 0.00212331
1683722139.263308 0.13885121 -0.19987466 0.00141042 0.00116548 0.00113412 0.00188097
1683722139.330018 0.15870251 -0.21257604 0.00118326 0.00112619 0.00107392 0.00169952
1683722139.396728 0.15525321 -0.21239038 0.00167995 0.00111205 0.00101679 0.00165252
1683722139.463437 0.16414396 -0.21756625 0.00168972 0.00113250 0.00094765 0.00154374
1683722139.530147 0.16144292 -0.21908103 0.00228570 0.00107445 0.00088893 0.00146661
1683722139.596857 0.15232248 -0.21649407 0.00294957 0.00102823 0.00089388 0.00145324
1683722139.663568 0.14993812 -0.21753317 0.00333186 0.00098391 0.00091969 0.00137786
1683722139.730278 0.14609000 -0.21620215 0.00328234 0.00095515 0.00087376 0.00124223
1683722139.796989 0.14460813 -0.21537337 0.00340917 0.00088621 0.00089478 0.00105316
1683722139.863700 0.14369762 -0.21678459 0.00339973 0.00084351 0.00083344 0.00089394
1683722139.930411 0.14017069 -0.22609452 0.00359569 0.00081514 0.00070226 0.00068093
1683722139.997122 0.14382155 -0.22482601 0.00331404 0.00084600 0.00073510 0.00049934
1683722140.063833 0.13542636 -0.23079679 0.00443718 0.00080068 0.00053341 0.00026424
1683722140.130543 0.13161007 -0.23111768 0.00510004 0.00072653 0.00046873 0.00020812
1683722140.197254 0.13196575 -0.22820656 0.00450225 0.00063067 0.00037974 0.00018102
1683722140.263965 0.13368463 -0.22460238 0.00322602 0.00052868 0.00028840 0.00011542
1683722140.330676 0.13127203 -0.22009720 0.00242337 0.00050714 0.00019286 0.00015800
1683722140.397387 0.13013433 -0.21356686 0.00142790 0.00047379 0.00012962 0.00019246
1683722140.464097 0.12801521 -0.20648320 0.00084269 0.00045418 0.00010596 0.00027274
1683722140.530808 0.12283257 -0.20016415 0.00084402 0.00039349 0.00009345 0.00036407
1683722140.597520 0.11271088 -0.19263186 0.00162763 0.00032464 0.00007653 0.00046212
1683722140.664232 0.11454163 -0.19231128 0.00089490 0.00038365 0.00005030 0.00058588
1683722140.730945 0.10398094 -0.18786458 0.00191765 0.00033112 0.00007982 0.00065993
1683722140.797658 0.09850839 -0.18568991 0.00221950 0.00029586 0.00007444 0.00064911
1683722140.864371 0.09908137 -0.18605390 0.00197598 0.00032062 0.00000559 0.00058083
1683722140.931083 0.09903318 -0.18215804 0.00143965 0.00037399 0.00005212 0.00062761
1683722140.997796 0.09854738 -0.18023628 0.00090484 0.00036522 0.00001194 0.00061046
1683722141.064509 0.09150968 -0.17417361 0.00088559 0.00030108 -0.00001100 0.00055293
1683722141.131222 0.08695068 -0.17257459 0.00197191 0.00035789 0.00010603 0.00059387
1683722141.197935 0.07681163 -0.16303350 0.00193791 0.00028081 0.00008896 0.00059037
1683722141.264648 0.07131429 -0.16617320 0.00382117 0.00029573 0.00017279 0.00066895
1683722141.331361 0.05968756 -0.16255580 0.00533903 0.00020398 0.00015374 0.00071167
1683722141.398073 0.05486949 -0.16114555 0.00602774 0.00021453 0.00021321 0.00074387
1683722141.464786 0.04885307 -0.16021807 0.00661213 0.00016439 0.00017286 0.00077459
1683722141.531500 0.04317075 -0.16121208 0.00768506 0.00014092 0.00015698 0.00076644
1683722141.598212 0.03732690 -0.16077472 0.00883200 0.00010503 0.00014423 0.00079266
1683722141.664923 0.03127363 -0.16039449 0.00960749 0.00006393 0.00004273 0.00086244
1683722141.731634 0.03206109 -0.16088009 0.00947810 0.00009374 0.00002218 0.00082471
1683722141.798346 0.03305593 -0.15394494 0.00791927 0.00009482 -0.00002854 0.00080949
1683722141.865057 0.03121568 -0.15076485 0.00758243 0.00012224 -0.00000228 0.00078526
1683722141.931768 0.02484898 -0.14892631 0.00839821 0.00014085 -0.00005263 0.00079544
1683722141.998480 0.02470565 -0.15239879 0.00904811 0.00018169 -0.00009185 0.00079023
1683722142.065191 0.02427456 -0.15930840 0.01039988 0.00013941 -0.00022183 0.00078630
1683722142.131902 0.01857526 -0.15647589 0.01089892 0.00018258 -0.00024050 0.00084004
1683722142.198614 0.01273079 -0.15551045 0.01190359 0.00014660 -0.00030356 0.00086589
1683722142.265325 0.01016454 -0.14964575 0.01115982 0.00014799 -0.00039384 0.00086286
1683722142.332036 0.01349919 -0.15049803 0.01069463 0.00016632 -0.00039614 0.00086894
1683722142.398747 0.01496494 -0.15092107 0.01058221 0.00020117 -0.00041624 0.00088791
1683722142.465458 0.01560695 -0.14951617 0.01040105 0.00028047 -0.00044930 0.00094933
1683722142.532170 0.01836467 -0.14883593 0.00977928 0.00030347 -0.00046875 0.00099302
1683722142.598881 0.01938385 -0.14860555 0.00959121 0.00031313 -0.00047129 0.00100447
1683722142.665592 0.02152721 -0.14734342 0.00893517 0.00032932 -0.00050180 0.00101743
1683722142.732303 0.02157598 -0.14717138 0.00906282 0.00035448 -0.00048739 0.00103179
1683722142.799014 0.02381750 -0.14580894 0.00835191 0.00036213 -0.00046591 0.00103983
1683722142.865725 0.02461986 -0.14476928 0.00800146 0.00036377 -0.00045609 0.00104822
1683722142.932436 0.02479999 -0.14381632 0.00781490 0.00037125 -0.00044047 0.00106407
1683722142.999146 0.02539187 -0.14273647 0.00749623 0.00037286 -0.00043156 0.00107457
1683722143.065857 0.02555745 -0.14222109 0.00738519 0.00036753 -0.00043280 0.00107577
1683722143.132568 0.02539228 -0.14162334 0.00732948 0.00036349 -0.00043043 0.00108052
1683722143.199279 0.02527872 -0.14096671 0.00723869 0.00036111 -0.00042035 0.00108390
1683722143.265990 0.02516397 -0.14019083 0.00710075 0.00035393 -0.00040758 0.00108744
1683722143.332700 0.02501270 -0.13972974 0.00705826 0.00034957 -0.00040181 0.00108849
1683722143.399411 0.02481620 -0.13922804 0.00700458 0.00034537 -0.00039937 0.00108829
1683722143.466121 0.02471891 -0.13863484 0.00692665 0.00034876 -0.00039259 0.00109035
1683722143.532832 0.02460491 -0.13815072 0.00686791 0.00034752 -0.00039050 0.00108973
1683722143.599545 0.02449172 -0.13772153 0.00680852 0.00034258 -0.00039086 0.00108849
1683722143.666262 0.02438374 -0.13707666 0.00670906 0.00033837 -0.00038294 0.00109042
1683722143.732979 0.02421451 -0.13682444 0.00668540 0.00032738 -0.00037280 0.00108887
1683722143.799695 0.02395785 -0.13698666 0.00676542 0.00031347 -0.00037135 0.00108503
1683722143.866412 0.02438463 -0.13744795 0.00676582 0.00031013 -0.00036620 0.00107910
1683722143.933129 0.02486269 -0.13790908 0.00675485 0.00030979 -0.00036225 0.00107498
1683722143.999846 0.02496897 -0.13753532 0.00667328 0.00031143 -0.00035908 0.00107652
1683722144.066562 0.02547241 -0.13781687 0.00664530 0.00032218 -0.00034832 0.00108579
1683722144.133280 0.02533103 -0.13750308 0.00661797 0.00032314 -0.00034642 0.00108726
1683722144.199997 0.02518874 -0.13699297 0.00655404 0.00032216 -0.00034159 0.00109065
1683722144.266714 0.02455314 -0.13702155 0.00670596 0.00031947 -0.00033569 0.00109421
1683722144.333431 0.02434882 -0.13704231 0.00674943 0.00031831 -0.00033898 0.00109376
1683722144.400149 0.02426553 -0.13674161 0.00671579 0.00032046 -0.00034224 0.00109268
1683722144.466866 0.02384041 -0.13640209 0.00674315 0.00032019 -0.00033801 0.00109354
1683722144.533583 0.02369683 -0.13605564 0.00669452 0.00031945 -0.00033213 0.00109523
1683722144.600297 0.02357083 -0.13585492 0.00667375 0.00031860 -0.00032961 0.00109367
1683722144.667006 0.02345894 -0.13539946 0.00659661 0.00031615 -0.00032498 0.00109342
1683722144.733716 0.02337346 -0.13531868 0.00659733 0.00031458 -0.00032530 0.00108968
1683722144.800426 0.02306833 -0.13512824 0.00662954 0.00031339 -0.00032318 0.00108109
1683722144.867135 0.02278371 -0.13449485 0.00655583 0.00031005 -0.00031463 0.00108855
1683722144.933845 0.02260286 -0.13437559 0.00656092 0.00030773 -0.00031206 0.00110181
1683722145.000554 0.02250799 -0.13424054 0.00654797 0.00030308 -0.00030877 0.00110243
1683722145.067263 0.02245726 -0.13407016 0.00652077 0.00029952 -0.00030635 0.00109615
1683722145.133972 0.02254204 -0.13378294 0.00643596 0.00029695 -0.00030611 0.00109833
1683722145.200681 0.02230267 -0.13376203 0.00648135 0.00029544 -0.00030411 0.00110119
1683722145.267391 0.02216487 -0.13354492 0.00646771 0.00029921 -0.00030300 0.00110028
1683722145.334100 0.02201580 -0.13333824 0.00645302 0.00029958 -0.00030399 0.00110440
1683722145.400809 0.02198244 -0.13329527 0.00644503 0.00029531 -0.00030421 0.00110537
1683722145.467518 0.02212617 -0.13303990 0.00636494 0.00029559 -0.00030396 0.00110592
1683722145.534227 0.02197526 -0.13318269 0.00641468 0.00028831 -0.00030593 0.00110476
1683722145.600937 0.02171796 -0.13311484 0.00644710 0.00028121 -0.00030297 0.00110333
1683722145.667649 0.02189177 -0.13284886 0.00636245 0.00028689 -0.00030170 0.00110589
1683722145.734360 0.02177009 -0.13299698 0.00641415 0.00028169 -0.00030569 0.00110488
1683722145.801072 0.02187468 -0.13272660 0.00633523 0.00028239 -0.00030503 0.00110214
1683722145.867783 0.02184038 -0.13262192 0.00631627 0.00028194 -0.00030329 0.00110184
1683722145.934494 0.02202764 -0.13234815 0.00620499 0.00027653 -0.00029876 0.00110786
1683722146.001206 0.02236699 -0.13212656 0.00608622 0.00027843 -0.00029269 0.00111158
1683722146.067918 0.02257075 -0.13197253 0.00601283 0.00027610 -0.00029015 0.00111880
1683722146.134629 0.02189926 -0.13264498 0.00629273 0.00026895 -0.00029917 0.00111427
1683722146.201340 0.02214972 -0.13208143 0.00613139 0.00026974 -0.00029788 0.00110831
1683722146.268052 0.02220538 -0.13201410 0.00609580 0.00026741 -0.00029431 0.00110951
1683722146.334763 0.02197779 -0.13212933 0.00615259 0.00025968 -0.00029411 0.00110848
1683722146.401474 0.02186609 -0.13235322 0.00623135 0.00026060 -0.00029890 0.00109442
1683722146.468186 0.02163878 -0.13232200 0.00625704 0.00025088 -0.00029395 0.00108441
1683722146.534897 0.02232369 -0.13217661 0.00607159 0.00025217 -0.00029299 0.00108004
1683722146.601609 0.02185506 -0.13203455 0.00614847 0.00025060 -0.00029497 0.00107651
1683722146.668321 0.02207745 -0.13203961 0.00608138 0.00024650 -0.00029090 0.00107742
1683722146.735034 0.02220032 -0.13194247 0.00603098 0.00024706 -0.00028803 0.00107490
1683722146.801746 0.02223955 -0.13197833 0.00602317 0.00024199 -0.00028924 0.00107204
1683722146.868459 0.02228211 -0.13184938 0.00598690 0.00024158 -0.00029050 0.00107096
1683722146.935171 0.02225874 -0.13173615 0.00596520 0.00024074 -0.00028853 0.00106939
1683722147.001884 0.02211567 -0.13178422 0.00599714 0.00024079 -0.00028706 0.00106398
1683722147.068596 0.02211955 -0.13166148 0.00596944 0.00023950 -0.00028441 0.00106079
1683722147.135309 0.02208837 -0.13175505 0.00598635 0.00023423 -0.00028375 0.00105937
1683722147.202021 0.02213449 -0.13163439 0.00595087 0.00023324 -0.00028473 0.00105678
1683722147.268734 0.02221496 -0.13149033 0.00590034 0.00023304 -0.00028458 0.00105357
1683722147.335446 0.02227175 -0.13148024 0.00587972 0.00023215 -0.00028420 0.00105062
1683722147.402159 0.02232570 -0.13143783 0.00585870 0.00023327 -0.00028491 0.00104783
1683722147.468872 0.02234918 -0.13146255 0.00585286 0.00023059 -0.00028439 0.00104540
1683722147.535584 0.02236648 -0.13145558 0.00584055 0.00022634 -0.00028290 0.00104378
1683722147.602298 0.02236015 -0.13144886 0.00583479 0.00022473 -0.00028187 0.00104152
1683722147.669013 0.02231447 -0.13147277 0.00584246 0.00022118 -0.00028148 0.00103934
1683722147.735728 0.02231425 -0.13142653 0.00582953 0.00021869 -0.00027960 0.00103789
1683722147.802443 0.02227680 -0.13142419 0.00583161 0.00021980 -0.00028108 0.00103577
1683722147.869158 0.02221511 -0.13126299 0.00581252 0.00022135 -0.00028080 0.00103372
1683722147.935873 0.02223808 -0.13122418 0.00578966 0.00022057 -0.00027898 0.00103234
1683722148.002588 0.02154067 -0.13148913 0.00599227 0.00022345 -0.00027854 0.00103327
1683722148.069304 0.02228275 -0.13127953 0.00578413 0.00022203 -0.00027449 0.00103047
1683722148.136019 0.02178188 -0.13160935 0.00595797 0.00021785 -0.00027574 0.00102957
1683722148.202734 0.02160590 -0.13163927 0.00600117 0.00021734 -0.00027289 0.00102936
1683722148.269449 0.02212807 -0.13163604 0.00586823 0.00020724 -0.00027156 0.00102583
1683722148.336164 0.02195859 -0.13159198 0.00588995 0.00020443 -0.00027040 0.00102587
1683722148.402880 0.02200997 -0.13160263 0.00586980 0.00020671 -0.00026696 0.00102530
1683722148.469595 0.02204668 -0.13163073 0.00585757 0.00020458 -0.00026425 0.00102214
1683722148.536310 0.02205518 -0.13161908 0.00585526 0.00020086 -0.00026712 0.00101708
1683722148.603025 0.02170676 -0.13171771 0.00595261 0.00019901 -0.00026788 0.00101304
1683722148.669740 0.02162886 -0.13174734 0.00596482 0.00019820 -0.00026457 0.00101183
