timestamp ba_x ba_y ba_z bg_x bg_y bg_z
1681307628.348309 -0.00002334 -0.00007482 -0.00193730 0.00042858 -0.00000588 0.00017710
1681307628.415000 -0.00002424 -0.00007890 -0.00202296 0.00037015 -0.00003517 0.00021384
1681307628.481691 -0.00003779 -0.00013269 -0.00350193 0.00037732 0.00003442 0.00029814
1681307628.548382 -0.00002961 -0.00010139 -0.00261912 0.00037000 0.00003461 0.00031217
1681307628.615071 -0.00002353 -0.00007863 -0.00195809 0.00033305 0.00001123 0.00032259
1681307628.681762 -0.00001895 -0.00006128 -0.00142603 0.00029467 -0.00001296 0.00033145
1681307628.748453 -0.00001788 -0.00005752 -0.00129150 0.00029146 -0.00001667 0.00033936
1681307628.815144 -0.00001806 -0.00005739 -0.00125650 0.00030197 -0.00000366 0.00033721
1681307628.881834 -0.00001636 -0.00005163 -0.00104349 0.00030412 -0.00000377 0.00033650
1681307628.948525 -0.00001660 -0.00005057 -0.00093014 0.00028278 -0.00000432 0.00034596
1681307629.015215 -0.00001720 -0.00005300 -0.00095638 0.00026405 0.00001026 0.00035194
1681307629.081903 -0.00001790 -0.00005354 -0.00092113 0.00026301 0.00002799 0.00034446
1681307629.148592 -0.00001735 -0.00004816 -0.00066791 0.00025637 0.00002820 0.00033362
1681307629.215281 -0.00001702 -0.00004379 -0.00038496 0.00024273 0.00000669 0.00033487
1681307629.281969 -0.00001769 -0.00005043 -0.00051945 0.00020997 0.00000474 0.00035540
1681307629.348658 -0.00001842 -0.00005359 -0.00058473 0.00018430 0.00003348 0.00037226
1681307629.415346 -0.00001791 -0.00005249 -0.00045102 0.00017516 0.00004831 0.00038736
1681307629.482035 -0.00001785 -0.00005339 -0.00030238 0.00015681 0.00004311 0.00040439
1681307629.548722 -0.00001801 -0.00005804 -0.00035834 0.00014205 0.00004930 0.00041653
1681307629.615410 -0.00001967 -0.00006007 -0.00022184 0.00014413 0.00005055 0.00042121
1681307629.682098 -0.00002082 -0.00006468 -0.00023495 0.00014427 0.00005425 0.00042737
1681307629.748787 -0.00001999 -0.00006913 -0.00013183 0.00010930 0.00005966 0.00043871
1681307629.815475 -0.00002260 -0.00007376 -0.00013340 0.00007688 0.00006625 0.00044091
1681307629.882162 -0.00002515 -0.00007676 -0.00013432 0.00007852 0.00007623 0.00044113
1681307629.948849 -0.00002801 -0.00008595 -0.00007077 0.00007928 0.00008147 0.00045197
1681307630.015537 -0.00003651 -0.00009499 0.00006946 0.00005313 0.00007458 0.00045039
1681307630.082228 -0.00003733 -0.00010229 -0.00001910 0.00002691 0.00007562 0.00045507
1681307630.148920 -0.00004178 -0.00010805 -0.00000510 0.00001778 0.00008537 0.00046602
1681307630.215611 -0.00004876 -0.00011329 0.00003119 0.00001624 0.00009333 0.00046551
1681307630.282302 -0.00006074 -0.00013014 0.00018148 0.00002757 0.00008178 0.00046299
1681307630.348993 -0.00006398 -0.00013638 0.00007883 0.00003964 0.00007773 0.00046295
1681307630.415684 -0.00006258 -0.00013882 0.00005712 0.00004457 0.00008017 0.00047281
1681307630.482375 -0.00006671 -0.00014111 0.00005078 0.00004838 0.00008458 0.00047443
1681307630.549066 -0.00008480 -0.00015871 0.00011517 0.00004244 0.00008355 0.00046537
1681307630.615757 -0.00009600 -0.00017431 0.00014190 0.00004136 0.00007930 0.00046109
1681307630.682449 -0.00008660 -0.00017274 0.00002890 0.00004330 0.00008729 0.00046633
1681307630.749140 -0.00009233 -0.00017635 0.00008046 0.00004940 0.00009532 0.00046803
1681307630.815831 -0.00010989 -0.00019887 0.00018606 0.00005306 0.00008932 0.00046618
1681307630.882521 -0.00012103 -0.00021349 0.00012281 0.00005156 0.00008618 0.00046349
1681307630.949213 -0.00012431 -0.00021651 0.00009454 0.00005504 0.00009356 0.00046085
1681307631.015904 -0.00013149 -0.00025802 0.00017119 0.00005977 0.00009342 0.00046190
1681307631.082596 -0.00016489 -0.00032792 0.00025070 0.00005836 0.00008348 0.00046500
1681307631.149287 -0.00019934 -0.00037997 0.00024506 0.00005541 0.00007829 0.00046583
1681307631.215979 -0.00016941 -0.00039953 0.00018998 0.00005218 0.00008075 0.00046682
1681307631.282670 -0.00015530 -0.00046438 0.00025212 0.00004452 0.00008099 0.00047461
1681307631.349362 -0.00016724 -0.00048756 0.00026250 0.00003890 0.00007961 0.00047931
1681307631.416054 -0.00018416 -0.00055066 0.00028977 0.00004118 0.00007651 0.00047901
1681307631.482746 -0.00018898 -0.00059252 0.00025267 0.00004529 0.00007470 0.00047906
1681307631.549437 -0.00018811 -0.00062059 0.00030434 0.00004510 0.00007699 0.00048623
1681307631.616129 -0.00021864 -0.00069336 0.00035634 0.00004314 0.00007525 0.00049203
1681307631.682821 -0.00023442 -0.00074410 0.00032347 0.00004892 0.00007236 0.00048810
1681307631.749512 -0.00021547 -0.00077699 0.00030341 0.00005134 0.00007650 0.00048914
1681307631.816204 -0.00019023 -0.00079590 0.00030597 0.00004760 0.00008184 0.00049998
1681307631.882896 -0.00015925 -0.00084309 0.00034756 0.00004464 0.00008264 0.00050794
1681307631.949588 -0.00020138 -0.00097679 0.00044277 0.00004156 0.00007674 0.00050939
1681307632.016280 -0.00021172 -0.00100196 0.00035494 0.00003503 0.00007574 0.00050878
1681307632.082975 -0.00019411 -0.00101415 0.00033907 0.00002923 0.00008388 0.00051257
1681307632.149669 -0.00028962 -0.00113108 0.00050665 0.00003051 0.00007920 0.00051390
1681307632.216363 -0.00035837 -0.00125110 0.00051851 0.00004115 0.00006997 0.00050855
1681307632.283058 -0.00039276 -0.00130441 0.00048596 0.00005411 0.00006637 0.00050476
1681307632.349753 -0.00037127 -0.00133159 0.00043695 0.00006210 0.00007089 0.00050998
1681307632.416447 -0.00038540 -0.00142584 0.00054574 0.00006709 0.00007250 0.00051240
1681307632.483143 -0.00048013 -0.00165351 0.00066981 0.00006807 0.00006251 0.00051218
1681307632.549838 -0.00039576 -0.00168728 0.00049443 0.00005834 0.00006347 0.00051521
1681307632.616532 -0.00039722 -0.00175523 0.00056602 0.00005045 0.00006920 0.00051950
1681307632.683227 -0.00053432 -0.00200732 0.00074503 0.00004581 0.00006080 0.00052577
1681307632.749922 -0.00056300 -0.00204074 0.00058342 0.00004327 0.00005875 0.00052704
1681307632.816617 -0.00059014 -0.00211510 0.00065088 0.00004228 0.00006208 0.00052712
1681307632.883313 -0.00063020 -0.00221641 0.00067435 0.00003733 0.00006438 0.00053205
1681307632.950008 -0.00069420 -0.00233652 0.00074377 0.00003467 0.00006302 0.00053470
1681307633.016704 -0.00076439 -0.00249797 0.00080139 0.00003449 0.00005775 0.00053544
1681307633.083392 -0.00083476 -0.00254782 0.00071378 0.00003366 0.00006089 0.00053445
1681307633.150082 -0.00088606 -0.00261733 0.00075846 0.00003826 0.00006554 0.00053355
1681307633.216772 -0.00102708 -0.00280112 0.00084343 0.00003664 0.00006411 0.00053542
1681307633.283461 -0.00108776 -0.00292066 0.00083655 0.00002969 0.00006408 0.00053586
1681307633.350151 -0.00116940 -0.00303836 0.00086780 0.00002592 0.00006563 0.00053777
1681307633.416840 -0.00115864 -0.00317802 0.00087318 0.00002170 0.00006760 0.00054517
1681307633.483530 -0.00120347 -0.00327305 0.00085290 0.00001942 0.00007182 0.00054814
1681307633.550218 -0.00142656 -0.00345918 0.00092161 0.00001866 0.00007457 0.00054810
1681307633.616907 -0.00157042 -0.00362446 0.00095754 0.00002206 0.00007445 0.00054799
1681307633.683597 -0.00162206 -0.00371899 0.00093824 0.00002701 0.00007588 0.00055008
1681307633.750286 -0.00178507 -0.00387457 0.00098723 0.00003305 0.00007776 0.00054883
1681307633.816975 -0.00184562 -0.00404247 0.00103847 0.00003879 0.00007724 0.00054924
1681307633.883665 -0.00191801 -0.00429894 0.00112269 0.00004687 0.00006976 0.00055362
1681307633.950352 -0.00188804 -0.00443731 0.00102590 0.00005187 0.00006880 0.00055629
1681307634.017042 -0.00177409 -0.00464859 0.00105002 0.00005246 0.00007516 0.00055755
1681307634.083734 -0.00204082 -0.00509271 0.00121862 0.00005788 0.00007142 0.00055686
1681307634.150427 -0.00214098 -0.00560542 0.00121990 0.00006008 0.00006590 0.00055690
1681307634.217120 -0.00207765 -0.00584442 0.00116308 0.00005780 0.00006820 0.00056110
1681307634.283812 -0.00211183 -0.00605518 0.00120541 0.00005869 0.00007151 0.00056692
1681307634.350505 -0.00226043 -0.00662301 0.00133173 0.00005728 0.00007022 0.00056680
1681307634.417197 -0.00240435 -0.00698100 0.00133823 0.00005545 0.00006718 0.00056770
1681307634.483889 -0.00230411 -0.00708284 0.00123833 0.00005406 0.00007222 0.00057220
1681307634.550582 -0.00239833 -0.00741577 0.00134430 0.00005220 0.00007561 0.00057289
1681307634.617275 -0.00260568 -0.00784730 0.00144173 0.00005707 0.00007128 0.00057361
1681307634.683967 -0.00247922 -0.00806996 0.00134070 0.00006107 0.00007327 0.00057439
1681307634.750660 -0.00254514 -0.00853377 0.00143094 0.00006189 0.00007628 0.00057440
1681307634.817352 -0.00244285 -0.00881489 0.00141858 0.00006262 0.00007984 0.00057916
1681307634.884044 -0.00246139 -0.00923931 0.00149767 0.00006743 0.00008049 0.00058336
1681307634.950737 -0.00258414 -0.00972674 0.00155623 0.00007156 0.00007628 0.00058535
1681307635.017429 -0.00222047 -0.00991589 0.00145268 0.00006928 0.00007770 0.00058936
1681307635.084123 -0.00233715 -0.01025456 0.00152696 0.00007213 0.00007956 0.00059473
1681307635.150817 -0.00232448 -0.01057838 0.00158081 0.00007539 0.00007842 0.00059889
1681307635.217511 -0.00249200 -0.01148601 0.00167604 0.00007404 0.00007576 0.00059753
1681307635.284205 -0.00261326 -0.01137908 0.00151734 0.00007329 0.00007846 0.00059484
1681307635.350899 -0.00267464 -0.01203254 0.00168908 0.00006853 0.00007865 0.00059316
1681307635.417593 -0.00273792 -0.01225100 0.00165133 0.00007064 0.00007653 0.00059244
1681307635.484288 -0.00272736 -0.01252453 0.00170053 0.00007703 0.00007515 0.00059419
1681307635.550982 -0.00256225 -0.01264050 0.00165716 0.00007284 0.00007818 0.00059762
1681307635.617677 -0.00283914 -0.01355357 0.00182601 0.00007047 0.00007565 0.00060428
1681307635.684371 -0.00139518 -0.01282023 0.00146792 0.00006373 0.00008559 0.00061217
1681307635.751065 -0.00246626 -0.01400813 0.00189776 0.00005759 0.00008078 0.00060977
1681307635.817760 -0.00242415 -0.01406934 0.00170864 0.00005391 0.00007848 0.00061175
1681307635.884454 -0.00200072 -0.01375029 0.00155619 0.00004807 0.00009126 0.00061312
1681307635.951150 -0.00286208 -0.01461801 0.00190605 0.00005024 0.00008782 0.00061292
1681307636.017844 -0.00271535 -0.01483710 0.00177930 0.00005196 0.00008369 0.00061732
1681307636.084538 -0.00246126 -0.01455437 0.00163810 0.00004706 0.00009267 0.00061832
1681307636.151231 -0.00308666 -0.01552949 0.00194906 0.00004973 0.00008645 0.00062352
1681307636.217923 -0.00237828 -0.01525880 0.00169881 0.00005234 0.00008965 0.00063031
1681307636.284616 -0.00294669 -0.01576738 0.00189947 0.00005559 0.00008845 0.00063146
1681307636.351310 -0.00288337 -0.01597482 0.00183501 0.00005494 0.00008695 0.00063473
1681307636.418003 -0.00278050 -0.01598059 0.00180314 0.00005241 0.00009044 0.00063490
1681307636.484697 -0.00363558 -0.01684705 0.00199113 0.00005319 0.00008842 0.00063465
1681307636.551390 -0.00379704 -0.01723991 0.00198261 0.00005456 0.00008396 0.00063327
1681307636.618082 -0.00364143 -0.01749883 0.00192691 0.00005554 0.00008510 0.00063513
1681307636.684776 -0.00357663 -0.01763164 0.00192149 0.00005542 0.00008856 0.00063804
1681307636.751469 -0.00415575 -0.01868618 0.00212750 0.00005650 0.00008459 0.00063738
1681307636.818163 -0.00345446 -0.01855551 0.00196005 0.00005462 0.00008535 0.00063874
1681307636.884856 -0.00352465 -0.01880189 0.00213278 0.00005181 0.00008218 0.00064313
1681307636.951550 -0.00380844 -0.01932153 0.00212099 0.00005398 0.00007883 0.00064483
1681307637.018244 -0.00354363 -0.01989404 0.00209648 0.00005461 0.00008000 0.00064908
1681307637.084938 -0.00349690 -0.02029590 0.00208827 0.00005424 0.00008491 0.00065229
1681307637.151633 -0.00443568 -0.02220496 0.00236788 0.00005505 0.00007971 0.00065274
1681307637.218328 -0.00456521 -0.02396295 0.00242802 0.00005591 0.00007085 0.00065503
1681307637.285023 -0.00403418 -0.02438892 0.00225175 0.00005718 0.00007428 0.00065900
1681307637.351719 -0.00453271 -0.02584615 0.00247625 0.00006084 0.00007330 0.00066114
1681307637.418414 -0.00354085 -0.02671757 0.00240581 0.00006027 0.00007451 0.00066351
1681307637.485110 -0.00328466 -0.02816165 0.00254856 0.00006187 0.00007474 0.00066977
1681307637.551804 -0.00326062 -0.02990192 0.00264148 0.00006520 0.00007394 0.00067389
1681307637.618500 -0.00349820 -0.03126773 0.00269600 0.00006614 0.00007381 0.00067406
1681307637.685195 -0.00338081 -0.03219419 0.00270426 0.00006669 0.00007504 0.00067573
1681307637.751891 -0.00251078 -0.03303747 0.00271516 0.00006383 0.00007841 0.00067881
1681307637.818587 -0.00169030 -0.03397630 0.00277307 0.00006286 0.00007995 0.00068391
1681307637.885283 -0.00156483 -0.03588154 0.00293974 0.00006559 0.00007503 0.00069153
1681307637.951977 -0.00089191 -0.03682847 0.00290561 0.00006686 0.00007157 0.00069601
1681307638.018673 0.00014609 -0.03710407 0.00286011 0.00006383 0.00007551 0.00069964
1681307638.085364 0.00012730 -0.03767606 0.00293590 0.00006013 0.00007982 0.00070192
1681307638.152056 -0.00002064 -0.03910098 0.00304440 0.00005505 0.00008053 0.00070271
1681307638.218746 -0.00135327 -0.04091236 0.00317925 0.00005438 0.00007826 0.00070488
1681307638.285437 -0.00135327 -0.04091236 0.00317925 -0.00005110 0.00111053 0.00116702
1681307638.352128 -0.00135327 -0.04091236 0.00317925 0.00048488 0.00078474 0.00135438
1681307638.418818 -0.00135327 -0.04091236 0.00317925 0.00020709 -0.00122845 0.00053609
1681307638.485509 -0.00135327 -0.04091236 0.00317925 -0.00064996 0.00061392 0.00076327
1681307638.552199 -0.00135327 -0.04091236 0.00317925 0.00070073 0.00062917 0.00158200
1681307638.618890 -0.00135327 -0.04091236 0.00317925 -0.00027247 0.00025429 0.00114952
1681307638.685581 -0.00135327 -0.04091236 0.00317925 0.00084575 -0.00224065 0.00088423
1681307638.752271 -0.00135327 -0.04091236 0.00317925 -0.00057935 0.00252321 0.00023633
1681307638.818962 -0.00135327 -0.04091236 0.00317925 0.00044881 0.00060573 0.00135100
1681307638.885652 -0.00135327 -0.04091236 0.00317925 -0.00006592 0.00052482 0.00143149
1681307638.952342 -0.00135327 -0.04091236 0.00317925 0.00019154 0.00000049 0.00074579
1681307639.019033 -0.00135327 -0.04091236 0.00317925 -0.00121710 -0.00050987 0.00125364
1681307639.085727 -0.00135327 -0.04091236 0.00317925 -0.00011606 -0.00036932 0.00146311
1681307639.152421 -0.00135327 -0.04091236 0.00317925 0.00005820 0.00072657 0.00115328
1681307639.219115 -0.00135327 -0.04091236 0.00317925 0.00005264 -0.00018911 0.00154174
1681307639.285808 -0.00135327 -0.04091236 0.00317925 -0.00085681 -0.00063919 0.00111153
1681307639.352503 -0.00135327 -0.04091236 0.00317924 -0.00025395 0.00051843 0.00127771
1681307639.419197 -0.00135327 -0.04091236 0.00317924 -0.00019682 0.00082224 0.00158262
1681307639.485891 -0.00135327 -0.04091236 0.00317924 0.00018407 -0.00052708 0.00094352
1681307639.552586 -0.00135327 -0.04091236 0.00317924 -0.00059850 -0.00015302 0.00095993
1681307639.619280 -0.00135327 -0.04091236 0.00317924 0.00003463 0.00044606 0.00155899
1681307639.685974 -0.00135327 -0.04091236 0.00317924 0.00032762 0.00022274 0.00100997
1681307639.752668 -0.00135327 -0.04091236 0.00317924 0.00015258 0.00015220 0.00105020
1681307639.819363 -0.00135327 -0.04091236 0.00317924 -0.00079248 -0.00039945 0.00120586
1681307639.886057 -0.00135327 -0.04091236 0.00317924 -0.00018262 0.00024450 0.00092981
1681307639.952751 -0.00135327 -0.04091236 0.00317924 0.00023094 0.00059628 0.00089140
1681307640.019446 -0.00135327 -0.04091236 0.00317924 -0.00012514 -0.00016536 0.00128078
1681307640.086138 -0.00135327 -0.04091236 0.00317924 0.00001610 -0.00053445 0.00136699
1681307640.152830 -0.00135327 -0.04091236 0.00317924 0.00018127 -0.00001601 0.00123666
1681307640.219521 -0.00135327 -0.04091236 0.00317924 -0.00065378 0.00041175 0.00169665
1681307640.286213 -0.00135327 -0.04091236 0.00317924 0.00020063 0.00012815 0.00135879
1681307640.352905 -0.00135327 -0.04091236 0.00317924 -0.00030749 0.00006075 0.00098019
1681307640.419596 -0.00135327 -0.04091236 0.00317924 -0.00008331 -0.00000023 0.00144753
1681307640.486288 -0.00135327 -0.04091236 0.00317924 0.00037428 0.00001552 0.00146656
1681307640.552980 -0.00135327 -0.04091236 0.00317924 -0.00022631 0.00047450 0.00115740
1681307640.619671 -0.00135327 -0.04091236 0.00317924 0.00027416 -0.00006021 0.00112654
1681307640.686363 -0.00135327 -0.04091236 0.00317924 -0.00077845 -0.00027296 0.00120526
1681307640.753054 -0.00135327 -0.04091236 0.00317924 -0.00045864 0.00023755 0.00142148
1681307640.819746 -0.00135327 -0.04091237 0.00317924 0.00108451 -0.00033732 0.00134582
1681307640.886438 -0.00135328 -0.04091237 0.00317924 0.00015096 0.00023448 0.00077743
1681307640.953130 -0.00135328 -0.04091237 0.00317924 0.00004222 -0.00010364 0.00102133
1681307641.019821 -0.00135328 -0.04091237 0.00317924 -0.00055165 0.00042930 0.00155508
1681307641.086515 -0.00135328 -0.04091237 0.00317924 -0.00046464 0.00028974 0.00112673
1681307641.153210 -0.00135328 -0.04091237 0.00317924 0.00014894 -0.00026459 0.00089560
1681307641.219905 -0.00135328 -0.04091237 0.00317924 0.00012741 0.00009008 0.00125856
1681307641.286600 -0.00135328 -0.04091237 0.00317924 0.00040418 0.00033604 0.00077213
1681307641.353295 -0.00135328 -0.04091237 0.00317924 0.00000493 -0.00005352 0.00102010
1681307641.419990 -0.00135328 -0.04091237 0.00317924 0.00007153 -0.00003878 0.00089260
1681307641.486685 -0.00135328 -0.04091237 0.00317924 -0.00018236 -0.00016030 0.00120836
1681307641.553379 -0.00135328 -0.04091237 0.00317924 -0.00075120 0.00023065 0.00140145
1681307641.620074 -0.00135328 -0.04091237 0.00317924 -0.00029786 0.00026523 0.00146842
1681307641.686769 -0.00135328 -0.04091237 0.00317924 0.00028128 -0.00005328 0.00136277
1681307641.753465 -0.00135327 -0.04091237 0.00317924 0.00048465 -0.00047524 0.00118516
1681307641.820160 -0.00135327 -0.04091237 0.00317924 0.00049201 0.00034817 0.00091816
1681307641.886855 -0.00135327 -0.04091237 0.00317924 -0.00063298 0.00030545 0.00127548
1681307641.953550 -0.00135327 -0.04091237 0.00317924 0.00018005 0.00029822 0.00127942
1681307642.020245 -0.00135327 -0.04091237 0.00317924 0.00014795 -0.00031792 0.00103123
1681307642.086938 -0.00135327 -0.04091237 0.00317924 0.00055522 0.00021036 0.00102282
1681307642.153631 -0.00135327 -0.04091237 0.00317924 0.00039330 0.00043451 0.00093274
1681307642.220324 -0.00135327 -0.04091237 0.00317924 -0.00026852 -0.00029120 0.00136493
1681307642.287017 -0.00135327 -0.04091237 0.00317924 0.00002431 -0.00020321 0.00088757
1681307642.353710 -0.00135327 -0.04091237 0.00317924 0.00010182 0.00005998 0.00099007
1681307642.420402 -0.00135327 -0.04091237 0.00317924 0.00016690 0.00059005 0.00122988
1681307642.487094 -0.00135327 -0.04091237 0.00317924 -0.00073418 0.00000725 0.00121471
1681307642.553787 -0.00135327 -0.04091237 0.00317924 -0.00036720 0.00023247 0.00118067
1681307642.620480 -0.00135327 -0.04091237 0.00317925 -0.00028039 -0.00009680 0.00127906
1681307642.687173 -0.00135326 -0.04091236 0.00317925 -0.00078541 0.00034762 0.00174864
1681307642.753866 -0.00135326 -0.04091236 0.00317925 0.00036932 -0.00010344 0.00102680
1681307642.820559 -0.00135326 -0.04091236 0.00317925 -0.00034972 0.00032621 0.00105104
1681307642.887250 -0.00135326 -0.04091236 0.00317925 -0.00013719 -0.00029985 0.00118891
1681307642.953943 -0.00135326 -0.04091236 0.00317925 0.00115958 0.00020907 0.00087923
1681307643.020636 -0.00135326 -0.04091236 0.00317925 -0.00031066 -0.00002929 0.00187846
1681307643.087330 -0.00135326 -0.04091236 0.00317925 -0.00040059 -0.00047558 0.00104014
1681307643.154023 -0.00135326 -0.04091236 0.00317925 -0.00048985 0.00002313 0.00129345
1681307643.220716 -0.00135326 -0.04091236 0.00317925 -0.00030703 0.00056096 0.00101482
1681307643.287408 -0.00135326 -0.04091236 0.00317925 0.00016008 0.00062100 0.00151959
1681307643.354102 -0.00135326 -0.04091236 0.00317925 0.00023580 -0.00056601 0.00073364
1681307643.420795 -0.00135326 -0.04091236 0.00317925 -0.00022324 -0.00017838 0.00132499
1681307643.487489 -0.00135326 -0.04091236 0.00317925 0.00007732 0.00064972 0.00158698
1681307643.554182 -0.00135326 -0.04091236 0.00317925 0.00082884 0.00056553 0.00069391
1681307643.620875 -0.00135326 -0.04091236 0.00317925 -0.00060919 -0.00050116 0.00109168
1681307643.687569 -0.00135326 -0.04091236 0.00317925 0.00047846 -0.00044128 0.00133043
1681307643.754261 -0.00135326 -0.04091236 0.00317925 0.00087158 0.00089971 0.00112837
1681307643.820955 -0.00135326 -0.04091236 0.00317925 0.00086080 0.00027184 0.00094152
1681307643.887648 -0.00135327 -0.04091236 0.00317925 0.00028421 -0.00035809 0.00089841
1681307643.954342 -0.00135327 -0.04091236 0.00317925 -0.00004228 -0.00008698 0.00120751
1681307644.021035 -0.00135327 -0.04091236 0.00317925 -0.00017356 0.00093053 0.00174807
1681307644.087729 -0.00135327 -0.04091236 0.00317925 0.00012403 0.00016006 0.00081810
1681307644.154422 -0.00135327 -0.04091236 0.00317925 0.00009385 -0.00047446 0.00116529
1681307644.221114 -0.00135327 -0.04091236 0.00317925 -0.00021866 0.00011736 0.00126471
1681307644.287808 -0.00135327 -0.04091236 0.00317925 -0.00022781 0.00103579 0.00102166
1681307644.354502 -0.00135327 -0.04091236 0.00317925 -0.00001112 0.00052170 0.00149204
1681307644.421195 -0.00135326 -0.04091236 0.00317925 -0.00008783 -0.00080670 0.00122972
1681307644.487889 -0.00135326 -0.04091236 0.00317925 0.00039526 -0.00011988 0.00089009
1681307644.554583 -0.00135327 -0.04091236 0.00317925 -0.00084503 0.00106811 0.00149449
1681307644.621275 -0.00135327 -0.04091236 0.00317925 0.00057212 0.00058510 0.00089811
1681307644.687969 -0.00135326 -0.04091236 0.00317925 0.00045441 -0.00040676 0.00130693
1681307644.754663 -0.00135326 -0.04091236 0.00317925 -0.00009106 -0.00028035 0.00130662
1681307644.821357 -0.00135327 -0.04091236 0.00317925 -0.00015710 0.00103952 0.00153728
1681307644.888050 -0.00135327 -0.04091236 0.00317925 0.00058323 0.00038484 0.00148107
1681307644.954744 -0.00135327 -0.04091236 0.00317925 -0.00014678 -0.00017653 0.00093267
1681307645.021438 -0.00135327 -0.04091236 0.00317925 0.00003156 -0.00025772 0.00139723
1681307645.088128 -0.00135327 -0.04091236 0.00317925 0.00009805 0.00049882 0.00161948
1681307645.154819 -0.00135327 -0.04091236 0.00317925 0.00047187 0.00011771 0.00093654
1681307645.221510 -0.00135326 -0.04091236 0.00317925 0.00029139 -0.00051665 0.00114302
1681307645.288202 -0.00135326 -0.04091236 0.00317925 0.00044020 -0.00003634 0.00090569
1681307645.354893 -0.00135326 -0.04091236 0.00317925 0.00080053 0.00007155 0.00117470
1681307645.421584 -0.00135327 -0.04091236 0.00317925 -0.00029603 0.00043025 0.00142266
1681307645.488275 -0.00135327 -0.04091236 0.00317925 -0.00016987 0.00010005 0.00084637
1681307645.554965 -0.00135327 -0.04091236 0.00317925 -0.00085665 0.00037350 0.00120600
1681307645.621656 -0.00135327 -0.04091236 0.00317925 -0.00003731 0.00012878 0.00178464
1681307645.688347 -0.00135327 -0.04091236 0.00317925 0.00028281 -0.00007767 0.00142180
1681307645.755038 -0.00135327 -0.04091236 0.00317925 -0.00090679 0.00019363 0.00151144
1681307645.821729 -0.00135327 -0.04091236 0.00317925 0.00010264 -0.00014680 0.00130296
1681307645.888420 -0.00135326 -0.04091235 0.00317925 -0.00030748 0.00066868 0.00123657
1681307645.955110 -0.00135326 -0.04091235 0.00317926 0.00050985 -0.00022173 0.00141205
1681307646.021801 -0.00135326 -0.04091235 0.00317926 -0.00053624 -0.00001678 0.00118185
1681307646.088493 -0.00135326 -0.04091235 0.00317925 0.00012855 0.00032763 0.00089426
1681307646.155186 -0.00135326 -0.04091235 0.00317925 -0.00016099 0.00012054 0.00123644
1681307646.221879 -0.00135326 -0.04091235 0.00317925 0.00043299 0.00077903 0.00101426
1681307646.288571 -0.00135326 -0.04091235 0.00317925 -0.00029176 0.00013352 0.00101899
1681307646.355264 -0.00135326 -0.04091235 0.00317925 -0.00002245 0.00007371 0.00118605
1681307646.421955 -0.00135326 -0.04091235 0.00317925 0.00041545 0.00064560 0.00113705
1681307646.488648 -0.00135326 -0.04091235 0.00317925 0.00052556 0.00061631 0.00129154
1681307646.555340 -0.00135326 -0.04091235 0.00317925 -0.00058630 -0.00012450 0.00177001
1681307646.622033 -0.00135326 -0.04091235 0.00317925 -0.00020311 -0.00081805 0.00116139
1681307646.688725 -0.00135326 -0.04091235 0.00317925 0.00003056 -0.00005582 0.00083528
1681307646.755418 -0.00135326 -0.04091235 0.00317925 -0.00023445 0.00068633 0.00124692
1681307646.822111 -0.00135326 -0.04091235 0.00317925 0.00034919 -0.00014635 0.00101502
1681307646.888802 -0.00135326 -0.04091235 0.00317925 0.00034140 -0.00021128 0.00167734
1681307646.955495 -0.00135326 -0.04091235 0.00317925 -0.00015757 0.00001229 0.00111799
1681307647.022187 -0.00135326 -0.04091235 0.00317925 0.00069159 0.00038302 0.00124982
1681307647.088880 -0.00135326 -0.04091235 0.00317925 0.00027534 -0.00014628 0.00095476
1681307647.155572 -0.00135326 -0.04091235 0.00317925 0.00080677 -0.00015687 0.00134349
1681307647.222265 -0.00135326 -0.04091235 0.00317925 0.00018949 -0.00038615 0.00154487
1681307647.288957 -0.00135326 -0.04091235 0.00317925 0.00005628 0.00090160 0.00152921
1681307647.355649 -0.00135326 -0.04091235 0.00317926 -0.00055585 0.00013625 0.00132228
1681307647.422342 -0.00135326 -0.04091235 0.00317926 0.00041321 -0.00045637 0.00100768
1681307647.489034 -0.00135326 -0.04091235 0.00317926 -0.00031570 0.00037183 0.00108330
1681307647.555727 -0.00135326 -0.04091235 0.00317926 -0.00016192 0.00055108 0.00128789
1681307647.622420 -0.00135325 -0.04091235 0.00317926 -0.00101223 0.00090136 0.00130514
1681307647.689112 -0.00135325 -0.04091235 0.00317926 0.00032289 -0.00061052 0.00153865
1681307647.755804 -0.00135325 -0.04091234 0.00317926 0.00040663 -0.00022553 0.00108850
1681307647.822496 -0.00135325 -0.04091234 0.00317926 -0.00005785 0.00108435 0.00139583
1681307647.889189 -0.00135325 -0.04091234 0.00317926 0.00042843 -0.00011239 0.00138221
1681307647.955881 -0.00135325 -0.04091234 0.00317926 -0.00040187 0.00000208 0.00134407
1681307648.022574 -0.00135325 -0.04091234 0.00317926 -0.00017416 0.00036855 0.00066774
1681307648.089267 -0.00135325 -0.04091234 0.00317926 -0.00007657 0.00068778 0.00171685
1681307648.155962 -0.00135325 -0.04091234 0.00317926 -0.00016283 0.00025426 0.00151087
1681307648.222654 -0.00135325 -0.04091235 0.00317926 0.00046551 -0.00091885 0.00111509
1681307648.289348 -0.00135325 -0.04091235 0.00317926 -0.00009303 0.00027391 0.00106379
1681307648.356041 -0.00135325 -0.04091235 0.00317926 -0.00043895 0.00051633 0.00167410
1681307648.422735 -0.00135325 -0.04091235 0.00317926 0.00079461 -0.00012352 0.00081918
1681307648.489429 -0.00135325 -0.04091235 0.00317926 -0.00048829 -0.00028508 0.00139370
1681307648.556123 -0.00135325 -0.04091235 0.00317926 -0.00040100 -0.00000998 0.00084329
1681307648.622816 -0.00135325 -0.04091235 0.00317926 0.00021040 0.00015396 0.00173996
1681307648.689510 -0.00135325 -0.04091235 0.00317926 -0.00041970 0.00074564 0.00145712
1681307648.756204 -0.00135325 -0.04091235 0.00317926 0.00035562 -0.00083254 0.00137857
1681307648.822897 -0.00135325 -0.04091235 0.00317926 -0.00116699 0.00021429 0.00094052
1681307648.889591 -0.00135325 -0.04091235 0.00317926 -0.00105018 0.00100559 0.00192899
1681307648.956285 -0.00135325 -0.04091235 0.00317926 0.00009468 0.00024932 0.00158919
1681307649.022979 -0.00135325 -0.04091235 0.00317926 -0.00085680 0.00012165 0.00078044
1681307649.089670 -0.00135325 -0.04091234 0.00317926 0.00005046 -0.00030091 0.00144581
1681307649.156362 -0.00135325 -0.04091235 0.00317926 -0.00047996 0.00031683 0.00169032
1681307649.223054 -0.00135325 -0.04091234 0.00317926 -0.00008592 0.00045939 0.00159768
1681307649.289745 -0.00135325 -0.04091234 0.00317926 -0.00000752 -0.00036776 0.00089879
1681307649.356437 -0.00135325 -0.04091235 0.00317926 -0.00031246 0.00043558 0.00102086
1681307649.423129 -0.00135325 -0.04091234 0.00317926 0.00050062 -0.00020869 0.00130020
1681307649.489820 -0.00135325 -0.04091234 0.00317926 0.00067724 0.00023228 0.00153559
1681307649.556511 -0.00135325 -0.04091234 0.00317926 0.00017956 0.00010608 0.00100927
1681307649.623203 -0.00135325 -0.04091234 0.00317926 0.00012384 -0.00102484 0.00092530
1681307649.689894 -0.00135325 -0.04091234 0.00317926 -0.00077268 0.00054665 0.00111914
1681307649.756586 -0.00135325 -0.04091234 0.00317926 -0.00009842 -0.00003475 0.00146839
1681307649.823278 -0.00135325 -0.04091234 0.00317926 0.00008517 0.00041258 0.00085260
1681307649.889970 -0.00135325 -0.04091234 0.00317926 -0.00052430 -0.00003155 0.00099693
1681307649.956660 -0.00135325 -0.04091234 0.00317926 -0.00007589 -0.00063464 0.00135555
1681307650.023352 -0.00135325 -0.04091234 0.00317926 0.00013516 0.00097827 0.00147135
1681307650.090044 -0.00135325 -0.04091234 0.00317926 0.00022444 -0.00056025 0.00063242
1681307650.156736 -0.00135325 -0.04091234 0.00317926 0.00069871 -0.00048150 0.00094148
1681307650.223428 -0.00135325 -0.04091235 0.00317926 -0.00016118 0.00044813 0.00098100
1681307650.290121 -0.00135325 -0.04091235 0.00317926 0.00028467 0.00040600 0.00119343
1681307650.356813 -0.00135325 -0.04091235 0.00317926 -0.00004037 0.00034481 0.00131065
1681307650.423504 -0.00135325 -0.04091235 0.00317926 0.00039677 0.00000670 0.00135698
1681307650.490196 -0.00135325 -0.04091235 0.00317926 -0.00009597 -0.00003288 0.00088396
1681307650.556888 -0.00135325 -0.04091235 0.00317926 -0.00001964 0.00029814 0.00107022
1681307650.623581 -0.00135325 -0.04091235 0.00317926 0.00024656 0.00018405 0.00166741
1681307650.690273 -0.00135325 -0.04091235 0.00317926 -0.00003987 -0.00016586 0.00098183
1681307650.756965 -0.00135325 -0.04091235 0.00317926 -0.00030057 0.00000323 0.00134402
1681307650.823658 -0.00135325 -0.04091235 0.00317926 -0.00017589 0.00009468 0.00106469
1681307650.890349 -0.00135325 -0.04091235 0.00317926 0.00013918 0.00059611 0.00108419
1681307650.957041 -0.00135325 -0.04091235 0.00317926 0.00043849 -0.00053918 0.00093591
1681307651.023733 -0.00135325 -0.04091235 0.00317926 -0.00025269 -0.00028587 0.00110061
1681307651.090425 -0.00135325 -0.04091235 0.00317926 0.00061083 0.00009384 0.00095574
1681307651.157116 -0.00135325 -0.04091235 0.00317926 0.00005490 0.00032781 0.00153410
1681307651.223808 -0.00135325 -0.04091235 0.00317926 -0.00022667 0.00010316 0.00110034
1681307651.290498 -0.00135325 -0.04091235 0.00317926 -0.00054441 -0.00045469 0.00092103
1681307651.357189 -0.00135325 -0.04091235 0.00317926 -0.00048302 0.00027688 0.00158274
1681307651.423881 -0.00135325 -0.04091235 0.00317926 0.00007778 0.00074440 0.00115691
1681307651.490572 -0.00135324 -0.04091234 0.00317926 0.00022920 -0.00028014 0.00177870
1681307651.557264 -0.00135324 -0.04091234 0.00317926 -0.00031216 0.00024034 0.00095316
1681307651.623955 -0.00135324 -0.04091234 0.00317926 -0.00012070 0.00073064 0.00129832
1681307651.690646 -0.00135324 -0.04091234 0.00317926 -0.00084431 0.00055392 0.00152038
1681307651.757336 -0.00135324 -0.04091234 0.00317926 -0.00010984 0.00035277 0.00101788
1681307651.824028 -0.00135324 -0.04091234 0.00317926 0.00023227 -0.00094733 0.00079721
1681307651.890719 -0.00135325 -0.04091234 0.00317926 0.00070219 0.00048804 0.00109187
1681307651.957410 -0.00135325 -0.04091235 0.00317926 -0.00009910 0.00068051 0.00112045
1681307652.024101 -0.00135325 -0.04091235 0.00317926 -0.00001474 -0.00033642 0.00106727
1681307652.090793 -0.00135325 -0.04091235 0.00317926 -0.00012496 -0.00082083 0.00142559
1681307652.157485 -0.00135325 -0.04091235 0.00317926 0.00024953 0.00039610 0.00119811
1681307652.224176 -0.00135325 -0.04091235 0.00317926 -0.00054691 0.00036714 0.00163260
1681307652.290868 -0.00135325 -0.04091235 0.00317926 -0.00007505 -0.00023428 0.00098780
1681307652.357560 -0.00135325 -0.04091235 0.00317926 -0.00018064 0.00041175 0.00101956
1681307652.424252 -0.00135325 -0.04091235 0.00317926 -0.00026480 0.00003881 0.00105221
1681307652.490943 -0.00135325 -0.04091235 0.00317926 -0.00026266 0.00022256 0.00124960
1681307652.557635 -0.00135325 -0.04091235 0.00317926 -0.00028513 0.00034696 0.00105042
1681307652.624326 -0.00135325 -0.04091235 0.00317926 0.00017488 -0.00018868 0.00082062
1681307652.691017 -0.00135325 -0.04091235 0.00317926 -0.00028937 0.00039521 0.00119560
1681307652.757709 -0.00135325 -0.04091235 0.00317926 0.00014738 -0.00061337 0.00093681
1681307652.824401 -0.00135325 -0.04091235 0.00317926 -0.00026243 0.00010690 0.00127142
1681307652.891093 -0.00135325 -0.04091235 0.00317926 0.00002446 0.00041959 0.00065129
1681307652.957784 -0.00135325 -0.04091235 0.00317926 0.00014943 -0.00030062 0.00118786
1681307653.024476 -0.00135325 -0.04091235 0.00317926 0.00058704 -0.00043019 0.00085834
1681307653.091168 -0.00135326 -0.04091235 0.00317926 -0.00020215 0.00067610 0.00119540
1681307653.157861 -0.00135325 -0.04091235 0.00317926 0.00015374 -0.00020126 0.00115576
1681307653.224555 -0.00135325 -0.04091235 0.00317926 -0.00125779 -0.00057184 0.00119972
1681307653.291249 -0.00135325 -0.04091235 0.00317926 0.00032954 -0.00064095 0.00132551
1681307653.357942 -0.00135326 -0.04091235 0.00317926 -0.00005884 0.00170917 0.00140363
1681307653.424636 -0.00135325 -0.04091235 0.00317926 0.00020724 -0.00088244 0.00114565
1681307653.491329 -0.00135325 -0.04091235 0.00317926 -0.00104236 -0.00074462 0.00072698
1681307653.558022 -0.00135325 -0.04091235 0.00317926 -0.00059062 0.00084228 0.00096817
1681307653.624715 -0.00135325 -0.04091235 0.00317926 -0.00045543 0.00081329 0.00129378
1681307653.691409 -0.00135325 -0.04091235 0.00317926 0.00074933 -0.00088718 0.00078220
1681307653.758103 -0.00135325 -0.04091235 0.00317926 -0.00015191 -0.00004506 0.00066794
1681307653.824796 -0.00135325 -0.04091235 0.00317926 -0.00031624 0.00001486 0.00100738
1681307653.891490 -0.00135325 -0.04091235 0.00317926 -0.00016240 0.00026034 0.00103339
1681307653.958182 -0.00135325 -0.04091235 0.00317926 0.00027587 -0.00060240 0.00107144
1681307654.024876 -0.00135325 -0.04091235 0.00317926 -0.00139873 0.00290395 0.00061946
1681307654.091572 -0.00135325 -0.04091235 0.00317926 -0.00059273 0.00004382 0.00044347
1681307654.158267 -0.00135325 -0.04091235 0.00317926 0.00078754 -0.00037244 0.00156885
1681307654.224963 -0.00135325 -0.04091235 0.00317926 0.00154824 -0.00386143 -0.00007457
1681307654.291658 -0.00135325 -0.04091235 0.00317926 -0.00081941 0.00056675 0.00086455
1681307654.358354 -0.00135325 -0.04091235 0.00317926 0.00024605 -0.00011861 0.00129694
1681307654.425049 -0.00135325 -0.04091235 0.00317926 0.00054326 -0.00060708 0.00069512
1681307654.491744 -0.00135325 -0.04091235 0.00317926 -0.00004420 -0.00000197 0.00100399
1681307654.558440 -0.00135325 -0.04091234 0.00317926 0.00146926 -0.00194462 0.00106440
1681307654.625136 -0.00135326 -0.04091235 0.00317926 -0.00150399 0.00056817 0.00090722
1681307654.691832 -0.00135326 -0.04091235 0.00317926 -0.00091111 0.00173075 0.00170345
1681307654.758527 -0.00135326 -0.04091235 0.00317926 0.00099947 -0.00179040 0.00129709
1681307654.825223 -0.00135326 -0.04091235 0.00317926 -0.00106820 0.00209173 0.00111683
1681307654.891918 -0.00135326 -0.04091235 0.00317926 0.00069515 -0.00091044 0.00092095
1681307654.958614 -0.00135326 -0.04091235 0.00317926 -0.00035537 -0.00027525 0.00060838
1681307655.025310 -0.00135326 -0.04091235 0.00317926 0.00000365 0.00085892 0.00130302
1681307655.092002 -0.00135326 -0.04091235 0.00317926 0.00114043 -0.00065582 0.00104642
1681307655.158694 -0.00135326 -0.04091235 0.00317926 0.00018379 0.00049664 0.00031992
1681307655.225386 -0.00135326 -0.04091236 0.00317926 0.00087101 -0.00062411 0.00114730
1681307655.292077 -0.00135326 -0.04091236 0.00317926 0.00015486 0.00081498 0.00085879
1681307655.358769 -0.00135326 -0.04091236 0.00317926 0.00012370 0.00094400 0.00095618
1681307655.425462 -0.00135326 -0.04091236 0.00317926 0.00007770 -0.00141511 0.00070220
1681307655.492154 -0.00135326 -0.04091236 0.00317926 0.00011948 0.00102679 0.00090467
1681307655.558846 -0.00135326 -0.04091235 0.00317926 -0.00094504 0.00079054 0.00188299
1681307655.625538 -0.00135326 -0.04091235 0.00317926 -0.00017587 0.00039782 0.00089457
1681307655.692230 -0.00135326 -0.04091235 0.00317926 -0.00049651 0.00017558 0.00077479
1681307655.758921 -0.00135326 -0.04091235 0.00317926 0.00150921 -0.00124143 0.00083221
1681307655.825613 -0.00135326 -0.04091235 0.00317926 -0.00108918 0.00152372 0.00113732
1681307655.892305 -0.00135326 -0.04091234 0.00317926 0.00005032 0.00037511 0.00181260
1681307655.958997 -0.00135326 -0.04091234 0.00317926 0.00089043 -0.00108114 0.00042078
1681307656.025689 -0.00135325 -0.04091234 0.00317926 -0.00027492 0.00079078 0.00044504
1681307656.092380 -0.00135325 -0.04091234 0.00317926 0.00071449 -0.00088686 0.00130963
1681307656.159071 -0.00135325 -0.04091234 0.00317926 0.00006832 0.00060372 0.00094841
1681307656.225761 -0.00135325 -0.04091233 0.00317926 0.00021448 -0.00059759 0.00091810
1681307656.292452 -0.00135325 -0.04091234 0.00317926 0.00005311 -0.00030447 0.00093849
1681307656.359143 -0.00135325 -0.04091234 0.00317926 -0.00013167 0.00076998 0.00066528
1681307656.425834 -0.00135325 -0.04091234 0.00317926 0.00031195 0.00017847 0.00119968
1681307656.492525 -0.00135325 -0.04091234 0.00317926 -0.00113962 0.00033098 0.00064677
1681307656.559216 -0.00135325 -0.04091234 0.00317926 -0.00059292 -0.00010307 0.00138554
1681307656.625906 -0.00135325 -0.04091234 0.00317926 0.00010703 0.00021497 0.00116258
1681307656.692597 -0.00135325 -0.04091234 0.00317926 -0.00008725 0.00091457 0.00110408
1681307656.759288 -0.00135325 -0.04091234 0.00317926 -0.00024518 -0.00041730 0.00096041
1681307656.825979 -0.00135325 -0.04091234 0.00317926 -0.00028254 -0.00031323 0.00117995
1681307656.892669 -0.00135325 -0.04091234 0.00317926 -0.00008155 0.00038645 0.00099251
1681307656.959360 -0.00135325 -0.04091234 0.00317926 0.00063285 0.00031124 0.00107906
1681307657.026051 -0.00135325 -0.04091234 0.00317926 0.00043360 0.00027419 0.00087443
1681307657.092742 -0.00135325 -0.04091233 0.00317926 0.00125214 -0.00090147 0.00080122
1681307657.159435 -0.00135325 -0.04091234 0.00317926 0.00019581 -0.00073651 0.00131604
1681307657.226128 -0.00135325 -0.04091234 0.00317926 -0.00005268 0.00103486 0.00100273
1681307657.292820 -0.00135325 -0.04091234 0.00317926 -0.00009779 -0.00025152 0.00137855
1681307657.359513 -0.00135325 -0.04091234 0.00317926 0.00031581 -0.00062814 0.00092391
1681307657.426206 -0.00135325 -0.04091234 0.00317926 -0.00080342 0.00020975 0.00117425
1681307657.492898 -0.00135325 -0.04091234 0.00317926 -0.00005113 0.00014245 0.00139063
1681307657.559590 -0.00135325 -0.04091234 0.00317926 0.00011615 0.00020144 0.00122108
1681307657.626283 -0.00135325 -0.04091234 0.00317926 -0.00054446 -0.00116633 0.00079687
1681307657.692976 -0.00135325 -0.04091234 0.00317926 -0.00021531 0.00046140 0.00147356
1681307657.759668 -0.00135325 -0.04091234 0.00317926 0.00031435 0.00019984 0.00102789
1681307657.826361 -0.00135325 -0.04091234 0.00317926 0.00003643 0.00026304 0.00105273
1681307657.893054 -0.00135325 -0.04091234 0.00317926 -0.00005179 -0.00046516 0.00064007
1681307657.959745 -0.00135325 -0.04091234 0.00317926 -0.00059148 0.00017335 0.00085571
1681307658.026438 -0.00135325 -0.04091234 0.00317926 -0.00019520 -0.00020192 0.00094438
1681307658.093129 -0.00135325 -0.04091234 0.00317926 0.00057435 0.00055508 0.00089790
1681307658.159821 -0.00135325 -0.04091234 0.00317926 -0.00040555 0.00020561 0.00095284
1681307658.226512 -0.00135325 -0.04091234 0.00317926 0.00029982 -0.00042331 0.00085656
1681307658.293203 -0.00135325 -0.04091234 0.00317926 -0.00017744 -0.00013524 0.00093990
1681307658.359894 -0.00135325 -0.04091234 0.00317926 0.00022129 0.00037857 0.00111373
1681307658.426584 -0.00135325 -0.04091234 0.00317926 -0.00003993 0.00047362 0.00116120
1681307658.493276 -0.00135325 -0.04091234 0.00317926 -0.00018223 0.00014126 0.00156731
1681307658.559967 -0.00135325 -0.04091234 0.00317926 0.00003869 0.00013753 0.00143248
1681307658.626658 -0.00135325 -0.04091234 0.00317926 0.00058991 0.00082072 0.00103170
1681307658.693349 -0.00135325 -0.04091234 0.00317926 0.00127894 -0.00062798 0.00105194
1681307658.760041 -0.00135325 -0.04091234 0.00317926 -0.00032264 -0.00044349 0.00138365
1681307658.826732 -0.00135325 -0.04091234 0.00317926 0.00073622 0.00014247 0.00060331
1681307658.893422 -0.00135325 -0.04091234 0.00317926 -0.00000987 0.00034893 0.00099988
1681307658.960113 -0.00135325 -0.04091234 0.00317926 0.00008032 0.00055119 0.00104458
1681307659.026804 -0.00135325 -0.04091234 0.00317926 -0.00067595 -0.00056758 0.00090156
1681307659.093496 -0.00135325 -0.04091234 0.00317926 0.00054421 0.00024683 0.00090420
1681307659.160187 -0.00135325 -0.04091234 0.00317926 0.00027804 0.00015065 0.00079901
1681307659.226879 -0.00135325 -0.04091234 0.00317926 0.00014464 0.00003611 0.00076386
1681307659.293569 -0.00135325 -0.04091234 0.00317926 0.00036558 -0.00046062 0.00075188
1681307659.360260 -0.00135325 -0.04091234 0.00317926 0.00043295 0.00006703 0.00111163
1681307659.426952 -0.00135325 -0.04091234 0.00317926 0.00082922 0.00047877 0.00091579
1681307659.493643 -0.00135325 -0.04091234 0.00317926 0.00050174 -0.00017242 0.00099202
1681307659.560334 -0.00135325 -0.04091234 0.00317926 0.00018700 -0.00083942 0.00086451
1681307659.627026 -0.00135325 -0.04091234 0.00317926 -0.00131460 -0.00045922 0.00079808
1681307659.693717 -0.00135325 -0.04091234 0.00317926 0.00024689 0.00009033 0.00075241
1681307659.760407 -0.00135325 -0.04091234 0.00317926 -0.00016326 0.00023981 0.00144776
1681307659.827098 -0.00135325 -0.04091234 0.00317926 -0.00050142 -0.00026454 0.00093348
1681307659.893790 -0.00135325 -0.04091234 0.00317926 0.00004288 -0.00068969 0.00059026
1681307659.960481 -0.00135325 -0.04091234 0.00317926 0.00021371 -0.00008738 0.00089139
1681307660.027172 -0.00135325 -0.04091234 0.00317926 0.00031511 0.00033925 0.00083055
1681307660.093864 -0.00135325 -0.04091234 0.00317926 0.00020814 0.00001666 0.00109626
1681307660.160556 -0.00135325 -0.04091234 0.00317926 0.00017803 -0.00020991 0.00137867
1681307660.227247 -0.00135325 -0.04091234 0.00317926 -0.00019632 -0.00030031 0.00093253
1681307660.293939 -0.00135325 -0.04091234 0.00317926 -0.00012642 0.00055595 0.00109199
1681307660.360631 -0.00135325 -0.04091234 0.00317926 0.00078563 0.00003318 0.00095018
1681307660.427322 -0.00135325 -0.04091234 0.00317926 -0.00010797 -0.00017803 0.00082663
1681307660.494014 -0.00135325 -0.04091234 0.00317926 0.00063614 -0.00006019 0.00077471
1681307660.560706 -0.00135325 -0.04091234 0.00317926 0.00064679 0.00012823 0.00080419
1681307660.627397 -0.00135325 -0.04091234 0.00317926 -0.00037680 0.00060044 0.00082616
1681307660.694089 -0.00135325 -0.04091234 0.00317926 -0.00046196 -0.00026475 0.00142154
1681307660.760781 -0.00135325 -0.04091234 0.00317926 0.00016495 0.00017552 0.00101489
1681307660.827472 -0.00135325 -0.04091234 0.00317926 -0.00015716 0.00028062 0.00126387
1681307660.894164 -0.00135325 -0.04091234 0.00317926 0.00016000 0.00005006 0.00105493
1681307660.960856 -0.00135325 -0.04091234 0.00317926 0.00048412 -0.00028025 0.00043337
1681307661.027548 -0.00135325 -0.04091234 0.00317926 -0.00003048 0.00012803 0.00107889
1681307661.094238 -0.00135325 -0.04091234 0.00317926 0.00011643 0.00022591 0.00106495
1681307661.160930 -0.00135325 -0.04091234 0.00317926 0.00061224 0.00050306 0.00066113
1681307661.227621 -0.00135325 -0.04091235 0.00317925 -0.00028978 -0.00031246 0.00082562
1681307661.294313 -0.00135325 -0.04091235 0.00317925 -0.00032110 -0.00009828 0.00158787
1681307661.361004 -0.00135325 -0.04091235 0.00317926 -0.00065151 0.00040372 0.00092832
1681307661.427696 -0.00135325 -0.04091235 0.00317926 0.00008281 0.00055857 0.00116533
1681307661.494387 -0.00135325 -0.04091235 0.00317926 -0.00063074 0.00026796 0.00110123
1681307661.561077 -0.00135325 -0.04091234 0.00317926 0.00022386 -0.00085053 0.00075416
1681307661.627769 -0.00135325 -0.04091234 0.00317926 0.00021431 0.00000106 0.00046754
1681307661.694460 -0.00135325 -0.04091235 0.00317926 -0.00082327 0.00055161 0.00105585
1681307661.761152 -0.00135325 -0.04091235 0.00317926 0.00034845 0.00011008 0.00084989
1681307661.827843 -0.00135325 -0.04091235 0.00317926 0.00009973 -0.00047065 0.00074545
1681307661.894534 -0.00135325 -0.04091235 0.00317926 0.00047739 -0.00052293 0.00079472
1681307661.961225 -0.00135325 -0.04091235 0.00317926 0.00017717 0.00034987 0.00058558
1681307662.027916 -0.00135325 -0.04091235 0.00317926 -0.00020070 0.00021009 0.00110408
1681307662.094607 -0.00135325 -0.04091235 0.00317926 -0.00072969 -0.00034590 0.00091682
1681307662.161298 -0.00135325 -0.04091234 0.00317926 0.00056676 -0.00017608 0.00106187
1681307662.227990 -0.00135325 -0.04091235 0.00317925 0.00017490 -0.00045831 0.00133518
1681307662.294681 -0.00135325 -0.04091235 0.00317926 0.00009262 0.00075687 0.00052597
1681307662.361372 -0.00135325 -0.04091234 0.00317926 -0.00038754 0.00014914 0.00138674
1681307662.428062 -0.00135325 -0.04091234 0.00317926 -0.00002259 -0.00050648 0.00058366
1681307662.494754 -0.00135325 -0.04091234 0.00317926 0.00017084 -0.00012184 0.00109965
1681307662.561445 -0.00135325 -0.04091234 0.00317926 0.00061660 0.00067451 0.00064242
1681307662.628136 -0.00135325 -0.04091234 0.00317926 0.00021259 -0.00015673 0.00102653
1681307662.694827 -0.00135325 -0.04091234 0.00317926 0.00054525 -0.00105411 0.00086725
1681307662.761518 -0.00135325 -0.04091234 0.00317926 0.00066570 -0.00048852 0.00104655
1681307662.828209 -0.00135325 -0.04091234 0.00317926 0.00004631 0.00052903 0.00094402
1681307662.894899 -0.00135325 -0.04091234 0.00317926 -0.00010776 0.00015902 0.00071124
1681307662.961591 -0.00135325 -0.04091235 0.00317925 0.00121176 -0.00030444 0.00068383
1681307663.028282 -0.00135325 -0.04091235 0.00317925 0.00026280 -0.00018927 0.00077458
1681307663.094973 -0.00135325 -0.04091235 0.00317925 -0.00011211 0.00113345 0.00135207
1681307663.161664 -0.00135325 -0.04091235 0.00317925 0.00005402 0.00018645 0.00086938
1681307663.228355 -0.00135325 -0.04091235 0.00317925 0.00112733 -0.00018259 0.00031041
1681307663.295046 -0.00135325 -0.04091235 0.00317925 -0.00040321 -0.00067408 0.00104296
1681307663.361737 -0.00135325 -0.04091235 0.00317925 0.00005749 0.00039729 0.00094534
1681307663.428428 -0.00135325 -0.04091235 0.00317925 -0.00022761 0.00033323 0.00136229
1681307663.495119 -0.00135325 -0.04091235 0.00317925 -0.00003692 -0.00003180 0.00112875
1681307663.561810 -0.00135325 -0.04091235 0.00317925 -0.00040563 -0.00039220 0.00070945
1681307663.628502 -0.00135325 -0.04091235 0.00317925 0.00014950 -0.00004720 0.00108206
1681307663.695193 -0.00135325 -0.04091235 0.00317925 0.00093922 -0.00010036 0.00130471
1681307663.761883 -0.00135325 -0.04091235 0.00317925 0.00082557 -0.00003705 0.00068080
1681307663.828574 -0.00135325 -0.04091235 0.00317926 -0.00009346 -0.00037515 0.00082778
1681307663.895265 -0.00135325 -0.04091234 0.00317926 0.00008052 0.00004421 0.00021558
1681307663.961957 -0.00135325 -0.04091234 0.00317926 0.00015814 0.00073777 0.00124187
1681307664.028647 -0.00135325 -0.04091234 0.00317926 -0.00049183 -0.00000540 0.00109425
1681307664.095340 -0.00135325 -0.04091234 0.00317925 -0.00032296 -0.00025780 0.00100183
1681307664.162032 -0.00135325 -0.04091234 0.00317925 -0.00101245 0.00001775 0.00102620
1681307664.228723 -0.00135325 -0.04091234 0.00317925 0.00002613 0.00014871 0.00091864
1681307664.295415 -0.00135325 -0.04091234 0.00317925 -0.00052769 0.00073112 0.00161087
1681307664.362107 -0.00135325 -0.04091234 0.00317925 -0.00011956 -0.00018460 0.00110644
1681307664.428800 -0.00135325 -0.04091234 0.00317925 -0.00029961 -0.00012820 0.00112040
1681307664.495492 -0.00135325 -0.04091235 0.00317925 0.00006676 0.00033331 0.00112975
1681307664.562184 -0.00135325 -0.04091234 0.00317925 0.00045653 -0.00020912 0.00071448
1681307664.628875 -0.00135325 -0.04091235 0.00317925 -0.00016561 -0.00011210 0.00106061
1681307664.695567 -0.00135325 -0.04091235 0.00317925 -0.00009869 -0.00012741 0.00086269
1681307664.762259 -0.00135325 -0.04091235 0.00317925 0.00037214 0.00006631 0.00119294
1681307664.828951 -0.00135325 -0.04091235 0.00317925 -0.00033489 0.00036105 0.00131007
1681307664.895643 -0.00135325 -0.04091235 0.00317925 0.00041179 -0.00039510 0.00046400
1681307664.962336 -0.00135325 -0.04091235 0.00317925 -0.00022992 0.00019837 0.00063677
1681307665.029028 -0.00135325 -0.04091235 0.00317925 0.00017057 -0.00047736 0.00136431
1681307665.095720 -0.00135325 -0.04091235 0.00317925 -0.00038411 0.00008524 0.00089109
1681307665.162413 -0.00135325 -0.04091235 0.00317925 -0.00092463 -0.00011245 0.00150711
1681307665.229105 -0.00135325 -0.04091235 0.00317925 0.00024321 -0.00022488 0.00090003
1681307665.295798 -0.00135325 -0.04091235 0.00317925 -0.00013408 0.00002478 0.00115691
1681307665.362491 -0.00135325 -0.04091235 0.00317925 -0.00007552 0.00050114 0.00061600
1681307665.429183 -0.00135325 -0.04091235 0.00317925 -0.00001049 -0.00006003 0.00092675
1681307665.495877 -0.00135325 -0.04091235 0.00317925 0.00025602 -0.00054850 0.00033195
1681307665.562568 -0.00135325 -0.04091235 0.00317925 0.00001339 -0.00008999 0.00061235
1681307665.629261 -0.00135325 -0.04091235 0.00317925 -0.00029974 0.00046680 0.00118122
1681307665.695954 -0.00135325 -0.04091235 0.00317925 0.00013305 0.00007131 0.00050406
1681307665.762647 -0.00135325 -0.04091235 0.00317925 0.00017551 0.00000185 0.00047431
1681307665.829340 -0.00135325 -0.04091235 0.00317925 -0.00043419 -0.00044098 0.00050922
1681307665.896033 -0.00135325 -0.04091235 0.00317925 0.00030813 0.00001042 0.00059442
1681307665.962724 -0.00135325 -0.04091235 0.00317925 0.00029291 0.00022538 0.00042916
1681307666.029417 -0.00135325 -0.04091235 0.00317925 0.00104633 -0.00009735 0.00058827
1681307666.096108 -0.00135325 -0.04091235 0.00317925 0.00015903 -0.00055454 0.00070730
1681307666.162799 -0.00135325 -0.04091235 0.00317925 0.00053597 -0.00049057 0.00028334
1681307666.229491 -0.00135325 -0.04091235 0.00317925 0.00000176 0.00015808 0.00054190
1681307666.296182 -0.00135325 -0.04091235 0.00317925 -0.00000535 0.00012641 0.00054117
1681307666.362873 -0.00135325 -0.04091234 0.00317925 0.00103603 -0.00041974 0.00068837
1681307666.429563 -0.00135325 -0.04091234 0.00317925 0.00060257 -0.00040311 -0.00016416
1681307666.496254 -0.00135325 -0.04091234 0.00317925 -0.00020056 0.00038295 0.00054772
1681307666.562945 -0.00135325 -0.04091234 0.00317925 -0.00064147 -0.00022745 0.00106237
1681307666.629636 -0.00135325 -0.04091234 0.00317925 -0.00033950 0.00005420 0.00024682
1681307666.696327 -0.00135325 -0.04091235 0.00317925 -0.00028804 -0.00044241 0.00067257
1681307666.763018 -0.00135325 -0.04091235 0.00317925 -0.00057846 0.00019279 0.00091768
1681307666.829709 -0.00135326 -0.04091235 0.00317925 0.00004137 0.00067680 0.00079736
1681307666.896398 -0.00135326 -0.04091235 0.00317925 0.00048925 -0.00004769 0.00012182
1681307666.963089 -0.00135326 -0.04091235 0.00317925 0.00054506 -0.00032345 0.00036379
1681307667.029780 -0.00135326 -0.04091235 0.00317925 0.00105351 -0.00041753 0.00064394
1681307667.096472 -0.00135326 -0.04091235 0.00317925 0.00017879 0.00063983 0.00053749
1681307667.163163 -0.00135326 -0.04091235 0.00317925 0.00067664 0.00016482 0.00037239
1681307667.229855 -0.00135326 -0.04091235 0.00317925 -0.00012181 -0.00045612 0.00087387
1681307667.296546 -0.00135326 -0.04091235 0.00317925 -0.00019325 -0.00023788 0.00057981
1681307667.363237 -0.00135326 -0.04091235 0.00317925 -0.00022321 0.00051293 0.00064552
1681307667.429929 -0.00135326 -0.04091235 0.00317925 -0.00014314 0.00018569 0.00071673
1681307667.496621 -0.00135326 -0.04091234 0.00317925 0.00026244 -0.00045257 0.00018463
1681307667.563312 -0.00135326 -0.04091235 0.00317925 0.00028469 -0.00032389 0.00040870
1681307667.630004 -0.00135326 -0.04091235 0.00317925 0.00057002 0.00005862 0.00076374
1681307667.696696 -0.00135326 -0.04091235 0.00317925 0.00021774 0.00018535 0.00089439
1681307667.763386 -0.00135326 -0.04091235 0.00317925 0.00000288 -0.00012559 0.00014878
1681307667.830078 -0.00135326 -0.04091235 0.00317925 0.00019719 -0.00059303 0.00055668
1681307667.896769 -0.00135326 -0.04091235 0.00317925 -0.00053807 0.00082612 0.00050016
1681307667.963461 -0.00135326 -0.04091235 0.00317925 -0.00002509 0.00064759 0.00066979
1681307668.030152 -0.00135326 -0.04091235 0.00317925 0.00012833 -0.00094638 0.00038821
1681307668.096843 -0.00135326 -0.04091235 0.00317925 0.00007307 -0.00065495 0.00089910
1681307668.163533 -0.00135326 -0.04091235 0.00317925 -0.00236988 0.00231175 0.00044645
1681307668.230223 -0.00135326 -0.04091235 0.00317925 -0.00073053 0.00166770 0.00109308
1681307668.296913 -0.00135325 -0.04091235 0.00317925 0.00259162 -0.00261199 0.00091530
1681307668.363603 -0.00135325 -0.04091235 0.00317925 -0.00045814 -0.00019217 -0.00008601
1681307668.430294 -0.00135325 -0.04091235 0.00317925 0.00046660 -0.00025113 0.00088866
1681307668.496984 -0.00135326 -0.04091235 0.00317925 0.00075721 0.00075370 0.00099544
1681307668.563674 -0.00135326 -0.04091235 0.00317925 -0.00083539 0.00073887 0.00045651
1681307668.630363 -0.00135326 -0.04091237 0.00317925 0.00070657 -0.00218634 0.00064373
1681307668.697054 -0.00135326 -0.04091237 0.00317925 -0.00049613 0.00091729 0.00063206
1681307668.763744 -0.00135326 -0.04091237 0.00317925 -0.00050920 0.00136993 0.00122390
1681307668.830434 -0.00135326 -0.04091237 0.00317924 0.00132113 -0.00071404 0.00054372
1681307668.897124 -0.00135326 -0.04091238 0.00317926 0.00065952 0.00032075 0.00015317
1681307668.963814 -0.00135326 -0.04091236 0.00317926 0.00030032 0.00067059 0.00079038
1681307669.030505 -0.00135326 -0.04091236 0.00317926 -0.00107421 0.00138918 0.00102511
1681307669.097195 -0.00135326 -0.04091236 0.00317926 -0.00006453 -0.00164759 0.00081692
1681307669.163887 -0.00135325 -0.04091236 0.00317927 0.00036134 -0.00115014 0.00126741
1681307669.230579 -0.00135325 -0.04091236 0.00317927 -0.00167030 0.00197526 0.00048726
1681307669.297271 -0.00135326 -0.04091237 0.00317927 0.00149740 -0.00138079 0.00137535
1681307669.363963 -0.00135327 -0.04091238 0.00317927 -0.00046320 0.00056380 0.00067305
1681307669.430655 -0.00135327 -0.04091238 0.00317927 -0.00030095 -0.00069401 0.00074786
1681307669.497347 -0.00135328 -0.04091237 0.00317928 -0.00113156 -0.00008952 0.00124568
1681307669.564037 -0.00135328 -0.04091238 0.00317928 -0.00127356 0.00109551 0.00105538
1681307669.630729 -0.00135328 -0.04091238 0.00317928 0.00015414 -0.00022950 0.00134489
1681307669.697421 -0.00135327 -0.04091238 0.00317928 -0.00098643 -0.00050618 0.00080746
1681307669.764113 -0.00135327 -0.04091238 0.00317928 -0.00060367 0.00015455 0.00099990
1681307669.830805 -0.00135328 -0.04091239 0.00317928 0.00049499 -0.00036779 0.00119570
1681307669.897497 -0.00135328 -0.04091239 0.00317928 -0.00060774 0.00058079 0.00060410
1681307669.964188 -0.00135328 -0.04091240 0.00317928 -0.00021354 0.00018579 0.00098682
1681307670.030880 -0.00135328 -0.04091240 0.00317928 -0.00046423 -0.00038322 0.00048912
1681307670.097573 -0.00135328 -0.04091241 0.00317928 -0.00014703 0.00094042 0.00108144
1681307670.164266 -0.00135328 -0.04091241 0.00317927 0.00110218 0.00090546 0.00037279
1681307670.230959 -0.00135328 -0.04091241 0.00317927 -0.00002760 -0.00141125 0.00097633
1681307670.297652 -0.00135328 -0.04091241 0.00317927 -0.00033831 0.00017640 0.00067312
1681307670.364345 -0.00135328 -0.04091241 0.00317927 -0.00014286 0.00023988 0.00047977
1681307670.431037 -0.00135328 -0.04091241 0.00317927 -0.00053142 -0.00025114 0.00059803
1681307670.497730 -0.00135328 -0.04091241 0.00317927 0.00006983 -0.00024509 0.00052990
1681307670.564424 -0.00135328 -0.04091240 0.00317927 0.00027129 -0.00015617 0.00119692
1681307670.631117 -0.00135328 -0.04091240 0.00317927 0.00001640 -0.00032810 0.00062724
1681307670.697810 -0.00135328 -0.04091240 0.00317927 0.00074014 -0.00009409 0.00012775
1681307670.764504 -0.00135329 -0.04091239 0.00317926 -0.00026653 0.00000409 0.00090867
1681307670.831197 -0.00135329 -0.04091239 0.00317926 -0.00001026 -0.00037919 0.00087211
1681307670.897890 -0.00135329 -0.04091239 0.00317926 -0.00026962 0.00122097 0.00088980
1681307670.964583 -0.00135329 -0.04091239 0.00317926 0.00014664 0.00064907 0.00147792
1681307671.031277 -0.00135329 -0.04091239 0.00317926 0.00092732 -0.00025048 0.00118632
1681307671.097968 -0.00135329 -0.04091239 0.00317926 -0.00059195 0.00001435 0.00014506
1681307671.164659 -0.00135329 -0.04091238 0.00317926 -0.00110118 0.00067347 0.00079448
1681307671.231350 -0.00135329 -0.04091238 0.00317926 -0.00035299 0.00139689 0.00102025
1681307671.298039 -0.00135329 -0.04091238 0.00317926 -0.00025701 0.00061940 0.00097108
1681307671.364730 -0.00135329 -0.04091238 0.00317926 -0.00023799 -0.00069694 0.00081818
1681307671.431421 -0.00135329 -0.04091238 0.00317926 -0.00026884 -0.00026960 0.00071049
1681307671.498112 -0.00135329 -0.04091238 0.00317926 -0.00006061 0.00012312 0.00073244
1681307671.564803 -0.00135329 -0.04091238 0.00317926 0.00074467 0.00018701 0.00037600
1681307671.631494 -0.00135329 -0.04091238 0.00317925 0.00027861 -0.00004978 0.00067846
1681307671.698185 -0.00135329 -0.04091238 0.00317925 -0.00054429 -0.00004113 0.00097069
1681307671.764875 -0.00135329 -0.04091238 0.00317925 0.00039124 0.00026428 0.00136564
1681307671.831566 -0.00135329 -0.04091238 0.00317925 -0.00015421 0.00064665 0.00079016
1681307671.898257 -0.00135329 -0.04091238 0.00317925 0.00009084 0.00033155 0.00075053
1681307671.964948 -0.00135329 -0.04091238 0.00317925 -0.00005608 0.00017057 0.00111152
1681307672.031639 -0.00135329 -0.04091238 0.00317925 -0.00039351 -0.00016907 0.00058428
1681307672.098330 -0.00135329 -0.04091238 0.00317925 -0.00040345 0.00038529 0.00092429
1681307672.165021 -0.00135330 -0.04091237 0.00317925 -0.00030807 0.00073266 0.00137828
1681307672.231711 -0.00135329 -0.04091238 0.00317925 0.00015479 -0.00019544 0.00061382
1681307672.298403 -0.00135329 -0.04091239 0.00317925 -0.00000943 0.00002984 0.00134963
1681307672.365094 -0.00135329 -0.04091239 0.00317925 0.00001498 0.00044471 0.00046964
1681307672.431785 -0.00135329 -0.04091239 0.00317925 0.00007289 0.00045394 0.00082598
1681307672.498476 -0.00135329 -0.04091239 0.00317925 0.00080403 -0.00164221 0.00073660
1681307672.565167 -0.00135329 -0.04091239 0.00317925 0.00023479 0.00124566 0.00088162
1681307672.631857 -0.00135329 -0.04091239 0.00317925 -0.00054774 0.00055870 0.00060539
1681307672.698548 -0.00135330 -0.04091239 0.00317925 -0.00126868 0.00087870 0.00065074
1681307672.765239 -0.00135330 -0.04091238 0.00317925 -0.00051004 -0.00068814 0.00145747
1681307672.831931 -0.00135330 -0.04091239 0.00317925 -0.00021798 -0.00106901 0.00040205
1681307672.898622 -0.00135330 -0.04091238 0.00317925 -0.00052566 0.00050462 0.00136941
1681307672.965313 -0.00135330 -0.04091238 0.00317925 0.00030778 -0.00018253 0.00116675
1681307673.032004 -0.00135330 -0.04091238 0.00317925 -0.00046601 -0.00008394 0.00086229
1681307673.098695 -0.00135330 -0.04091238 0.00317925 -0.00031469 0.00018041 0.00102921
1681307673.165387 -0.00135329 -0.04091239 0.00317925 -0.00101298 0.00006555 -0.00085723
1681307673.232079 -0.00135330 -0.04091239 0.00317925 0.00124352 0.00088946 0.00272739
1681307673.298771 -0.00135330 -0.04091240 0.00317925 -0.00038366 -0.00039111 -0.00038707
1681307673.365464 -0.00135330 -0.04091239 0.00317925 0.00021729 0.00057748 0.00037510
1681307673.432156 -0.00135329 -0.04091240 0.00317925 -0.00093550 -0.00028159 -0.00028972
1681307673.498848 -0.00135329 -0.04091240 0.00317925 0.00033902 -0.00017887 0.00038958
1681307673.565539 -0.00135329 -0.04091240 0.00317925 0.00247963 -0.00369347 0.00038937
1681307673.632231 -0.00135329 -0.04091240 0.00317925 -0.00488222 0.00511802 -0.00113236
1681307673.698923 -0.00135329 -0.04091240 0.00317925 -0.00277908 0.00217101 -0.00047127
1681307673.765615 -0.00135326 -0.04091240 0.00317926 0.01663135 -0.05223705 0.00239712
1681307673.832307 -0.00135328 -0.04091241 0.00317926 -0.01618572 0.01759341 0.03321077
1681307673.899000 -0.00135325 -0.04091240 0.00317926 0.00653981 -0.07067984 -0.02153616
1681307673.965691 -0.00135327 -0.04091239 0.00317926 0.03439391 0.00370700 -0.00756481
1681307674.032383 -0.00135329 -0.04091240 0.00317926 0.00895437 0.10642454 -0.01633915
1681307674.099072 0.09881530 0.38026052 -0.37814392 0.00180312 0.11761613 -0.00419298
1681307674.165762 -0.38827202 -1.65465649 1.60526760 0.02103954 0.08854416 -0.02603254
1681307674.232452 -0.44083818 2.95999804 4.58993151 -0.00974696 0.04776674 -0.00174123
1681307674.299142 -3.29365676 2.36539971 3.06601840 -0.01708081 0.06831000 0.00174659
1681307674.365832 -0.87498877 1.88843044 1.54307271 -0.01477266 0.06094079 -0.00511847
1681307674.432521 -0.30831550 1.37417234 1.79322679 -0.01664677 0.04861333 0.00092090
1681307674.499211 -0.13435796 1.13769676 1.70870411 -0.01905631 0.03546797 0.00061995
1681307674.565901 -0.07901464 0.83615185 1.23933234 -0.01888067 0.04265653 -0.00410287
1681307674.632591 -0.30929938 0.65080700 0.89796240 -0.01611243 0.03417960 -0.00423116
1681307674.699281 -0.89734532 0.41593824 0.82857801 -0.01246702 0.03360483 -0.00328922
1681307674.765970 -1.50334568 0.07933701 0.73241088 -0.01007776 0.03000565 -0.00553429
1681307674.832660 -2.23943885 -0.42571874 0.83397378 -0.00900940 0.02821603 -0.00588383
1681307674.899349 -2.55250835 -0.85459368 0.90415185 -0.00684504 0.02381592 -0.00638081
1681307674.966038 -2.72019681 -1.24374644 1.02265725 -0.00505590 0.02323144 -0.00512656
1681307675.032729 -2.69274323 -1.53506072 1.01376455 -0.00269893 0.02038911 -0.00486609
1681307675.099419 -2.66117800 -1.76951945 1.05895185 -0.00465844 0.02061098 -0.00577361
1681307675.166109 -2.49362816 -1.45685428 0.74280469 -0.00399126 0.00249054 -0.00382317
1681307675.232799 -2.30980804 -1.04367389 0.61784008 -0.00413773 0.00178007 -0.00525918
1681307675.299488 -2.18620971 -0.76483752 0.54142881 -0.00377643 0.00163029 -0.00333712
1681307675.366179 -2.02246793 -0.57160601 0.49098874 -0.00180635 0.00248966 -0.00366095
1681307675.432869 -1.98277230 -0.42998268 0.44594314 -0.00184647 0.00292214 -0.00090112
1681307675.499559 -1.84430756 -0.37579139 0.40431884 -0.00254303 0.00202321 -0.00132551
1681307675.566249 -1.71117332 -0.35114261 0.37334241 -0.00310331 0.00153072 -0.00169158
1681307675.632939 -1.57859816 -0.32317489 0.34064983 -0.00244197 0.00194741 -0.00073047
1681307675.699629 -1.55420276 -0.30651806 0.32925999 -0.00194978 0.00143025 0.00011458
1681307675.766318 -1.54850907 -0.29024971 0.32307603 -0.00143292 0.00133927 0.00089226
1681307675.833008 -1.52307991 -0.26634956 0.31346610 -0.00125362 0.00131728 0.00130917
1681307675.899698 -1.45296568 -0.23486407 0.29256624 -0.00080328 0.00116019 0.00121334
1681307675.966388 -1.43581798 -0.22277569 0.28737585 -0.00048667 0.00132323 0.00176173
1681307676.033079 -1.41853652 -0.21347011 0.28172690 -0.00041979 0.00126975 0.00175997
1681307676.099773 -1.38558594 -0.22147153 0.27427547 -0.00021798 0.00112741 0.00158874
1681307676.166467 -1.38410650 -0.22236617 0.27397460 -0.00011171 0.00104399 0.00143065
1681307676.233160 -1.40172915 -0.23116514 0.27934591 0.00031508 0.00109536 0.00141367
1681307676.299854 -1.37708199 -0.20043159 0.26906875 -0.00000586 0.00091666 0.00128504
1681307676.366547 -1.36558282 -0.22522163 0.27034162 -0.00015525 0.00119377 0.00122252
1681307676.433241 -1.35523602 -0.23918659 0.26942017 -0.00024759 0.00114894 0.00112794
1681307676.499935 -1.35504005 -0.24119850 0.26855205 -0.00046546 0.00111086 0.00107308
1681307676.566629 -1.36369044 -0.24929584 0.27170995 -0.00048740 0.00121556 0.00113529
1681307676.633322 -1.34523085 -0.26208603 0.26928251 -0.00060079 0.00133681 0.00103018
1681307676.700016 -1.28622361 -0.24418210 0.25042502 -0.00060477 0.00135869 0.00097602
1681307676.766710 -1.27845296 -0.23711483 0.24796249 -0.00053050 0.00145280 0.00100535
1681307676.833404 -1.26566628 -0.23881552 0.24390371 -0.00059662 0.00153219 0.00094973
1681307676.900097 -1.26415761 -0.23514448 0.24295477 -0.00062011 0.00162686 0.00092640
1681307676.966791 -1.24451123 -0.22749623 0.23639324 -0.00068355 0.00167612 0.00090085
1681307677.033485 -1.21199072 -0.21750888 0.22528366 -0.00072569 0.00157527 0.00089825
1681307677.100176 -1.14536599 -0.18407673 0.20188693 -0.00073806 0.00164295 0.00087411
1681307677.166867 -1.09968306 -0.16563562 0.18663306 -0.00072644 0.00165508 0.00086236
1681307677.233559 -1.02394141 -0.16181969 0.16653436 -0.00065885 0.00174987 0.00083889
1681307677.300251 -0.96093909 -0.17186774 0.15055438 -0.00069009 0.00165615 0.00075321
1681307677.366943 -0.91751303 -0.17933600 0.13953862 -0.00060116 0.00169922 0.00072451
1681307677.433635 -0.81157705 -0.18644602 0.11323671 -0.00051214 0.00162317 0.00075804
1681307677.500327 -0.82679171 -0.20709312 0.11814838 -0.00056138 0.00172297 0.00076859
1681307677.567018 -0.82177467 -0.21221427 0.11729520 -0.00062458 0.00175908 0.00079426
1681307677.633710 -0.85437792 -0.21355878 0.12675248 -0.00070027 0.00165284 0.00076784
1681307677.700402 -0.79436810 -0.22305549 0.11482761 -0.00063082 0.00178451 0.00076633
1681307677.767093 -0.80102595 -0.22189083 0.11351061 -0.00061876 0.00167815 0.00078392
1681307677.833785 -0.76071373 -0.23501811 0.10440190 -0.00057613 0.00163808 0.00081091
1681307677.900477 -0.70908235 -0.26075282 0.09402246 -0.00052152 0.00158812 0.00082011
1681307677.967168 -0.66586952 -0.28904111 0.08613647 -0.00049849 0.00159248 0.00080961
1681307678.033860 -0.62193889 -0.31936670 0.07832760 -0.00047707 0.00155076 0.00082363
1681307678.100549 -0.58526944 -0.34806406 0.07218762 -0.00045747 0.00150781 0.00083970
1681307678.167239 -0.55395700 -0.37383798 0.06713649 -0.00044536 0.00147262 0.00085370
1681307678.233930 -0.53035824 -0.39552712 0.06353279 -0.00043695 0.00143158 0.00087486
1681307678.300620 -0.51081758 -0.41393262 0.06062504 -0.00042424 0.00138160 0.00089046
1681307678.367310 -0.49423281 -0.43035512 0.05825098 -0.00041701 0.00134060 0.00089987
1681307678.433999 -0.48125068 -0.44405272 0.05647184 -0.00040598 0.00129989 0.00091007
1681307678.500689 -0.47049847 -0.45615194 0.05507480 -0.00039341 0.00125435 0.00092028
1681307678.567379 -0.46219827 -0.46557410 0.05400404 -0.00038047 0.00121014 0.00092440
1681307678.634068 -0.45531768 -0.47400177 0.05317974 -0.00036910 0.00116665 0.00093161
1681307678.700758 -0.44839720 -0.48344705 0.05244841 -0.00036105 0.00112701 0.00094469
1681307678.767448 -0.44206065 -0.49216310 0.05178335 -0.00035712 0.00109693 0.00095312
1681307678.834138 -0.43693253 -0.49901104 0.05121793 -0.00035539 0.00107249 0.00095669
1681307678.900827 -0.43321019 -0.50476077 0.05087112 -0.00035095 0.00104601 0.00096394
1681307678.967516 -0.42937395 -0.51047979 0.05051018 -0.00034208 0.00101929 0.00097106
1681307679.034207 -0.42708430 -0.51465608 0.05033888 -0.00033652 0.00099006 0.00098188
1681307679.100897 -0.42442465 -0.51975010 0.05018342 -0.00033146 0.00096208 0.00098849
1681307679.167588 -0.42254205 -0.52238896 0.04998448 -0.00032820 0.00093373 0.00098702
1681307679.234278 -0.42064528 -0.52593640 0.04987266 -0.00032377 0.00090929 0.00099256
1681307679.300967 -0.41925110 -0.52906694 0.04982866 -0.00031678 0.00088795 0.00099944
1681307679.367658 -0.41775376 -0.53259591 0.04980008 -0.00031188 0.00086497 0.00100706
1681307679.434348 -0.41623472 -0.53644915 0.04979863 -0.00030395 0.00084339 0.00101307
1681307679.501039 -0.41529394 -0.53887748 0.04979353 -0.00029745 0.00082543 0.00101441
1681307679.567729 -0.41413770 -0.54155087 0.04976813 -0.00029223 0.00080881 0.00101824
1681307679.634419 -0.41329233 -0.54326199 0.04972133 -0.00028861 0.00079009 0.00102138
1681307679.701110 -0.41276437 -0.54464309 0.04971065 -0.00028460 0.00076894 0.00102576
1681307679.767799 -0.41190931 -0.54703851 0.04973082 -0.00028330 0.00074967 0.00102969
1681307679.834490 -0.41107339 -0.54910679 0.04972676 -0.00028210 0.00073297 0.00103021
1681307679.901180 -0.41042083 -0.55073507 0.04971720 -0.00027407 0.00071950 0.00103192
1681307679.967870 -0.41018507 -0.55134778 0.04971042 -0.00026875 0.00069963 0.00103172
1681307680.034561 -0.40943612 -0.55356086 0.04974886 -0.00026450 0.00068489 0.00102984
1681307680.101252 -0.40904365 -0.55482173 0.04976381 -0.00026307 0.00067324 0.00103303
1681307680.167944 -0.40872698 -0.55627507 0.04980920 -0.00026121 0.00066261 0.00103864
1681307680.234634 -0.40850221 -0.55755739 0.04986690 -0.00026145 0.00065100 0.00104254
1681307680.301326 -0.40818888 -0.55899105 0.04991679 -0.00025719 0.00063942 0.00104350
1681307680.368017 -0.40794852 -0.56015686 0.04995704 -0.00024875 0.00062669 0.00104138
1681307680.434709 -0.40789929 -0.56080706 0.04999382 -0.00024423 0.00061038 0.00104222
1681307680.501400 -0.40752641 -0.56180053 0.05000085 -0.00023461 0.00059647 0.00103931
1681307680.568092 -0.40742191 -0.56243627 0.05002786 -0.00022379 0.00058452 0.00104058
1681307680.634782 -0.40696092 -0.56405490 0.05007201 -0.00021712 0.00057255 0.00104404
1681307680.701474 -0.40705676 -0.56432638 0.05010806 -0.00021265 0.00056404 0.00104102
1681307680.768165 -0.40707387 -0.56464092 0.05013304 -0.00020916 0.00055382 0.00103880
1681307680.834857 -0.40695868 -0.56599137 0.05022618 -0.00020304 0.00054425 0.00104015
1681307680.901548 -0.40657295 -0.56730912 0.05026180 -0.00020218 0.00053239 0.00104216
1681307680.968240 -0.40658496 -0.56757991 0.05028757 -0.00020250 0.00052419 0.00104368
1681307681.034931 -0.40647809 -0.56864583 0.05035451 -0.00020157 0.00051753 0.00104816
1681307681.101622 -0.40648290 -0.56929084 0.05040513 -0.00019689 0.00050941 0.00104992
1681307681.168314 -0.40647272 -0.56990154 0.05045133 -0.00018877 0.00050073 0.00105341
1681307681.235005 -0.40616173 -0.57119875 0.05050128 -0.00018723 0.00049142 0.00105366
1681307681.301697 -0.40644813 -0.57098229 0.05054270 -0.00018242 0.00048111 0.00104968
1681307681.368389 -0.40626118 -0.57237850 0.05063178 -0.00017573 0.00047082 0.00104924
1681307681.435080 -0.40592162 -0.57415936 0.05069880 -0.00017612 0.00047015 0.00105146
1681307681.501772 -0.40630714 -0.57271160 0.05064769 -0.00017350 0.00046314 0.00105098
1681307681.568463 -0.40572108 -0.57475803 0.05072034 -0.00016967 0.00045180 0.00105237
1681307681.635154 -0.40567178 -0.57656473 0.05086929 -0.00016791 0.00044828 0.00105676
1681307681.701846 -0.40549862 -0.57751965 0.05091246 -0.00016400 0.00044377 0.00105620
1681307681.768538 -0.40605674 -0.57527613 0.05083138 -0.00016252 0.00043448 0.00105509
1681307681.835230 -0.40559165 -0.57727450 0.05091065 -0.00016039 0.00042693 0.00105711
1681307681.901921 -0.40564207 -0.57777003 0.05096223 -0.00015704 0.00042078 0.00105665
1681307681.968612 -0.40555043 -0.57832295 0.05099721 -0.00015523 0.00041268 0.00105611
1681307682.035304 -0.40540517 -0.57913599 0.05104151 -0.00015550 0.00040526 0.00105451
1681307682.101994 -0.40533569 -0.57955642 0.05106629 -0.00015208 0.00039851 0.00105155
1681307682.168684 -0.40512340 -0.58055375 0.05110754 -0.00014691 0.00039237 0.00105025
1681307682.235375 -0.40524925 -0.58027635 0.05111171 -0.00014347 0.00038591 0.00104900
1681307682.302065 -0.40505701 -0.58135699 0.05116930 -0.00014086 0.00038179 0.00104788
1681307682.368756 -0.40482527 -0.58266797 0.05123159 -0.00013950 0.00037630 0.00104742
1681307682.435445 -0.40490431 -0.58236330 0.05121887 -0.00013857 0.00037068 0.00104817
1681307682.502135 -0.40484104 -0.58297101 0.05125765 -0.00013662 0.00036750 0.00104867
1681307682.568826 -0.40489163 -0.58289502 0.05126271 -0.00013575 0.00036224 0.00104846
1681307682.635516 -0.40459760 -0.58430064 0.05132282 -0.00013377 0.00036052 0.00104969
1681307682.702206 -0.40439122 -0.58537305 0.05137117 -0.00012947 0.00035967 0.00104970
1681307682.768897 -0.40447186 -0.58514570 0.05136601 -0.00012720 0.00035550 0.00105098
1681307682.835587 -0.40438591 -0.58571339 0.05139858 -0.00012789 0.00034929 0.00105193
1681307682.902276 -0.40422484 -0.58706857 0.05148653 -0.00012619 0.00034544 0.00105377
1681307682.968966 -0.40393155 -0.58866383 0.05156586 -0.00012101 0.00034153 0.00105537
1681307683.035657 -0.40405636 -0.58793639 0.05152999 -0.00011846 0.00033550 0.00105539
1681307683.102348 -0.40364706 -0.58972690 0.05160412 -0.00011975 0.00033272 0.00105660
1681307683.169039 -0.40374690 -0.58939240 0.05159175 -0.00012155 0.00033153 0.00105746
1681307683.235731 -0.40349434 -0.59065162 0.05164545 -0.00012090 0.00033036 0.00105817
1681307683.302421 -0.40365854 -0.58985645 0.05160997 -0.00012059 0.00032704 0.00105725
1681307683.369113 -0.40361049 -0.59001297 0.05161757 -0.00012138 0.00032215 0.00105816
1681307683.435804 -0.40338184 -0.59168909 0.05171824 -0.00012262 0.00031935 0.00106241
1681307683.502496 -0.40346581 -0.59156637 0.05172593 -0.00011920 0.00031596 0.00106346
1681307683.569187 -0.40335860 -0.59200127 0.05174615 -0.00011665 0.00031162 0.00106359
1681307683.635878 -0.40321978 -0.59300996 0.05181255 -0.00011503 0.00030764 0.00106435
1681307683.702570 -0.40296211 -0.59441164 0.05187698 -0.00011400 0.00030701 0.00106506
1681307683.769260 -0.40325864 -0.59303759 0.05181999 -0.00010954 0.00030458 0.00106441
1681307683.835952 -0.40318448 -0.59358048 0.05185442 -0.00010230 0.00030035 0.00106660
1681307683.902643 -0.40302867 -0.59442137 0.05190676 -0.00009822 0.00029307 0.00106784
1681307683.969334 -0.40282948 -0.59637096 0.05204226 -0.00010114 0.00028927 0.00106962
1681307684.036026 -0.40284705 -0.59715429 0.05211656 -0.00010204 0.00028701 0.00107121
1681307684.102719 -0.40282517 -0.59711203 0.05210937 -0.00010214 0.00028404 0.00106890
1681307684.169411 -0.40270903 -0.59759049 0.05212876 -0.00010400 0.00028133 0.00106842
1681307684.236103 -0.40257975 -0.59848852 0.05218509 -0.00010456 0.00027944 0.00107035
1681307684.302796 -0.40255727 -0.59881957 0.05221254 -0.00010269 0.00027670 0.00106969
1681307684.369488 -0.40245973 -0.59942455 0.05224251 -0.00010114 0.00027448 0.00106861
1681307684.436181 -0.40241494 -0.59994962 0.05227888 -0.00009964 0.00027310 0.00107039
1681307684.502873 -0.40235280 -0.60060505 0.05232422 -0.00009648 0.00027216 0.00107024
1681307684.569566 -0.40240730 -0.60017657 0.05229821 -0.00009463 0.00026992 0.00106788
1681307684.636258 -0.40231433 -0.60070296 0.05232530 -0.00009346 0.00026816 0.00106579
1681307684.702950 -0.40232814 -0.60078777 0.05233034 -0.00009090 0.00026777 0.00106625
1681307684.769643 -0.40208909 -0.60182496 0.05237464 -0.00009220 0.00026560 0.00106774
1681307684.836336 -0.40232773 -0.60104244 0.05235278 -0.00009560 0.00026432 0.00106750
1681307684.903028 -0.40214226 -0.60242383 0.05243675 -0.00010105 0.00026287 0.00106980
1681307684.969721 -0.40216678 -0.60268950 0.05247795 -0.00010558 0.00025955 0.00107304
1681307685.036414 -0.40210062 -0.60355027 0.05254254 -0.00010708 0.00025653 0.00107517
1681307685.103103 -0.40192693 -0.60470725 0.05261070 -0.00010674 0.00025504 0.00107438
1681307685.169793 -0.40172425 -0.60626602 0.05269842 -0.00010674 0.00025671 0.00107348
1681307685.236484 -0.40210163 -0.60399627 0.05257661 -0.00010659 0.00025718 0.00107323
1681307685.303174 -0.40197883 -0.60450162 0.05259852 -0.00010494 0.00025389 0.00107419
1681307685.369865 -0.40190869 -0.60538810 0.05266687 -0.00010032 0.00024995 0.00107448
1681307685.436556 -0.40191452 -0.60559693 0.05268504 -0.00009730 0.00024790 0.00107433
1681307685.503246 -0.40196395 -0.60510943 0.05265789 -0.00009540 0.00024497 0.00107376
1681307685.569936 -0.40180541 -0.60635774 0.05274152 -0.00009488 0.00024214 0.00107408
1681307685.636626 -0.40163604 -0.60786794 0.05283750 -0.00009300 0.00024250 0.00107366
1681307685.703317 -0.40179686 -0.60670207 0.05277314 -0.00009164 0.00024123 0.00107332
1681307685.770007 -0.40161827 -0.60773856 0.05282649 -0.00009117 0.00023967 0.00107419
1681307685.836698 -0.40163191 -0.60774734 0.05283143 -0.00009052 0.00023975 0.00107572
1681307685.903388 -0.40167952 -0.60818380 0.05288058 -0.00009423 0.00023918 0.00107749
1681307685.970078 -0.40168795 -0.60841980 0.05290847 -0.00009844 0.00023703 0.00107887
1681307686.036768 -0.40152058 -0.61021251 0.05303114 -0.00009612 0.00023525 0.00108035
1681307686.103464 -0.40162299 -0.61000655 0.05303255 -0.00009356 0.00023447 0.00108034
1681307686.170160 -0.40176266 -0.61006424 0.05307111 -0.00008991 0.00023421 0.00108068
1681307686.236856 -0.40157828 -0.61092361 0.05311228 -0.00008812 0.00023234 0.00108145
1681307686.303552 -0.40153935 -0.61094234 0.05309602 -0.00008556 0.00023230 0.00107960
1681307686.370249 -0.40170513 -0.60956788 0.05301503 -0.00008807 0.00023117 0.00107944
1681307686.436944 -0.40158579 -0.61123102 0.05313410 -0.00008941 0.00022908 0.00108050
1681307686.503640 -0.40166607 -0.61065982 0.05310474 -0.00008923 0.00022810 0.00107911
1681307686.570337 -0.40157319 -0.61091361 0.05311509 -0.00009163 0.00022610 0.00108034
1681307686.637033 -0.40149330 -0.61290986 0.05326815 -0.00009283 0.00022599 0.00108262
1681307686.703730 -0.40164550 -0.61209435 0.05323870 -0.00009334 0.00022392 0.00108294
1681307686.770426 -0.40149370 -0.61379435 0.05335873 -0.00009566 0.00022227 0.00108371
1681307686.837123 -0.40175696 -0.61268305 0.05332432 -0.00009528 0.00022274 0.00108642
1681307686.903819 -0.40135471 -0.61535007 0.05348408 -0.00009547 0.00021909 0.00108723
1681307686.970515 -0.40147295 -0.61512809 0.05348511 -0.00009601 0.00021866 0.00108656
1681307687.037212 -0.40146884 -0.61563790 0.05352294 -0.00009386 0.00021897 0.00108629
1681307687.103903 -0.40159827 -0.61421436 0.05343192 -0.00009315 0.00021730 0.00108410
1681307687.170594 -0.40151662 -0.61505967 0.05349540 -0.00009333 0.00021454 0.00108476
1681307687.237286 -0.40150700 -0.61616429 0.05359867 -0.00009157 0.00021291 0.00108442
1681307687.303976 -0.40131965 -0.61774816 0.05370467 -0.00009012 0.00021112 0.00108214
1681307687.370667 -0.40136453 -0.61780852 0.05371995 -0.00008921 0.00021246 0.00108078
1681307687.437358 -0.40130956 -0.61777250 0.05370776 -0.00008947 0.00021093 0.00107948
1681307687.504050 -0.40132854 -0.61837903 0.05376443 -0.00009224 0.00021015 0.00107989
1681307687.570741 -0.40120198 -0.61900712 0.05380141 -0.00009547 0.00020829 0.00107943
1681307687.637432 -0.40120235 -0.61900684 0.05380140 -0.00005082 0.00067599 0.00102349
1681307687.704123 -0.40120239 -0.61900678 0.05380139 0.00014689 -0.00043271 0.00051046
1681307687.770813 -0.40120239 -0.61900678 0.05380139 0.00015523 -0.00001097 0.00117987
1681307687.837505 -0.40120253 -0.61900667 0.05380141 0.00012546 0.00051805 0.00084171
1681307687.904196 -0.40120251 -0.61900670 0.05380141 0.00020350 -0.00019141 0.00100298
1681307687.970887 -0.40120251 -0.61900671 0.05380141 0.00041109 0.00021990 0.00089470
1681307688.037578 -0.40120253 -0.61900670 0.05380141 -0.00007354 0.00003490 0.00103107
1681307688.104270 -0.40120253 -0.61900671 0.05380141 0.00014656 0.00031804 0.00142951
1681307688.170961 -0.40120252 -0.61900672 0.05380141 -0.00022185 0.00040718 0.00107728
1681307688.237652 -0.40120254 -0.61900671 0.05380141 -0.00079079 0.00015361 0.00116591
1681307688.304343 -0.40120254 -0.61900673 0.05380141 -0.00016740 0.00015843 0.00126352
1681307688.371035 -0.40120248 -0.61900679 0.05380141 -0.00040387 -0.00018886 0.00108397
1681307688.437726 -0.40120250 -0.61900678 0.05380141 -0.00035114 0.00038690 0.00136501
1681307688.504418 -0.40120246 -0.61900682 0.05380142 -0.00063522 0.00032903 0.00177434
1681307688.571110 -0.40120246 -0.61900683 0.05380142 0.00000908 -0.00021715 0.00091619
1681307688.637800 -0.40120247 -0.61900683 0.05380142 0.00016072 -0.00053935 0.00082024
1681307688.704492 -0.40120248 -0.61900683 0.05380142 -0.00014782 0.00035341 0.00161776
1681307688.771183 -0.40120247 -0.61900685 0.05380142 -0.00000163 0.00011385 0.00109876
1681307688.837875 -0.40120249 -0.61900684 0.05380142 0.00032607 -0.00028312 0.00177483
1681307688.904567 -0.40120235 -0.61900698 0.05380141 -0.00129538 0.00021456 0.00087709
1681307688.971258 -0.40120235 -0.61900699 0.05380142 0.00004344 -0.00009087 0.00121170
1681307689.037950 -0.40120237 -0.61900699 0.05380142 0.00008417 0.00021288 0.00111189
1681307689.104640 -0.40120237 -0.61900700 0.05380142 0.00071216 -0.00015712 0.00108874
1681307689.171331 -0.40120236 -0.61900701 0.05380142 -0.00038132 0.00006152 0.00109625
1681307689.238023 -0.40120237 -0.61900701 0.05380142 0.00017300 0.00022962 0.00085288
1681307689.304714 -0.40120237 -0.61900701 0.05380142 0.00022860 0.00022393 0.00125430
1681307689.371405 -0.40120241 -0.61900699 0.05380142 -0.00036731 0.00018105 0.00119191
1681307689.438097 -0.40120242 -0.61900699 0.05380142 0.00006126 -0.00001674 0.00082660
1681307689.504788 -0.40120246 -0.61900697 0.05380142 0.00046387 0.00017870 0.00139971
1681307689.571478 -0.40120245 -0.61900698 0.05380143 -0.00030344 -0.00038065 0.00062346
1681307689.638170 -0.40120246 -0.61900698 0.05380143 -0.00018225 -0.00007268 0.00097824
1681307689.704861 -0.40120246 -0.61900699 0.05380143 -0.00010813 0.00007989 0.00111810
1681307689.771552 -0.40120246 -0.61900700 0.05380143 -0.00056214 -0.00005278 0.00097909
1681307689.838243 -0.40120247 -0.61900699 0.05380143 -0.00001254 -0.00031381 0.00081302
1681307689.904934 -0.40120236 -0.61900711 0.05380143 0.00022423 0.00013069 0.00117781
1681307689.971625 -0.40120236 -0.61900712 0.05380143 0.00014451 -0.00025148 0.00102870
1681307690.038316 -0.40120237 -0.61900711 0.05380143 -0.00024432 0.00015379 0.00079639
1681307690.105005 -0.40120238 -0.61900712 0.05380143 -0.00049471 -0.00023019 0.00123816
1681307690.171694 -0.40120237 -0.61900714 0.05380143 0.00019931 0.00007193 0.00026237
1681307690.238383 -0.40120239 -0.61900713 0.05380144 -0.00014547 -0.00045969 0.00146062
1681307690.305073 -0.40120239 -0.61900714 0.05380144 -0.00000722 0.00058793 0.00057277
1681307690.371762 -0.40120246 -0.61900708 0.05380143 0.00021137 -0.00054777 0.00102152
1681307690.438449 -0.40120260 -0.61900697 0.05380144 0.00052551 0.00040030 0.00082885
1681307690.505138 -0.40120261 -0.61900697 0.05380144 0.00025420 0.00039527 0.00114223
1681307690.571827 -0.40120260 -0.61900699 0.05380144 -0.00049448 0.00013637 0.00155279
1681307690.638516 -0.40120261 -0.61900698 0.05380144 -0.00054270 -0.00019006 0.00127331
1681307690.705205 -0.40120262 -0.61900698 0.05380144 0.00063397 0.00070371 0.00106253
1681307690.771894 -0.40120261 -0.61900700 0.05380144 0.00034640 0.00018488 0.00115971
1681307690.838583 -0.40120263 -0.61900700 0.05380144 -0.00013280 0.00021391 0.00137519
1681307690.905271 -0.40120259 -0.61900704 0.05380145 -0.00067573 0.00016538 0.00110781
1681307690.971959 -0.40120258 -0.61900705 0.05380145 0.00060146 -0.00036948 0.00108705
1681307691.038648 -0.40120253 -0.61900710 0.05380145 -0.00080250 0.00054257 0.00096096
1681307691.105337 -0.40120254 -0.61900710 0.05380145 -0.00015544 -0.00002776 0.00134197
1681307691.172027 -0.40120261 -0.61900706 0.05380145 0.00093851 0.00029788 0.00097926
1681307691.238717 -0.40120262 -0.61900705 0.05380145 0.00036392 -0.00055994 0.00137772
1681307691.305405 -0.40120263 -0.61900705 0.05380145 -0.00011460 0.00064357 0.00111040
1681307691.372095 -0.40120275 -0.61900696 0.05380144 0.00033687 -0.00065408 0.00090344
1681307691.438784 -0.40120277 -0.61900696 0.05380144 -0.00044462 0.00010174 0.00141619
1681307691.505474 -0.40120278 -0.61900696 0.05380145 -0.00008271 0.00045139 0.00120412
1681307691.572164 -0.40120284 -0.61900691 0.05380144 -0.00059391 0.00021197 0.00113630
1681307691.638853 -0.40120285 -0.61900691 0.05380144 -0.00022149 0.00044137 0.00103441
1681307691.705542 -0.40120282 -0.61900695 0.05380144 -0.00075819 0.00015275 0.00127442
1681307691.772231 -0.40120281 -0.61900696 0.05380144 0.00016928 -0.00032691 0.00084268
1681307691.838920 -0.40120283 -0.61900696 0.05380144 -0.00012097 0.00010956 0.00133120
1681307691.905609 -0.40120286 -0.61900695 0.05380144 -0.00014477 0.00052844 0.00094821
1681307691.972299 -0.40120285 -0.61900696 0.05380144 -0.00005109 0.00006275 0.00096320
1681307692.038988 -0.40120286 -0.61900696 0.05380144 0.00030280 0.00038609 0.00104868
1681307692.105679 -0.40120286 -0.61900697 0.05380144 0.00024447 -0.00033195 0.00098082
1681307692.172369 -0.40120285 -0.61900699 0.05380144 0.00030293 0.00001077 0.00136719
1681307692.239059 -0.40120286 -0.61900699 0.05380145 -0.00033078 -0.00007267 0.00113112
1681307692.305749 -0.40120283 -0.61900703 0.05380145 0.00033087 -0.00019388 0.00093946
1681307692.372440 -0.40120282 -0.61900705 0.05380145 0.00000754 -0.00004654 0.00100584
1681307692.439131 -0.40120283 -0.61900705 0.05380145 0.00016332 -0.00019098 0.00082817
1681307692.505821 -0.40120284 -0.61900704 0.05380145 -0.00015281 0.00001329 0.00126519
1681307692.572512 -0.40120283 -0.61900706 0.05380145 0.00013602 0.00008996 0.00165784
1681307692.639201 -0.40120284 -0.61900706 0.05380145 0.00017315 0.00007559 0.00121546
1681307692.705892 -0.40120275 -0.61900715 0.05380145 -0.00003148 0.00046987 0.00063747
1681307692.772583 -0.40120274 -0.61900717 0.05380145 0.00048226 -0.00011216 0.00114434
1681307692.839273 -0.40120275 -0.61900717 0.05380145 0.00051570 0.00012366 0.00093338
1681307692.905964 -0.40120294 -0.61900703 0.05380144 0.00031885 -0.00011138 0.00108853
1681307692.972655 -0.40120293 -0.61900705 0.05380144 0.00043295 0.00027132 0.00093785
1681307693.039345 -0.40120294 -0.61900705 0.05380145 -0.00000730 0.00028509 0.00148809
1681307693.106036 -0.40120296 -0.61900704 0.05380145 0.00073913 -0.00024605 0.00083092
1681307693.172728 -0.40120294 -0.61900706 0.05380145 -0.00020047 0.00028017 0.00065763
1681307693.239419 -0.40120295 -0.61900706 0.05380145 -0.00037904 0.00048336 0.00112267
1681307693.306111 -0.40120298 -0.61900705 0.05380145 -0.00008510 -0.00000094 0.00140626
1681307693.372803 -0.40120307 -0.61900697 0.05380145 0.00013149 0.00010790 0.00079840
1681307693.439495 -0.40120301 -0.61900703 0.05380145 -0.00028167 -0.00009821 0.00095546
1681307693.506186 -0.40120303 -0.61900702 0.05380145 -0.00032622 0.00035457 0.00115165
1681307693.572877 -0.40120302 -0.61900704 0.05380145 0.00032572 0.00023640 0.00121689
1681307693.639569 -0.40120303 -0.61900705 0.05380145 0.00018407 0.00020728 0.00116473
1681307693.706260 -0.40120305 -0.61900704 0.05380145 0.00012741 0.00055711 0.00104500
1681307693.772952 -0.40120303 -0.61900706 0.05380145 0.00031268 -0.00063645 0.00107298
1681307693.839644 -0.40120304 -0.61900707 0.05380145 -0.00020465 0.00024210 0.00098900
1681307693.906336 -0.40120317 -0.61900696 0.05380146 -0.00058836 0.00011461 0.00103587
1681307693.973027 -0.40120316 -0.61900698 0.05380146 0.00002244 0.00061734 0.00127119
1681307694.039718 -0.40120317 -0.61900698 0.05380146 -0.00017583 0.00007639 0.00101893
1681307694.106408 -0.40120319 -0.61900697 0.05380146 -0.00028706 0.00005782 0.00116118
1681307694.173098 -0.40120317 -0.61900699 0.05380146 -0.00011481 0.00021810 0.00118224
1681307694.239788 -0.40120318 -0.61900700 0.05380146 -0.00017048 0.00015559 0.00087644
1681307694.306478 -0.40120320 -0.61900699 0.05380146 -0.00005472 -0.00051590 0.00154321
1681307694.373167 -0.40120318 -0.61900701 0.05380146 -0.00022227 0.00023128 0.00092578
1681307694.439856 -0.40120327 -0.61900695 0.05380147 0.00108485 -0.00029860 0.00062469
1681307694.506545 -0.40120325 -0.61900697 0.05380147 0.00014614 0.00002397 0.00171187
1681307694.573235 -0.40120323 -0.61900699 0.05380147 0.00016665 0.00021383 0.00141472
1681307694.639925 -0.40120324 -0.61900700 0.05380147 0.00010588 0.00031230 0.00105565
1681307694.706614 -0.40120326 -0.61900699 0.05380147 -0.00008091 0.00015268 0.00118333
1681307694.773304 -0.40120325 -0.61900701 0.05380147 -0.00020867 0.00011418 0.00113430
1681307694.839993 -0.40120334 -0.61900693 0.05380146 -0.00110464 0.00003370 0.00135638
1681307694.906682 -0.40120350 -0.61900680 0.05380147 -0.00107776 0.00049641 0.00156331
1681307694.973371 -0.40120341 -0.61900689 0.05380147 0.00052092 -0.00031884 0.00064416
1681307695.040060 -0.40120342 -0.61900689 0.05380148 -0.00032038 0.00041966 0.00109587
1681307695.106750 -0.40120344 -0.61900688 0.05380148 -0.00052514 0.00038378 0.00102122
1681307695.173440 -0.40120343 -0.61900690 0.05380148 -0.00000902 -0.00072705 0.00144305
1681307695.240130 -0.40120343 -0.61900691 0.05380148 -0.00020648 -0.00005999 0.00105328
1681307695.306818 -0.40120346 -0.61900689 0.05380148 0.00002018 0.00046030 0.00157705
1681307695.373508 -0.40120337 -0.61900698 0.05380149 -0.00076870 0.00019933 0.00127931
1681307695.440198 -0.40120340 -0.61900696 0.05380149 0.00125636 -0.00052501 0.00060884
1681307695.506887 -0.40120339 -0.61900698 0.05380149 0.00042831 -0.00003445 0.00115599
1681307695.573577 -0.40120337 -0.61900700 0.05380149 -0.00004016 0.00021469 0.00151503
1681307695.640267 -0.40120349 -0.61900690 0.05380149 -0.00079149 0.00017958 0.00098370
1681307695.706956 -0.40120359 -0.61900682 0.05380149 -0.00008586 -0.00021512 0.00096189
1681307695.773645 -0.40120367 -0.61900676 0.05380149 0.00041384 0.00013275 0.00160811
1681307695.840334 -0.40120376 -0.61900669 0.05380149 -0.00016168 0.00031926 0.00113174
1681307695.907024 -0.40120372 -0.61900673 0.05380149 -0.00027042 0.00059137 0.00089561
1681307695.973713 -0.40120353 -0.61900690 0.05380150 -0.00048224 -0.00029471 0.00157678
1681307696.040403 -0.40120353 -0.61900691 0.05380150 0.00004979 0.00006116 0.00062573
1681307696.107094 -0.40120366 -0.61900681 0.05380151 -0.00023528 0.00018629 0.00150775
1681307696.173786 -0.40120365 -0.61900683 0.05380151 -0.00056907 -0.00001996 0.00085069
1681307696.240476 -0.40120365 -0.61900683 0.05380151 0.00024239 0.00024673 0.00112678
1681307696.307168 -0.40120368 -0.61900682 0.05380151 -0.00024815 -0.00016322 0.00096988
1681307696.373859 -0.40120366 -0.61900684 0.05380151 0.00039243 -0.00004408 0.00114276
1681307696.440550 -0.40120367 -0.61900685 0.05380151 0.00001810 -0.00012271 0.00169881
1681307696.507242 -0.40120369 -0.61900684 0.05380151 -0.00003142 0.00012538 0.00116981
1681307696.573933 -0.40120368 -0.61900685 0.05380151 -0.00009199 0.00007491 0.00088453
1681307696.640624 -0.40120365 -0.61900689 0.05380151 -0.00108381 -0.00003897 0.00145969
1681307696.707315 -0.40120380 -0.61900677 0.05380151 -0.00117594 0.00015140 0.00130093
1681307696.774006 -0.40120377 -0.61900680 0.05380151 0.00049382 0.00040027 0.00069161
1681307696.840698 -0.40120377 -0.61900681 0.05380151 0.00001285 -0.00025179 0.00105227
1681307696.907389 -0.40120379 -0.61900680 0.05380151 0.00004730 -0.00003375 0.00102695
1681307696.974081 -0.40120389 -0.61900671 0.05380151 0.00003354 0.00004647 0.00090602
1681307697.040772 -0.40120389 -0.61900672 0.05380151 0.00007723 0.00052902 0.00070490
1681307697.107462 -0.40120391 -0.61900671 0.05380151 0.00005996 0.00018132 0.00140649
1681307697.174153 -0.40120390 -0.61900673 0.05380151 -0.00005745 0.00002830 0.00065879
1681307697.240844 -0.40120399 -0.61900666 0.05380151 -0.00047598 0.00011745 0.00139363
1681307697.307535 -0.40120401 -0.61900665 0.05380152 0.00030188 0.00004988 0.00072978
1681307697.374226 -0.40120400 -0.61900667 0.05380152 0.00010403 0.00002119 0.00132979
1681307697.440917 -0.40120400 -0.61900668 0.05380152 -0.00054380 -0.00003172 0.00121492
1681307697.507607 -0.40120393 -0.61900676 0.05380152 -0.00057581 -0.00001204 0.00103213
1681307697.574297 -0.40120392 -0.61900677 0.05380152 0.00005706 -0.00003560 0.00095012
1681307697.640988 -0.40120392 -0.61900678 0.05380152 -0.00036455 -0.00028691 0.00092927
1681307697.707679 -0.40120394 -0.61900678 0.05380152 0.00082346 -0.00022866 0.00134026
1681307697.774370 -0.40120393 -0.61900679 0.05380152 0.00019343 0.00051619 0.00109119
1681307697.841061 -0.40120393 -0.61900680 0.05380152 0.00027977 0.00053450 0.00080699
1681307697.907752 -0.40120395 -0.61900679 0.05380152 0.00072762 0.00045711 0.00156816
1681307697.974441 -0.40120407 -0.61900669 0.05380153 -0.00079286 0.00069178 0.00088960
1681307698.041132 -0.40120397 -0.61900678 0.05380153 -0.00105167 0.00055827 0.00041385
1681307698.107824 -0.40120399 -0.61900677 0.05380153 0.00009986 -0.00085608 0.00152082
1681307698.174517 -0.40120399 -0.61900678 0.05380153 0.00004759 -0.00014883 0.00065034
1681307698.241209 -0.40120398 -0.61900680 0.05380153 -0.00023679 -0.00049998 0.00156294
1681307698.307901 -0.40120401 -0.61900679 0.05380154 -0.00013245 -0.00068384 0.00034405
1681307698.374593 -0.40120400 -0.61900680 0.05380154 -0.00008652 0.00124089 0.00130746
1681307698.441285 -0.40120409 -0.61900674 0.05380154 0.00057696 0.00120278 0.00097728
1681307698.507977 -0.40120400 -0.61900683 0.05380153 0.00042063 -0.00003387 0.00084848
1681307698.574669 -0.40120392 -0.61900691 0.05380153 -0.00107506 0.00000162 0.00030254
1681307698.641362 -0.40120400 -0.61900686 0.05380153 0.00051452 -0.00021108 0.00100488
1681307698.708054 -0.40120396 -0.61900691 0.05380153 -0.00009625 0.00076006 0.00114387
1681307698.774746 -0.40120395 -0.61900692 0.05380153 -0.00011791 -0.00043701 0.00132657
1681307698.841439 -0.40120395 -0.61900694 0.05380153 -0.00000292 -0.00052082 0.00129361
1681307698.908130 -0.40120396 -0.61900693 0.05380153 -0.00041996 0.00008295 0.00095441
1681307698.974822 -0.40120407 -0.61900684 0.05380154 0.00055328 -0.00028355 0.00076805
1681307699.041515 -0.40120407 -0.61900685 0.05380154 -0.00011180 0.00019883 0.00130738
1681307699.108204 -0.40120409 -0.61900685 0.05380154 -0.00009806 0.00024253 0.00128288
1681307699.174894 -0.40120398 -0.61900696 0.05380154 -0.00067837 0.00005961 0.00111834
1681307699.241584 -0.40120397 -0.61900697 0.05380154 -0.00037539 0.00028122 0.00128749
1681307699.308272 -0.40120399 -0.61900696 0.05380154 0.00033002 0.00029175 0.00138555
1681307699.374962 -0.40120399 -0.61900697 0.05380154 0.00004157 -0.00052147 0.00067653
1681307699.441652 -0.40120398 -0.61900698 0.05380154 0.00025677 -0.00018521 0.00095920
1681307699.508341 -0.40120394 -0.61900703 0.05380155 0.00015132 0.00025939 0.00131229
1681307699.575031 -0.40120394 -0.61900704 0.05380155 0.00077793 0.00085047 0.00044079
1681307699.641721 -0.40120393 -0.61900706 0.05380155 -0.00060596 0.00003910 0.00113056
1681307699.708410 -0.40120394 -0.61900706 0.05380155 -0.00077934 -0.00044035 0.00098870
1681307699.775099 -0.40120395 -0.61900706 0.05380155 -0.00005516 0.00027181 0.00104518
1681307699.841788 -0.40120394 -0.61900707 0.05380155 -0.00019598 0.00023033 0.00040291
1681307699.908478 -0.40120396 -0.61900707 0.05380155 0.00000603 0.00003917 0.00125472
1681307699.975167 -0.40120396 -0.61900707 0.05380155 0.00017604 0.00001751 0.00079527
1681307700.041856 -0.40120396 -0.61900709 0.05380155 0.00026978 -0.00016673 0.00176820
1681307700.108548 -0.40120398 -0.61900708 0.05380155 -0.00035182 0.00044169 0.00042556
1681307700.175241 -0.40120398 -0.61900708 0.05380155 -0.00018797 0.00051331 0.00126423
1681307700.241932 -0.40120398 -0.61900710 0.05380155 0.00049276 -0.00058968 0.00108094
1681307700.308624 -0.40120399 -0.61900709 0.05380155 -0.00018998 -0.00004917 0.00121034
1681307700.375316 -0.40120400 -0.61900710 0.05380155 0.00022313 0.00034931 0.00071077
1681307700.442008 -0.40120399 -0.61900712 0.05380156 -0.00058040 0.00038834 0.00085926
1681307700.508701 -0.40120396 -0.61900714 0.05380156 0.00041965 -0.00088377 0.00116609
1681307700.575393 -0.40120394 -0.61900718 0.05380156 -0.00045354 0.00016093 0.00052266
1681307700.642084 -0.40120382 -0.61900728 0.05380156 -0.00017512 0.00036660 0.00150939
1681307700.708777 -0.40120377 -0.61900733 0.05380156 -0.00020002 -0.00012682 0.00138750
1681307700.775469 -0.40120378 -0.61900733 0.05380156 0.00068454 0.00017330 0.00140679
1681307700.842161 -0.40120376 -0.61900735 0.05380156 -0.00013891 0.00012957 0.00064366
1681307700.908854 -0.40120377 -0.61900735 0.05380156 0.00005074 0.00021169 0.00162053
1681307700.975546 -0.40120378 -0.61900735 0.05380156 0.00002131 0.00026484 0.00088646
1681307701.042238 -0.40120378 -0.61900736 0.05380156 0.00050098 0.00017845 0.00120212
1681307701.108926 -0.40120380 -0.61900736 0.05380156 0.00029118 0.00000969 0.00100904
1681307701.175615 -0.40120381 -0.61900736 0.05380156 0.00027505 -0.00029367 0.00114289
1681307701.242304 -0.40120380 -0.61900738 0.05380157 -0.00006422 0.00020327 0.00082198
1681307701.308992 -0.40120381 -0.61900737 0.05380157 0.00046080 -0.00007007 0.00072081
1681307701.375681 -0.40120382 -0.61900737 0.05380157 0.00008111 -0.00001939 0.00078619
1681307701.442370 -0.40120381 -0.61900739 0.05380157 -0.00034423 -0.00004625 0.00070684
1681307701.509058 -0.40120398 -0.61900723 0.05380159 -0.00083399 0.00040602 0.00113911
1681307701.575746 -0.40120400 -0.61900723 0.05380159 -0.00011778 -0.00032598 0.00105997
1681307701.642434 -0.40120398 -0.61900725 0.05380159 -0.00002357 0.00015086 0.00125124
1681307701.709123 -0.40120399 -0.61900724 0.05380159 0.00004263 0.00031248 0.00062965
1681307701.775811 -0.40120400 -0.61900724 0.05380159 0.00001991 -0.00000760 0.00096337
1681307701.842499 -0.40120399 -0.61900726 0.05380159 0.00080173 0.00019234 0.00055304
1681307701.909188 -0.40120401 -0.61900726 0.05380159 -0.00017425 -0.00003179 0.00163321
1681307701.975875 -0.40120402 -0.61900726 0.05380159 0.00053120 0.00005167 0.00057640
1681307702.042563 -0.40120400 -0.61900727 0.05380159 0.00026799 -0.00040281 0.00085490
1681307702.109255 -0.40120401 -0.61900728 0.05380159 0.00008148 0.00030216 0.00082854
1681307702.175948 -0.40120403 -0.61900727 0.05380159 -0.00015029 -0.00009130 0.00083834
1681307702.242641 -0.40120401 -0.61900729 0.05380159 -0.00022518 0.00033938 0.00046868
1681307702.309333 -0.40120402 -0.61900729 0.05380159 0.00036801 0.00017995 0.00153537
1681307702.376026 -0.40120404 -0.61900729 0.05380159 -0.00007076 -0.00026882 0.00056936
1681307702.442718 -0.40120403 -0.61900730 0.05380159 -0.00024309 0.00045289 0.00161188
1681307702.509410 -0.40120414 -0.61900721 0.05380160 0.00003713 -0.00014650 0.00117375
1681307702.576103 -0.40120416 -0.61900720 0.05380160 -0.00003830 0.00025306 0.00066204
1681307702.642796 -0.40120414 -0.61900722 0.05380160 0.00025938 0.00016024 0.00103101
1681307702.709489 -0.40120415 -0.61900722 0.05380160 0.00042542 0.00003978 0.00104795
1681307702.776182 -0.40120417 -0.61900722 0.05380160 0.00027947 -0.00016323 0.00070933
1681307702.842875 -0.40120416 -0.61900724 0.05380160 0.00007511 0.00061193 0.00164607
1681307702.909567 -0.40120417 -0.61900723 0.05380160 0.00003075 -0.00014469 0.00007789
1681307702.976260 -0.40120419 -0.61900723 0.05380161 0.00023246 0.00042033 0.00110586
1681307703.042954 -0.40120410 -0.61900732 0.05380160 -0.00006706 -0.00018996 0.00096425
1681307703.109644 -0.40120403 -0.61900739 0.05380160 -0.00027212 -0.00010244 0.00139292
1681307703.176334 -0.40120405 -0.61900738 0.05380160 -0.00017451 -0.00007288 0.00107687
1681307703.243024 -0.40120403 -0.61900740 0.05380160 0.00030885 0.00039857 0.00077425
1681307703.309713 -0.40120404 -0.61900740 0.05380160 -0.00074765 -0.00028942 0.00086468
1681307703.376404 -0.40120416 -0.61900729 0.05380161 -0.00076867 0.00038823 0.00124822
1681307703.443094 -0.40120409 -0.61900736 0.05380161 0.00022317 -0.00035986 0.00148772
1681307703.509784 -0.40120425 -0.61900724 0.05380161 0.00028074 -0.00018945 0.00067362
1681307703.576474 -0.40120433 -0.61900717 0.05380161 -0.00021385 -0.00025221 0.00102161
1681307703.643164 -0.40120432 -0.61900719 0.05380161 -0.00018316 0.00088248 0.00107102
1681307703.709855 -0.40120432 -0.61900719 0.05380161 0.00011834 -0.00015059 0.00088254
1681307703.776544 -0.40120434 -0.61900718 0.05380161 0.00020484 0.00009524 0.00118346
1681307703.843234 -0.40120433 -0.61900720 0.05380161 -0.00042659 0.00013134 0.00100528
1681307703.909924 -0.40120434 -0.61900720 0.05380161 0.00003576 -0.00013826 0.00090057
1681307703.976614 -0.40120435 -0.61900720 0.05380161 -0.00030511 0.00032212 0.00069733
1681307704.043304 -0.40120438 -0.61900718 0.05380161 0.00024566 0.00085694 0.00081308
1681307704.109994 -0.40120442 -0.61900716 0.05380161 -0.00008392 -0.00069991 0.00102586
1681307704.176685 -0.40120444 -0.61900715 0.05380162 0.00004739 0.00005951 0.00092412
1681307704.243374 -0.40120442 -0.61900718 0.05380162 0.00045967 0.00041403 0.00095286
1681307704.310064 -0.40120446 -0.61900715 0.05380162 -0.00061673 0.00038891 0.00049382
1681307704.376754 -0.40120448 -0.61900714 0.05380162 0.00015105 -0.00006856 0.00034466
1681307704.443444 -0.40120447 -0.61900716 0.05380162 0.00064684 0.00066860 0.00081394
1681307704.510134 -0.40120447 -0.61900717 0.05380162 0.00021707 -0.00004961 0.00116670
1681307704.576824 -0.40120437 -0.61900727 0.05380161 0.00090887 0.00014927 0.00032337
1681307704.643513 -0.40120446 -0.61900720 0.05380161 -0.00031508 -0.00032713 0.00063249
1681307704.710203 -0.40120447 -0.61900720 0.05380161 -0.00010419 0.00008173 0.00097928
1681307704.776893 -0.40120449 -0.61900719 0.05380161 -0.00013084 0.00041681 0.00124836
1681307704.843583 -0.40120448 -0.61900721 0.05380161 -0.00055891 -0.00014042 0.00075689
1681307704.910273 -0.40120448 -0.61900721 0.05380161 -0.00009340 -0.00022608 0.00146941
1681307704.976963 -0.40120451 -0.61900720 0.05380161 0.00015281 0.00051182 0.00034636
