timestamp ba_x ba_y ba_z bg_x bg_y bg_z
1680081358.640115 -0.00008760 0.00017106 -0.00493207 -0.00036302 0.00029668 -0.00038545
1680081358.706790 -0.00008760 0.00017106 -0.00493207 -0.00036302 0.00029668 -0.00038545
1680081358.773465 -0.00008692 0.00017596 -0.00515283 -0.00019890 0.00030046 -0.00043719
1680081358.840138 -0.00012861 0.00026896 -0.00809626 -0.00022726 0.00032254 -0.00035733
1680081358.906812 -0.00011113 0.00023921 -0.00712904 -0.00024637 0.00029626 -0.00038098
1680081358.973486 -0.00010100 0.00022471 -0.00666496 -0.00031914 0.00036743 -0.00036614
1680081359.040153 -0.00009902 0.00022302 -0.00661603 -0.00033136 0.00037297 -0.00036182
1680081359.106819 -0.00008296 0.00019234 -0.00566714 -0.00035491 0.00044311 -0.00033954
1680081359.173486 -0.00008641 0.00020328 -0.00601332 -0.00034079 0.00043658 -0.00033203
1680081359.240150 -0.00008972 0.00021515 -0.00639438 -0.00030765 0.00041652 -0.00033068
1680081359.306816 -0.00008328 0.00020440 -0.00605605 -0.00032327 0.00041597 -0.00033453
1680081359.373481 -0.00008804 0.00021886 -0.00649530 -0.00030059 0.00039917 -0.00033518
1680081359.440146 -0.00008363 0.00021370 -0.00633623 -0.00027955 0.00040290 -0.00033504
1680081359.506810 -0.00008374 0.00021787 -0.00644331 -0.00028149 0.00041262 -0.00034372
1680081359.573474 -0.00007915 0.00021005 -0.00619782 -0.00030040 0.00041872 -0.00034166
1680081359.640138 -0.00006823 0.00018535 -0.00547226 -0.00034372 0.00045396 -0.00033752
1680081359.706800 -0.00006835 0.00019211 -0.00565343 -0.00036085 0.00045401 -0.00033792
1680081359.773463 -0.00007018 0.00020933 -0.00609480 -0.00032300 0.00042088 -0.00034804
1680081359.840126 -0.00006778 0.00020637 -0.00600246 -0.00030144 0.00041239 -0.00034831
1680081359.906788 -0.00006325 0.00020766 -0.00596313 -0.00031895 0.00043894 -0.00033999
1680081359.973450 -0.00006051 0.00020366 -0.00583786 -0.00033278 0.00044457 -0.00032599
1680081360.040125 -0.00005839 0.00021208 -0.00602275 -0.00033183 0.00041722 -0.00030708
1680081360.106797 -0.00005568 0.00020826 -0.00589487 -0.00031644 0.00039351 -0.00031207
1680081360.173467 -0.00005024 0.00021492 -0.00596096 -0.00034012 0.00041775 -0.00032235
1680081360.240139 -0.00004022 0.00023575 -0.00604461 -0.00033312 0.00041254 -0.00029044
1680081360.306810 0.00000137 0.00026803 -0.00629025 -0.00036911 0.00048780 -0.00027344
1680081360.373481 0.00000861 0.00024459 -0.00575554 -0.00037798 0.00047943 -0.00025849
1680081360.440152 0.00000707 0.00025551 -0.00602518 -0.00034175 0.00042972 -0.00025701
1680081360.506823 0.00001249 0.00029444 -0.00664778 -0.00045981 0.00059886 -0.00026008
1680081360.573492 0.00003917 0.00012360 -0.00333625 -0.00009126 0.00016455 -0.00028015
1680081360.640162 -0.00000140 0.00024408 -0.00674899 0.00011409 -0.00000082 -0.00025847
1680081360.706832 0.00002958 0.00048312 -0.01021369 -0.00071137 0.00099119 -0.00020841
1680081360.773502 -0.00005851 0.00002125 -0.00261724 -0.00066205 0.00087762 -0.00024628
1680081360.840172 0.00000290 0.00008497 -0.00279915 0.00030484 -0.00019069 -0.00030057
1680081360.906841 -0.00027930 -0.00000121 -0.00865258 0.00014573 0.00004543 -0.00028687
1680081360.973513 -0.00037919 -0.00019099 -0.00785163 -0.00065068 0.00087645 -0.00024289
1680081361.040186 -0.00028522 -0.00024540 -0.00330701 -0.00051453 0.00068496 -0.00023992
1680081361.106861 -0.00025640 -0.00014400 -0.00441264 -0.00004239 0.00016894 -0.00027936
1680081361.173535 -0.00037304 -0.00016756 -0.00757220 -0.00018377 0.00033902 -0.00025965
1680081361.240209 -0.00036288 -0.00022351 -0.00603398 -0.00046417 0.00062905 -0.00023701
1680081361.306884 -0.00028060 -0.00018240 -0.00451385 -0.00027451 0.00041575 -0.00025391
1680081361.373558 0.00000337 0.00008375 -0.00329615 0.00027790 -0.00021571 -0.00026168
1680081361.440232 -0.00096737 -0.00102130 -0.01031451 -0.00026343 0.00043365 -0.00025030
1680081361.506904 -0.00148905 -0.00144286 -0.00127212 -0.00020976 0.00017542 -0.00028603
1680081361.573578 -0.00121276 -0.00093733 -0.00827347 0.00010357 -0.00009406 -0.00033158
1680081361.640252 -0.00124681 -0.00103084 -0.00587552 -0.00020425 0.00019377 -0.00046882
1680081361.706926 -0.00105352 -0.00087569 -0.00638299 -0.00026634 0.00026166 -0.00045128
1680081361.773599 -0.00125052 -0.00112640 -0.00543467 -0.00025466 0.00020579 -0.00037573
1680081361.840272 -0.00149513 -0.00128121 -0.00568843 -0.00014593 0.00007606 -0.00046517
1680081361.906945 -0.00721859 -0.00774526 -0.00357310 -0.00035863 -0.00045561 0.00005347
1680081361.973619 0.01419739 0.01135302 -0.01163442 -0.00050078 0.00040587 0.00026688
1680081362.040292 -0.00794209 -0.00843151 -0.00153384 -0.00047886 0.00075608 0.00036047
1680081362.106965 -0.00606592 -0.00728773 -0.00654416 0.00015703 0.00005706 0.00002110
1680081362.173638 -0.02267245 -0.02576543 -0.00256993 0.00033807 -0.00050627 -0.00098750
1680081362.240312 -0.04561683 -0.04891023 -0.00196312 0.00056511 -0.00162366 -0.00172954
1680081362.306985 -0.04470114 -0.04929129 -0.00539531 -0.00033744 -0.00236461 -0.00231886
1680081362.373657 -0.03723836 -0.04895272 -0.00654794 -0.00034851 -0.00223376 -0.00194224
1680081362.440330 -0.05854082 -0.04567460 -0.00422983 -0.00035386 -0.00233472 -0.00138148
1680081362.507002 -0.33881691 -0.16631314 0.01505403 -0.00052230 -0.00296232 -0.00181099
1680081362.573675 -0.49303988 -0.29285813 0.02006253 -0.00030519 -0.00294819 -0.00179406
1680081362.640347 -0.81362337 -0.44633180 0.04821167 -0.00003424 -0.00268895 -0.00198680
1680081362.707020 -0.64945005 -0.40629732 0.02453017 0.00005262 -0.00262260 -0.00210986
1680081362.773692 -0.47461495 -0.47244534 0.01543378 -0.00008654 -0.00258056 -0.00218540
1680081362.840364 -0.75489360 -0.63340818 0.04615097 -0.00012750 -0.00262204 -0.00209442
1680081362.907036 -0.24660858 -0.66683963 0.01094449 -0.00028409 -0.00261035 -0.00214030
1680081362.973708 -0.33899782 -0.69962044 0.01955336 -0.00022839 -0.00265911 -0.00210594
1680081363.040382 -0.64803149 -0.91625661 0.04200538 -0.00025538 -0.00269914 -0.00203980
1680081363.107057 -0.93411647 -1.11409401 0.06032198 -0.00010244 -0.00254524 -0.00213544
1680081363.173731 -1.12594764 -1.11503158 0.06538411 -0.00000026 -0.00250688 -0.00218618
1680081363.240404 -1.38158273 -1.03070149 0.07449507 -0.00000620 -0.00249229 -0.00234295
1680081363.307078 -1.66988885 -0.62161862 0.07519417 -0.00001883 -0.00267589 -0.00226598
1680081363.373752 -1.40798972 -0.51949162 0.04695597 -0.00020698 -0.00019715 -0.00074751
1680081363.440426 -1.09821641 -0.48495408 0.03257716 -0.00024265 -0.00025529 -0.00063554
1680081363.507100 -0.87896752 -0.41005490 0.01924266 -0.00031807 -0.00026298 -0.00058414
1680081363.573773 -0.70714113 -0.31033924 0.00683463 -0.00023892 -0.00022792 -0.00066462
1680081363.640447 -0.55494610 -0.21703288 -0.00219696 -0.00028849 -0.00023412 -0.00067996
1680081363.707119 -0.26333729 -0.18080575 -0.02031549 -0.00019523 -0.00006427 -0.00065791
1680081363.773793 -0.09052272 -0.11127257 -0.03002278 -0.00013756 -0.00002246 -0.00062199
1680081363.840466 0.03439134 -0.09025678 -0.03673405 -0.00007389 -0.00002162 -0.00062792
1680081363.907139 0.09428256 -0.05652110 -0.04063801 -0.00003416 -0.00000011 -0.00064890
1680081363.973813 0.09145423 -0.05805746 -0.04032135 -0.00002450 0.00001544 -0.00066890
1680081364.040493 0.10664448 -0.00687640 -0.04346218 0.00014444 0.00006758 -0.00066314
1680081364.107172 0.11186066 0.00523727 -0.04359203 0.00019309 0.00008590 -0.00072655
1680081364.173850 0.12111206 -0.03605552 -0.04258366 0.00011697 0.00008209 -0.00073381
1680081364.240528 0.13757505 -0.11602839 -0.03991439 0.00009841 0.00006293 -0.00072821
1680081364.307207 0.18007531 -0.17859450 -0.03980177 0.00006795 0.00003738 -0.00072631
1680081364.373886 0.21791348 -0.23640969 -0.03971862 0.00004543 0.00002824 -0.00069868
1680081364.440565 0.22375924 -0.23641592 -0.03979824 0.00002446 0.00000216 -0.00059008
1680081364.507244 0.29262729 -0.22560055 -0.04250367 -0.00002255 -0.00001850 -0.00061397
1680081364.573921 0.30332047 -0.22334449 -0.04321246 -0.00008333 0.00008855 -0.00056013
1680081364.640600 0.33812169 -0.25119051 -0.04309119 -0.00006269 0.00011070 -0.00048488
1680081364.707279 0.35999724 -0.28369680 -0.04272976 -0.00004238 0.00013965 -0.00045910
1680081364.773958 0.35644415 -0.30124595 -0.04223327 0.00000432 0.00018782 -0.00040129
1680081364.840637 0.36421582 -0.36264774 -0.04095267 0.00002639 0.00030975 -0.00037424
1680081364.907316 0.33755137 -0.31392668 -0.04157305 0.00002514 0.00027701 -0.00032974
1680081364.973994 0.31738041 -0.28722981 -0.04139128 -0.00000004 0.00026632 -0.00030038
1680081365.040671 0.29246527 -0.27070362 -0.04072284 -0.00000955 0.00023964 -0.00024629
1680081365.107348 0.29198260 -0.27614016 -0.04032017 -0.00001108 0.00016853 -0.00023836
1680081365.174025 0.26863246 -0.26795421 -0.03967607 -0.00000296 0.00011272 -0.00020108
1680081365.240703 0.27157797 -0.27797839 -0.03936822 -0.00001131 0.00012935 -0.00017601
1680081365.307380 0.27601033 -0.26227169 -0.03967047 0.00001333 0.00012890 -0.00017911
1680081365.374057 0.27961279 -0.25034262 -0.04011962 0.00009468 0.00008940 -0.00017750
1680081365.440734 0.31048442 -0.27616163 -0.04059979 0.00011523 0.00010657 -0.00017113
1680081365.507411 0.33495622 -0.28814697 -0.04122186 0.00014549 0.00011041 -0.00017779
1680081365.574088 0.36736414 -0.30368475 -0.04189704 0.00014313 0.00009401 -0.00019714
1680081365.640765 0.38363407 -0.32195632 -0.04202605 0.00013541 0.00009387 -0.00019916
1680081365.707442 0.37773152 -0.34265941 -0.04135953 0.00010825 0.00010614 -0.00019936
1680081365.774119 0.37480379 -0.35307679 -0.04103527 0.00007765 0.00012115 -0.00019383
1680081365.840796 0.34892863 -0.36114087 -0.04002644 0.00001112 0.00013503 -0.00021208
1680081365.907472 0.32655688 -0.35548754 -0.03931559 -0.00003027 0.00016392 -0.00021207
1680081365.974149 0.29145288 -0.32719765 -0.03859052 -0.00005974 0.00022194 -0.00019669
1680081366.040823 0.23322884 -0.28609469 -0.03716179 -0.00010744 0.00028014 -0.00018988
1680081366.107496 0.18744887 -0.24535643 -0.03601507 -0.00016664 0.00029916 -0.00019603
1680081366.174170 0.15910505 -0.22021069 -0.03523236 -0.00019676 0.00029997 -0.00019455
1680081366.240844 0.10561832 -0.18391842 -0.03368173 -0.00020222 0.00030237 -0.00018863
1680081366.307517 0.05212233 -0.16095457 -0.03183005 -0.00019836 0.00028942 -0.00018631
1680081366.374189 0.05559002 -0.15915801 -0.03184741 -0.00020396 0.00029051 -0.00017548
1680081366.440863 0.04950238 -0.13175164 -0.03188330 -0.00020028 0.00031004 -0.00018215
1680081366.507536 0.04810124 -0.12877846 -0.03183547 -0.00021170 0.00035064 -0.00019005
1680081366.574209 0.03271352 -0.13316621 -0.03099081 -0.00024881 0.00035217 -0.00018070
1680081366.640882 0.03608442 -0.14006859 -0.03072545 -0.00026240 0.00039872 -0.00016621
1680081366.707555 0.02946444 -0.14124423 -0.03041577 -0.00026741 0.00039478 -0.00016889
1680081366.774228 0.03302021 -0.13743991 -0.03057708 -0.00026431 0.00038605 -0.00018571
1680081366.840900 0.03606835 -0.13879568 -0.03061201 -0.00026889 0.00038940 -0.00019987
1680081366.907572 0.04216481 -0.16086008 -0.03031329 -0.00024826 0.00042799 -0.00021494
1680081366.974245 0.03799217 -0.16472664 -0.03021935 -0.00023786 0.00040997 -0.00021069
1680081367.040921 0.04740979 -0.18181238 -0.02992295 -0.00022307 0.00045132 -0.00019771
1680081367.107598 0.04694835 -0.17678734 -0.02996000 -0.00024700 0.00048252 -0.00019193
1680081367.174274 0.05411230 -0.17396343 -0.03026502 -0.00024835 0.00053477 -0.00017524
1680081367.240949 0.05725468 -0.17382568 -0.03022386 -0.00026131 0.00057385 -0.00017220
1680081367.307625 0.06016097 -0.17364817 -0.02987695 -0.00026085 0.00061338 -0.00018195
1680081367.374301 0.05705414 -0.17536014 -0.02944492 -0.00029563 0.00067033 -0.00018156
1680081367.440977 0.06244763 -0.17296693 -0.03006764 -0.00029567 0.00071765 -0.00017116
1680081367.507653 0.06132986 -0.17116814 -0.02998112 -0.00030276 0.00076586 -0.00016687
1680081367.574328 0.06273279 -0.16904177 -0.03024189 -0.00029130 0.00074071 -0.00016958
1680081367.641004 0.05722105 -0.16952826 -0.02975049 -0.00028440 0.00077146 -0.00017473
1680081367.707679 0.03097991 -0.17367806 -0.02719778 -0.00027848 0.00083023 -0.00017524
1680081367.774354 0.05181262 -0.17025671 -0.02929916 -0.00031328 0.00078236 -0.00016966
1680081367.841030 0.05495569 -0.16768612 -0.02946052 -0.00031990 0.00081919 -0.00015201
1680081367.907706 0.04816407 -0.16814794 -0.02907443 -0.00032864 0.00082610 -0.00017973
1680081367.974381 0.02412771 -0.16894005 -0.02731456 -0.00033855 0.00084190 -0.00018475
1680081368.041057 0.01919509 -0.16740780 -0.02737342 -0.00030701 0.00080859 -0.00015511
1680081368.107733 0.02239572 -0.16479002 -0.02738183 -0.00032432 0.00081624 -0.00015216
1680081368.174408 0.00584533 -0.14342542 -0.02695448 -0.00030084 0.00072843 -0.00013437
1680081368.241084 0.00536709 -0.14114345 -0.02689009 -0.00030628 0.00074463 -0.00012124
1680081368.307760 -0.02743094 -0.14111940 -0.02479628 -0.00030008 0.00079358 -0.00010727
1680081368.374436 -0.02906967 -0.13903526 -0.02466253 -0.00030313 0.00080049 -0.00010222
1680081368.441112 -0.03302869 -0.13293552 -0.02450215 -0.00029836 0.00079109 -0.00009245
1680081368.507788 -0.03296654 -0.12816152 -0.02447497 -0.00030159 0.00080883 -0.00008844
1680081368.574463 -0.03361489 -0.12514087 -0.02450484 -0.00030400 0.00081778 -0.00008008
1680081368.641138 -0.05772798 -0.12035754 -0.02332537 -0.00032381 0.00080955 -0.00008159
1680081368.707814 -0.06736435 -0.11264252 -0.02285251 -0.00032811 0.00075502 -0.00008057
1680081368.774490 -0.06894269 -0.10926890 -0.02284040 -0.00032804 0.00077705 -0.00006241
1680081368.841166 -0.06942797 -0.11160083 -0.02277253 -0.00033090 0.00079059 -0.00005615
1680081368.907841 -0.06735119 -0.11130861 -0.02284570 -0.00032765 0.00076358 -0.00004253
1680081368.974517 -0.06347504 -0.11122321 -0.02294489 -0.00033257 0.00076140 -0.00002800
1680081369.041193 -0.06077846 -0.10991115 -0.02298413 -0.00034296 0.00075778 -0.00004056
1680081369.107869 -0.05699623 -0.11139616 -0.02319342 -0.00035266 0.00078720 -0.00002447
1680081369.174546 -0.05992075 -0.11032369 -0.02296954 -0.00034326 0.00078960 -0.00000810
1680081369.241223 -0.06305969 -0.10659917 -0.02277603 -0.00032692 0.00078628 0.00000097
1680081369.307899 -0.06692053 -0.10289462 -0.02252908 -0.00031488 0.00078696 0.00001089
1680081369.374576 -0.07237946 -0.09913297 -0.02210582 -0.00030346 0.00077333 0.00002894
1680081369.441253 -0.07414702 -0.09464601 -0.02188206 -0.00030527 0.00075333 0.00003727
1680081369.507929 -0.07717712 -0.09297894 -0.02161697 -0.00030010 0.00074621 0.00005111
1680081369.574606 -0.07920443 -0.09266757 -0.02139261 -0.00029780 0.00074733 0.00006568
1680081369.641283 -0.08101308 -0.09255199 -0.02119174 -0.00030998 0.00074539 0.00006762
1680081369.707959 -0.08230542 -0.09059098 -0.02089112 -0.00029953 0.00074245 0.00008345
1680081369.774636 -0.08348440 -0.08987209 -0.02087734 -0.00030429 0.00073089 0.00008162
1680081369.841313 -0.08255995 -0.08854507 -0.02063042 -0.00031180 0.00072914 0.00008652
1680081369.907989 -0.08276711 -0.08858296 -0.02070950 -0.00030284 0.00071862 0.00009869
1680081369.974666 -0.08325269 -0.08840592 -0.02062270 -0.00030345 0.00071127 0.00011088
1680081370.041343 -0.08358307 -0.08826474 -0.02051447 -0.00029660 0.00071208 0.00012758
1680081370.108021 -0.08391091 -0.08817094 -0.02044790 -0.00028951 0.00071221 0.00013378
1680081370.174699 -0.08423127 -0.08840712 -0.02034016 -0.00028680 0.00070437 0.00014048
1680081370.241377 -0.08462945 -0.08819918 -0.02027757 -0.00028539 0.00071056 0.00014989
1680081370.308054 -0.08561960 -0.08840689 -0.02009022 -0.00028690 0.00069228 0.00014374
1680081370.374731 -0.08509108 -0.08866939 -0.02010217 -0.00027086 0.00068923 0.00015440
1680081370.441409 -0.08546430 -0.08870233 -0.02009495 -0.00026720 0.00069312 0.00016271
1680081370.508086 -0.08558848 -0.08891271 -0.02004034 -0.00026564 0.00068728 0.00017103
1680081370.574764 -0.08595709 -0.08967557 -0.01997511 -0.00026638 0.00068670 0.00017904
1680081370.641442 -0.08575962 -0.08978691 -0.01990248 -0.00026531 0.00067800 0.00018532
1680081370.708119 -0.08609894 -0.08995948 -0.01985814 -0.00026263 0.00068449 0.00019096
1680081370.774797 -0.08608002 -0.08997027 -0.01974499 -0.00025789 0.00066348 0.00018698
1680081370.841474 -0.08617229 -0.09027631 -0.01967453 -0.00025573 0.00064613 0.00018222
1680081370.908151 -0.08634183 -0.09058752 -0.01961961 -0.00025236 0.00063524 0.00017752
1680081370.974829 -0.08652398 -0.09081778 -0.01957289 -0.00024516 0.00062768 0.00017144
1680081371.041509 -0.08669923 -0.09126896 -0.01948171 -0.00023932 0.00060584 0.00017089
1680081371.108188 -0.08698751 -0.09166715 -0.01944764 -0.00023607 0.00058056 0.00017122
1680081371.174868 -0.08757211 -0.09240986 -0.01934270 -0.00023816 0.00056399 0.00016172
1680081371.241547 -0.08871920 -0.09210436 -0.01932166 -0.00022839 0.00054038 0.00015974
1680081371.308227 -0.09080560 -0.09569319 -0.01894298 -0.00023950 0.00053254 0.00014430
1680081371.374907 -0.09320866 -0.09692072 -0.01875901 -0.00025778 0.00052080 0.00013003
1680081371.441587 -0.09568903 -0.09833090 -0.01857150 -0.00028115 0.00049778 0.00011954
1680081371.508267 -0.09342913 -0.09588278 -0.01868910 -0.00029985 0.00048559 0.00011513
1680081371.574947 -0.10039455 -0.09088510 -0.01807113 -0.00032318 0.00048425 0.00010866
1680081371.641627 -0.09954856 -0.07713702 -0.01780924 -0.00032336 0.00045424 0.00012525
1680081371.708306 -0.10018451 -0.07830559 -0.01766776 -0.00032266 0.00043132 0.00014536
1680081371.774987 -0.09841456 -0.07220974 -0.01741949 -0.00031455 0.00041963 0.00015882
1680081371.841667 -0.09860498 -0.06950411 -0.01730429 -0.00030945 0.00041623 0.00015786
1680081371.908347 -0.09309111 -0.06187712 -0.01745247 -0.00029939 0.00042325 0.00016462
1680081371.975028 -0.09228759 -0.06339369 -0.01746572 -0.00029552 0.00042246 0.00018831
1680081372.041708 -0.08814029 -0.06275122 -0.01763971 -0.00028106 0.00041634 0.00020682
1680081372.108388 -0.08574786 -0.06438368 -0.01773404 -0.00026962 0.00040773 0.00021627
1680081372.175067 -0.08027894 -0.06297792 -0.01780572 -0.00024614 0.00039579 0.00023735
1680081372.241748 -0.07824369 -0.06419295 -0.01787553 -0.00022545 0.00038263 0.00023928
1680081372.308428 -0.07734549 -0.06536546 -0.01793655 -0.00022297 0.00038007 0.00023392
1680081372.375108 -0.07850140 -0.06470720 -0.01792035 -0.00023815 0.00037682 0.00023385
1680081372.441789 -0.07931519 -0.06329267 -0.01782765 -0.00024903 0.00037995 0.00023332
1680081372.508470 -0.08228712 -0.06289184 -0.01769538 -0.00025717 0.00037732 0.00024708
1680081372.575149 -0.08365052 -0.06228311 -0.01763593 -0.00026023 0.00038275 0.00024945
1680081372.641830 -0.08434992 -0.06263494 -0.01770719 -0.00025663 0.00038408 0.00024195
1680081372.708510 -0.08662687 -0.06344057 -0.01774742 -0.00023814 0.00039144 0.00024557
1680081372.775191 -0.08825282 -0.06581670 -0.01776788 -0.00023377 0.00039082 0.00024430
1680081372.841872 -0.09069044 -0.06446054 -0.01763820 -0.00021801 0.00038182 0.00024903
1680081372.908553 -0.08952766 -0.05955510 -0.01746946 -0.00018909 0.00036630 0.00024832
1680081372.975233 -0.08789212 -0.05185194 -0.01723855 -0.00016666 0.00035486 0.00024946
1680081373.041909 -0.08483987 -0.04417507 -0.01718234 -0.00013407 0.00034263 0.00025551
1680081373.108913 -0.08295015 -0.03872247 -0.01714783 -0.00010527 0.00032426 0.00024870
1680081373.175835 -0.08662838 -0.03488793 -0.01691717 -0.00009096 0.00029904 0.00024083
1680081373.242761 -0.08580604 -0.02735033 -0.01678741 -0.00006823 0.00029231 0.00023026
1680081373.309690 -0.05249869 -0.08954339 -0.02363619 -0.00003760 0.00010529 0.00034182
1680081373.376622 -0.08021936 -0.01098200 -0.01611558 -0.00005719 0.00026165 0.00020220
1680081373.443557 -0.08142089 -0.01001245 -0.01588441 -0.00006848 0.00025440 0.00019368
1680081373.510495 -0.08575808 -0.00776009 -0.01573955 -0.00007327 0.00025412 0.00020500
1680081373.577436 -0.09014591 -0.01052778 -0.01597086 -0.00007603 0.00024550 0.00020786
1680081373.644381 -0.09141723 -0.01203218 -0.01619276 -0.00008411 0.00024839 0.00021647
1680081373.711328 -0.09243931 -0.00859476 -0.01618672 -0.00008435 0.00025038 0.00023039
1680081373.778279 -0.09642190 0.00401129 -0.01591723 -0.00008698 0.00026545 0.00025802
1680081373.845233 -0.09942080 0.02033164 -0.01570325 -0.00007954 0.00025919 0.00028100
1680081373.912189 -0.09455738 0.03431769 -0.01547485 -0.00007368 0.00024768 0.00030577
1680081373.979150 -0.09083384 0.04751108 -0.01510671 -0.00006578 0.00023512 0.00032604
1680081374.046020 -0.08396694 0.05539136 -0.01486943 -0.00004622 0.00021101 0.00033361
1680081374.112664 -0.08920224 0.05778446 -0.01466436 -0.00004802 0.00020679 0.00034809
1680081374.179321 -0.08314516 0.05983322 -0.01445425 -0.00004054 0.00018388 0.00036053
1680081374.245979 -0.08140614 0.05828039 -0.01434987 -0.00005034 0.00016644 0.00035271
1680081374.312636 -0.08003946 0.05657994 -0.01451322 -0.00004241 0.00018144 0.00033780
1680081374.379292 -0.07823925 0.05992105 -0.01445796 -0.00004369 0.00017580 0.00035152
1680081374.445949 -0.07610304 0.06478375 -0.01429199 -0.00005970 0.00013598 0.00034866
1680081374.512605 -0.06436249 0.06380489 -0.01452234 -0.00005684 0.00011037 0.00036062
1680081374.579261 -0.05216570 0.06194202 -0.01490761 -0.00006647 0.00010219 0.00036314
1680081374.645916 -0.04668468 0.06376741 -0.01523327 -0.00004807 0.00010382 0.00035878
1680081374.712571 -0.06402386 0.06383172 -0.01490488 -0.00003915 0.00012752 0.00038545
1680081374.779226 -0.05408098 0.06111124 -0.01506292 -0.00004137 0.00012565 0.00038066
1680081374.845880 -0.04797332 0.06305326 -0.01531033 -0.00005777 0.00013957 0.00034465
1680081374.912534 -0.04715993 0.06828206 -0.01514289 -0.00007175 0.00012821 0.00035970
1680081374.979187 -0.04971605 0.06769649 -0.01484037 -0.00005076 0.00008948 0.00037173
1680081375.045857 -0.04706087 0.07071279 -0.01452655 -0.00004357 0.00006605 0.00039271
1680081375.112497 -0.04589696 0.06364744 -0.01411748 -0.00006187 0.00006812 0.00040047
1680081375.179151 -0.05146398 0.06772547 -0.01392890 -0.00005938 0.00006789 0.00042642
1680081375.245805 -0.05574361 0.07248785 -0.01386791 -0.00002928 0.00006521 0.00045028
1680081375.312458 -0.05689751 0.07577388 -0.01418740 -0.00000827 0.00009368 0.00047229
1680081375.379111 -0.05582447 0.07750139 -0.01409790 0.00001833 0.00007678 0.00047495
1680081375.445764 -0.05677025 0.07880357 -0.01416111 0.00002855 0.00008589 0.00047935
1680081375.512416 -0.05816852 0.07801705 -0.01410237 0.00004682 0.00009976 0.00047492
1680081375.579068 -0.05943155 0.07768196 -0.01375774 0.00009594 0.00007815 0.00045818
1680081375.645719 -0.06010700 0.07618290 -0.01341825 0.00012413 0.00006809 0.00044122
1680081375.712369 -0.05822382 0.07800181 -0.01318801 0.00012350 0.00007343 0.00040959
1680081375.779020 -0.05672368 0.07884322 -0.01323849 0.00010502 0.00008390 0.00040643
1680081375.845670 -0.06078344 0.07992168 -0.01314733 0.00007562 0.00010817 0.00041780
1680081375.912320 -0.06132574 0.07934475 -0.01293755 0.00010535 0.00007926 0.00043904
1680081375.978969 -0.05927161 0.08111260 -0.01291940 0.00010899 0.00010228 0.00042388
1680081376.045634 -0.05969936 0.08226155 -0.01286902 0.00013579 0.00010471 0.00043484
1680081376.112277 -0.06192855 0.08023453 -0.01256475 0.00015556 0.00007575 0.00045921
1680081376.178931 -0.06211703 0.07950544 -0.01238775 0.00015161 0.00006121 0.00047764
1680081376.245587 -0.06165987 0.07738877 -0.01211785 0.00015208 0.00001232 0.00051605
1680081376.312242 -0.06423140 0.07584568 -0.01195667 0.00014047 -0.00000362 0.00053749
1680081376.378896 -0.06605004 0.07532289 -0.01236922 0.00014581 -0.00000095 0.00058560
1680081376.445549 -0.06598928 0.07414160 -0.01236918 0.00012660 -0.00002524 0.00063599
1680081376.512203 -0.06578139 0.07332711 -0.01248076 0.00013269 -0.00000927 0.00067097
1680081376.578856 -0.06526247 0.07411750 -0.01227734 0.00014516 -0.00002997 0.00068117
1680081376.645508 -0.06614974 0.07346568 -0.01215363 0.00016090 -0.00006740 0.00069799
1680081376.712161 -0.06607930 0.07024714 -0.01167255 0.00019027 -0.00008329 0.00071922
1680081376.778812 -0.06575405 0.06902745 -0.01136078 0.00019286 -0.00009640 0.00072095
1680081376.845464 -0.06641427 0.06690289 -0.01120059 0.00021942 -0.00006928 0.00069374
1680081376.912116 -0.06525908 0.06162566 -0.01107935 0.00021368 -0.00005252 0.00070586
1680081376.978766 -0.06390391 0.05931520 -0.01117165 0.00018853 -0.00005039 0.00073081
1680081377.045429 -0.06205595 0.05432701 -0.01111704 0.00018910 -0.00001406 0.00074016
1680081377.112075 -0.05972432 0.05198517 -0.01097443 0.00017312 -0.00000839 0.00075317
1680081377.178731 -0.05739821 0.04917405 -0.01090626 0.00017051 0.00002403 0.00075670
1680081377.245387 -0.05529510 0.04816871 -0.01071923 0.00015995 0.00002407 0.00075848
1680081377.312042 -0.05227140 0.04598596 -0.01052273 0.00017033 0.00003414 0.00076304
1680081377.378697 -0.05001792 0.04426033 -0.01058427 0.00016475 0.00005240 0.00077407
1680081377.445352 -0.04740197 0.04278115 -0.01058872 0.00016430 0.00006612 0.00077860
1680081377.512005 -0.04821430 0.04141210 -0.01049664 0.00018053 0.00007893 0.00076727
1680081377.578659 -0.04985529 0.03989861 -0.01035805 0.00019673 0.00008224 0.00074822
1680081377.645313 -0.04524436 0.04173338 -0.01026202 0.00018562 0.00007781 0.00073040
1680081377.711966 -0.04488715 0.04093576 -0.01011079 0.00018234 0.00007592 0.00072033
1680081377.778618 -0.04452695 0.03847913 -0.01006048 0.00017548 0.00007898 0.00071263
1680081377.845270 -0.04554758 0.03680181 -0.01006717 0.00018717 0.00009779 0.00069952
1680081377.911922 -0.04138122 0.03675687 -0.01025441 0.00016336 0.00010523 0.00070045
1680081377.978573 -0.03770275 0.03138174 -0.01057505 0.00013856 0.00014037 0.00070539
1680081378.045237 -0.03741014 0.02539342 -0.01078660 0.00012670 0.00016075 0.00070552
1680081378.111881 -0.03636770 0.02179334 -0.01118833 0.00012067 0.00017093 0.00070746
1680081378.178537 -0.03369225 0.02150319 -0.01155775 0.00010541 0.00016267 0.00071287
1680081378.245191 -0.03032316 0.01944632 -0.01169621 0.00009080 0.00015122 0.00072549
1680081378.311846 -0.02912701 0.01696796 -0.01178689 0.00008674 0.00014129 0.00073003
1680081378.378499 -0.02706545 0.01853954 -0.01205134 0.00007723 0.00013143 0.00074394
1680081378.445152 -0.02337054 0.01917452 -0.01226664 0.00007203 0.00012398 0.00074908
1680081378.511805 -0.01932908 0.02077832 -0.01246954 0.00005876 0.00011487 0.00074667
1680081378.578458 -0.01720903 0.01630722 -0.01275450 0.00004925 0.00012954 0.00073223
1680081378.645110 -0.01511704 0.01253229 -0.01288805 0.00004061 0.00012627 0.00072214
1680081378.711762 -0.01002776 0.01401434 -0.01288529 0.00002027 0.00011688 0.00071822
1680081378.778413 -0.00782025 0.01346676 -0.01285057 0.00001203 0.00011219 0.00069862
1680081378.845063 -0.00617098 0.00957046 -0.01279985 0.00001345 0.00011194 0.00068310
1680081378.911714 -0.00502577 0.01184917 -0.01257331 0.00002621 0.00011101 0.00068120
1680081378.978364 -0.00223308 0.01302581 -0.01261446 0.00003136 0.00011908 0.00068383
1680081379.045025 -0.00026640 0.01366530 -0.01268021 0.00002986 0.00011976 0.00068778
1680081379.111671 0.00141949 0.01301031 -0.01264336 0.00002699 0.00012842 0.00068026
1680081379.178325 0.00298238 0.01674886 -0.01243247 0.00001985 0.00012498 0.00065875
1680081379.244979 0.00548497 0.01806201 -0.01244741 0.00000964 0.00013204 0.00063287
1680081379.311633 0.00705358 0.01817155 -0.01244344 0.00000641 0.00013959 0.00060697
1680081379.378286 0.00799374 0.01672155 -0.01253300 0.00000517 0.00014031 0.00058728
1680081379.444939 0.00907716 0.01414413 -0.01262714 0.00000480 0.00014165 0.00056890
1680081379.511591 0.00983360 0.01586962 -0.01271326 0.00000672 0.00013035 0.00055597
1680081379.578243 0.01168052 0.01427269 -0.01281681 -0.00000132 0.00012651 0.00054342
1680081379.644895 0.00814384 0.00720283 -0.01167635 0.00000349 0.00017605 0.00053911
1680081379.711545 0.01513320 0.00570512 -0.01298571 -0.00001514 0.00013696 0.00052428
1680081379.778196 0.01543139 0.00455240 -0.01306188 -0.00001640 0.00013599 0.00052241
1680081379.844846 0.01497584 0.00510028 -0.01300702 -0.00001651 0.00013519 0.00051643
1680081379.911496 0.01674598 0.00400159 -0.01316908 -0.00002361 0.00013073 0.00051913
1680081379.978146 0.01906552 0.00458153 -0.01324507 -0.00003386 0.00013395 0.00052317
1680081380.044806 0.02113870 0.00510488 -0.01322531 -0.00004647 0.00013017 0.00052691
1680081380.111456 0.02096055 0.00733097 -0.01313220 -0.00005226 0.00012258 0.00052653
1680081380.178112 0.02396880 0.00436564 -0.01325319 -0.00006677 0.00013171 0.00052749
1680081380.244770 0.02579313 0.00218816 -0.01335669 -0.00007325 0.00014819 0.00053473
1680081380.311426 0.02625973 0.00209121 -0.01325965 -0.00007572 0.00015191 0.00054143
1680081380.378083 0.02705561 0.00229848 -0.01313920 -0.00008203 0.00015127 0.00053896
1680081380.444739 0.02696323 0.00272331 -0.01301758 -0.00008159 0.00014992 0.00054386
1680081380.511394 0.02664307 0.00286692 -0.01316291 -0.00007780 0.00015805 0.00055290
1680081380.578048 0.02561263 0.00273678 -0.01305146 -0.00007085 0.00016432 0.00056450
1680081380.644703 0.02227580 0.00307338 -0.01265827 -0.00005508 0.00017223 0.00057497
1680081380.711358 0.02191322 0.00299254 -0.01250717 -0.00005157 0.00017597 0.00059182
1680081380.778012 0.02178050 0.00556308 -0.01251964 -0.00005545 0.00016731 0.00060686
1680081380.844666 0.00768131 0.00916887 -0.01172137 -0.00001257 0.00016775 0.00057067
1680081380.911319 0.01921057 0.00745353 -0.01224848 -0.00003583 0.00017121 0.00064189
1680081380.977972 0.01949956 0.00736418 -0.01225603 -0.00002988 0.00017778 0.00065622
1680081381.044632 0.01936132 0.00675175 -0.01212740 -0.00002680 0.00019061 0.00066610
1680081381.111283 0.01913558 0.00549418 -0.01197175 -0.00002704 0.00020821 0.00068133
1680081381.177939 0.01824477 0.00462821 -0.01188366 -0.00001567 0.00022987 0.00069742
1680081381.244595 0.01885768 0.00410769 -0.01205170 -0.00001459 0.00023683 0.00071042
1680081381.311251 0.01766941 0.00337705 -0.01206031 -0.00000284 0.00025132 0.00073088
1680081381.377906 0.01662033 0.00300963 -0.01210493 0.00000824 0.00025868 0.00075304
1680081381.444561 0.01565575 0.00315870 -0.01206198 0.00001440 0.00026492 0.00076741
1680081381.511215 0.01520535 0.00355412 -0.01211441 0.00001873 0.00026783 0.00075254
1680081381.577869 0.01385055 0.00395019 -0.01212085 0.00002565 0.00026867 0.00073737
1680081381.644523 0.01322452 0.00505407 -0.01199821 0.00001986 0.00026596 0.00071828
1680081381.711176 0.01229930 0.00606767 -0.01189841 0.00001655 0.00026077 0.00070127
1680081381.777830 0.01153324 0.00661703 -0.01181614 0.00001399 0.00025631 0.00068963
1680081381.844482 0.01066037 0.00707833 -0.01173464 0.00001263 0.00025069 0.00067453
1680081381.911134 0.00943330 0.00738289 -0.01173180 0.00000989 0.00024597 0.00066307
1680081381.977786 0.00845179 0.00730626 -0.01171696 0.00001009 0.00023805 0.00065254
1680081382.044445 0.00832448 0.00712408 -0.01170112 0.00001266 0.00024328 0.00064651
1680081382.111094 0.00703132 0.00662666 -0.01168800 0.00001874 0.00023961 0.00063775
1680081382.177748 0.00569135 0.00607002 -0.01162861 0.00003322 0.00023055 0.00064274
1680081382.244402 0.00444442 0.00519203 -0.01152915 0.00003744 0.00023314 0.00065406
1680081382.311056 0.00363837 0.00475540 -0.01148007 0.00003808 0.00023758 0.00065533
1680081382.377708 0.00291705 0.00499787 -0.01127472 0.00003907 0.00023243 0.00065759
1680081382.444361 0.00211740 0.00483443 -0.01127736 0.00004298 0.00023425 0.00066043
1680081382.511014 0.00173129 0.00401711 -0.01113237 0.00005738 0.00024026 0.00066338
1680081382.577666 0.00138348 0.00560648 -0.01115243 0.00005605 0.00023445 0.00064313
1680081382.644318 0.00091808 0.00550525 -0.01094296 0.00006467 0.00023592 0.00062850
1680081382.710969 0.00056193 0.00484476 -0.01079810 0.00006783 0.00024007 0.00061831
1680081382.777620 0.00000298 0.00451665 -0.01062605 0.00007077 0.00023965 0.00060716
1680081382.844269 -0.00075616 0.00445204 -0.01056406 0.00006742 0.00024325 0.00059950
1680081382.910919 -0.00135008 0.00399224 -0.01046147 0.00006932 0.00024527 0.00059616
1680081382.977569 -0.00190786 0.00343724 -0.01046083 0.00007364 0.00023925 0.00059852
1680081383.044225 -0.00260522 0.00316542 -0.01041583 0.00006381 0.00024927 0.00060641
1680081383.110876 -0.00310771 0.00256606 -0.01034888 0.00006279 0.00024600 0.00062183
1680081383.177532 -0.00300281 0.00283829 -0.01032004 0.00006238 0.00024126 0.00062428
1680081383.244186 -0.00328288 0.00290494 -0.01030288 0.00006915 0.00024519 0.00064211
1680081383.310841 -0.00324857 0.00363282 -0.01029187 0.00008177 0.00024355 0.00065173
1680081383.377496 -0.00316361 0.00406758 -0.01031512 0.00008585 0.00024432 0.00065122
1680081383.444150 -0.00299135 0.00485703 -0.01035808 0.00009565 0.00024543 0.00065192
1680081383.510804 -0.00290015 0.00509907 -0.01030365 0.00010273 0.00024302 0.00064758
1680081383.577457 -0.00284815 0.00510293 -0.01019676 0.00010077 0.00024537 0.00065059
1680081383.644110 -0.00286473 0.00474287 -0.01007380 0.00010363 0.00024822 0.00065466
1680081383.710762 -0.00285492 0.00445374 -0.01007836 0.00010395 0.00025183 0.00065873
1680081383.777414 -0.00287320 0.00418138 -0.01002302 0.00011086 0.00025746 0.00066566
1680081383.844066 -0.00255165 0.00395738 -0.00996824 0.00011200 0.00026772 0.00066961
1680081383.910717 -0.00260223 0.00368976 -0.00986679 0.00011139 0.00028173 0.00067405
1680081383.977368 -0.00244890 0.00393290 -0.00987241 0.00010777 0.00027541 0.00067019
1680081384.044025 -0.00254478 0.00424514 -0.00999968 0.00010601 0.00029186 0.00066880
1680081384.110679 -0.00264977 0.00412296 -0.01005010 0.00011180 0.00029959 0.00067097
1680081384.177335 -0.00286448 0.00461837 -0.01000843 0.00011576 0.00030652 0.00066795
1680081384.243991 -0.00351364 0.00437874 -0.00993109 0.00011818 0.00030738 0.00067479
1680081384.310647 -0.00385173 0.00440417 -0.00983950 0.00011866 0.00031259 0.00067420
1680081384.377303 -0.00426140 0.00441059 -0.00969642 0.00012149 0.00031637 0.00068137
1680081384.443958 -0.00448077 0.00402161 -0.00968257 0.00011881 0.00032427 0.00069053
1680081384.510613 -0.00457619 0.00419155 -0.00964104 0.00011406 0.00032504 0.00069162
1680081384.577267 -0.00467686 0.00392088 -0.00960628 0.00010966 0.00032848 0.00069805
1680081384.643921 -0.00450074 0.00397063 -0.00959039 0.00010606 0.00032720 0.00069835
1680081384.710575 -0.00469579 0.00418917 -0.00954768 0.00010421 0.00032161 0.00070066
1680081384.777228 -0.00509144 0.00437671 -0.00950776 0.00010577 0.00031797 0.00070519
1680081384.843881 -0.00537447 0.00485899 -0.00945489 0.00010648 0.00031211 0.00071088
1680081384.910534 -0.00542326 0.00532501 -0.00950597 0.00010649 0.00030438 0.00071507
1680081384.977186 -0.00519817 0.00594631 -0.00948939 0.00010200 0.00029705 0.00070557
1680081385.043842 -0.00511181 0.00632527 -0.00954307 0.00010059 0.00029125 0.00069859
1680081385.110494 -0.00461976 0.00690314 -0.00952865 0.00009670 0.00028312 0.00068736
1680081385.177149 -0.00371104 0.00685183 -0.00953637 0.00009270 0.00028383 0.00068576
1680081385.243803 -0.00309289 0.00682240 -0.00935169 0.00009019 0.00029019 0.00068244
1680081385.310457 -0.00281907 0.00667782 -0.00940890 0.00008649 0.00029435 0.00068400
1680081385.377111 -0.00269565 0.00609438 -0.00932257 0.00008469 0.00030092 0.00068147
1680081385.443764 -0.00318185 0.00587730 -0.00928186 0.00008180 0.00030523 0.00068105
1680081385.510416 -0.00346344 0.00614397 -0.00912071 0.00007954 0.00030839 0.00066627
1680081385.577068 -0.00422781 0.00592557 -0.00931224 0.00007335 0.00030649 0.00067144
1680081385.643720 -0.00457767 0.00708723 -0.00941085 0.00007825 0.00030911 0.00067048
1680081385.710372 -0.00582786 0.00677659 -0.00933578 0.00007437 0.00030782 0.00067763
1680081385.777023 -0.00707544 0.00670901 -0.00912639 0.00007237 0.00030832 0.00067981
1680081385.843673 -0.00768587 0.00708056 -0.00920721 0.00006634 0.00030927 0.00068242
1680081385.910323 -0.00794267 0.00688988 -0.00910670 0.00006218 0.00031005 0.00068764
1680081385.976973 -0.00786954 0.00679436 -0.00906270 0.00005857 0.00030989 0.00068604
1680081386.043627 -0.00778623 0.00618547 -0.00891721 0.00005986 0.00031015 0.00068105
1680081386.110282 -0.00688418 0.00538199 -0.00897374 0.00005959 0.00031062 0.00067745
1680081386.176939 -0.00614483 0.00425480 -0.00889321 0.00006001 0.00031020 0.00066985
1680081386.243596 -0.00588631 0.00364366 -0.00888440 0.00005909 0.00031474 0.00064883
1680081386.310252 -0.00597871 0.00330027 -0.00867767 0.00005812 0.00031880 0.00062630
1680081386.376907 -0.00488401 0.00206650 -0.00882045 0.00005609 0.00031808 0.00061764
1680081386.443562 -0.00377857 0.00124158 -0.00888077 0.00005468 0.00031821 0.00060264
1680081386.510217 -0.00273853 0.00021382 -0.00907404 0.00005007 0.00031576 0.00059498
1680081386.576872 -0.00221127 -0.00008676 -0.00900857 0.00005086 0.00031798 0.00058222
1680081386.643526 -0.00132387 -0.00040169 -0.00924772 0.00005310 0.00031903 0.00058663
1680081386.710180 -0.00161255 -0.00000011 -0.00921514 0.00005364 0.00031973 0.00058756
1680081386.776834 -0.00137363 0.00034257 -0.00930904 0.00005265 0.00031844 0.00060052
1680081386.843486 -0.00165021 -0.00030698 -0.00936496 0.00005539 0.00030681 0.00062238
1680081386.910138 -0.00113654 -0.00016621 -0.00936286 0.00005861 0.00029716 0.00063130
1680081386.976791 -0.00081248 0.00172709 -0.00936222 0.00005791 0.00030142 0.00062640
1680081387.043446 0.00022453 0.00219763 -0.00948944 0.00005207 0.00029918 0.00062891
1680081387.110099 0.00025565 0.00343308 -0.00944599 0.00004581 0.00030168 0.00062074
1680081387.176755 0.00016411 0.00450125 -0.00941375 0.00003485 0.00030670 0.00060981
1680081387.243408 -0.00042206 0.00493195 -0.00937796 0.00002366 0.00030685 0.00059957
1680081387.310063 0.00008310 0.00558678 -0.00932881 0.00002207 0.00030923 0.00060451
1680081387.376717 -0.00036553 0.00541088 -0.00930051 0.00001344 0.00031001 0.00060317
1680081387.443370 -0.00121950 0.00470648 -0.00917004 0.00001032 0.00028918 0.00059107
1680081387.510023 -0.00200696 0.00439603 -0.00908165 0.00000488 0.00028489 0.00059058
1680081387.576676 -0.00239201 0.00369825 -0.00900221 -0.00000444 0.00028644 0.00059849
1680081387.643329 -0.00318958 0.00299925 -0.00886011 -0.00001264 0.00029254 0.00060841
1680081387.709980 -0.00411251 0.00243925 -0.00886169 -0.00001373 0.00030310 0.00062061
1680081387.776631 -0.00415626 0.00315876 -0.00904564 -0.00000850 0.00030348 0.00063138
1680081387.843282 -0.00449880 0.00268990 -0.00907583 -0.00000562 0.00030105 0.00063533
1680081387.909933 -0.00500257 0.00250681 -0.00904000 -0.00000360 0.00030323 0.00064650
1680081387.976583 -0.00490931 0.00248234 -0.00902639 -0.00000847 0.00030088 0.00064200
1680081388.043235 -0.00535342 0.00188554 -0.00876659 -0.00001654 0.00031272 0.00064690
1680081388.109891 -0.00562489 0.00140707 -0.00883316 -0.00002607 0.00031805 0.00064543
1680081388.176545 -0.00547747 0.00084764 -0.00892216 -0.00002901 0.00031700 0.00064664
1680081388.243200 -0.00516170 0.00104514 -0.00895785 -0.00002629 0.00033976 0.00065901
1680081388.309855 -0.00523504 0.00016933 -0.00894646 -0.00001485 0.00035120 0.00066509
1680081388.376509 -0.00528679 -0.00064198 -0.00896506 -0.00000269 0.00036528 0.00067321
1680081388.443163 -0.00553577 -0.00094686 -0.00894481 0.00000898 0.00038148 0.00068660
1680081388.509817 -0.00600373 -0.00100331 -0.00891944 -0.00000402 0.00036616 0.00069998
1680081388.576469 -0.00654389 -0.00148215 -0.00873084 -0.00001275 0.00036793 0.00071446
1680081388.643121 -0.00749187 -0.00175089 -0.00846111 -0.00001066 0.00035917 0.00070199
1680081388.709774 -0.00759108 -0.00159584 -0.00852597 0.00000811 0.00037030 0.00070097
1680081388.776426 -0.00805735 -0.00165805 -0.00843336 0.00001046 0.00038756 0.00070818
1680081388.843077 -0.00847856 -0.00158238 -0.00846782 -0.00000608 0.00039528 0.00071918
1680081388.909728 -0.00854953 -0.00133318 -0.00842710 -0.00001077 0.00040196 0.00072667
1680081388.976379 -0.00834852 -0.00120238 -0.00850555 -0.00000143 0.00043384 0.00072977
1680081389.043030 -0.00919191 -0.00120163 -0.00840691 -0.00001325 0.00046388 0.00073897
1680081389.109845 -0.00934691 -0.00121435 -0.00837562 -0.00001843 0.00048941 0.00073304
1680081389.176635 -0.00962008 -0.00126579 -0.00827173 -0.00002555 0.00047288 0.00074317
1680081389.243427 -0.00951220 -0.00129361 -0.00832127 -0.00002296 0.00047565 0.00074927
1680081389.310222 -0.00984055 -0.00119624 -0.00836642 -0.00003987 0.00050279 0.00075655
1680081389.377020 -0.00984055 -0.00119624 -0.00836642 -0.00003987 0.00050279 0.00075655
1680081389.443821 -0.00989053 -0.00122878 -0.00847518 -0.00003977 0.00053663 0.00076446
1680081389.510624 -0.00983044 -0.00106172 -0.00848030 -0.00003133 0.00056367 0.00077135
1680081389.577432 -0.00984389 -0.00094996 -0.00847100 -0.00001771 0.00057314 0.00078083
1680081389.644242 -0.01018704 -0.00096956 -0.00847838 -0.00003052 0.00058205 0.00079603
1680081389.711055 -0.01009461 -0.00104576 -0.00857907 -0.00003012 0.00059266 0.00080790
1680081389.777871 -0.01027045 -0.00105425 -0.00852933 -0.00003215 0.00059487 0.00081717
1680081389.844691 -0.01033115 -0.00106165 -0.00852238 -0.00003188 0.00060091 0.00082551
1680081389.911512 -0.01036130 -0.00102451 -0.00851177 -0.00002875 0.00061006 0.00083309
1680081389.978337 -0.01032817 -0.00092747 -0.00852127 -0.00002366 0.00062918 0.00084372
1680081390.045130 -0.01038637 -0.00087401 -0.00852966 -0.00002189 0.00064173 0.00085313
1680081390.111811 -0.01027061 -0.00087482 -0.00853471 -0.00001905 0.00064457 0.00086094
1680081390.178492 -0.01027062 -0.00088363 -0.00853147 -0.00001785 0.00064788 0.00086821
1680081390.245172 -0.01030119 -0.00081298 -0.00853746 -0.00001778 0.00066127 0.00087612
1680081390.311853 -0.01039656 -0.00072320 -0.00853334 -0.00001866 0.00067701 0.00088113
1680081390.378533 -0.01030126 -0.00066383 -0.00851635 -0.00001275 0.00067956 0.00089113
1680081390.445214 -0.01025374 -0.00070870 -0.00852193 -0.00000763 0.00067657 0.00090034
1680081390.511894 -0.01036921 -0.00071743 -0.00855131 -0.00001790 0.00069136 0.00090747
1680081390.578575 -0.01036538 -0.00064641 -0.00856480 -0.00002041 0.00070191 0.00090838
1680081390.645256 -0.01034836 -0.00068763 -0.00856283 -0.00001829 0.00070015 0.00091317
1680081390.711937 -0.01035906 -0.00063644 -0.00858042 -0.00001932 0.00070741 0.00091877
1680081390.778618 -0.01035770 -0.00053921 -0.00859163 -0.00001874 0.00072174 0.00092577
1680081390.845298 -0.01034853 -0.00048894 -0.00859629 -0.00001798 0.00073050 0.00093258
1680081390.911979 -0.01031140 -0.00044316 -0.00860751 -0.00001476 0.00073793 0.00093961
1680081390.978660 -0.01029536 -0.00038114 -0.00861816 -0.00001321 0.00074819 0.00094581
1680081391.045341 -0.01029404 -0.00032864 -0.00862351 -0.00001265 0.00075754 0.00095071
1680081391.112020 -0.01027188 -0.00028335 -0.00863049 -0.00001049 0.00076515 0.00095549
1680081391.178698 -0.01026495 -0.00022057 -0.00863837 -0.00000985 0.00077466 0.00096135
1680081391.245376 -0.01024181 -0.00016820 -0.00864521 -0.00000710 0.00078273 0.00096816
1680081391.312055 -0.01026702 -0.00012681 -0.00864803 -0.00000952 0.00079078 0.00097252
1680081391.378733 -0.01027739 -0.00007847 -0.00865506 -0.00001096 0.00079992 0.00097793
1680081391.445412 -0.01026226 -0.00002955 -0.00866332 -0.00001022 0.00080767 0.00098352
1680081391.512090 -0.01025096 0.00002442 -0.00866885 -0.00000909 0.00081572 0.00098900
1680081391.578769 -0.01028938 0.00008286 -0.00868016 -0.00000815 0.00082469 0.00099527
1680081391.645447 -0.01017715 0.00013111 -0.00868670 -0.00000737 0.00083092 0.00100246
1680081391.712125 -0.01016307 0.00018802 -0.00869652 -0.00000573 0.00083833 0.00100815
1680081391.778804 -0.01015326 0.00024555 -0.00870763 -0.00000452 0.00084659 0.00101348
1680081391.845482 -0.01015506 0.00029878 -0.00871097 -0.00000500 0.00085438 0.00101898
1680081391.912161 -0.01016715 0.00034413 -0.00873470 -0.00000672 0.00086143 0.00102433
1680081391.978839 -0.01016453 0.00042791 -0.00875758 -0.00000704 0.00087107 0.00102887
1680081392.045518 -0.01015394 0.00048650 -0.00875877 -0.00000627 0.00087816 0.00103509
1680081392.112199 -0.01014500 0.00054591 -0.00872590 -0.00000613 0.00088865 0.00104176
1680081392.178878 -0.01012958 0.00062773 -0.00869142 -0.00000385 0.00089846 0.00104769
1680081392.245559 -0.01011053 0.00069633 -0.00869048 -0.00000213 0.00090596 0.00105332
1680081392.312239 -0.01010756 0.00075835 -0.00868905 -0.00000203 0.00091401 0.00105800
1680081392.378920 -0.01009610 0.00083612 -0.00870211 0.00000010 0.00092281 0.00106290
1680081392.445601 -0.01007771 0.00091486 -0.00870692 0.00000293 0.00093110 0.00106766
1680081392.512282 -0.01008100 0.00098350 -0.00868490 0.00000225 0.00094024 0.00107262
1680081392.578962 -0.01009705 0.00105798 -0.00870586 0.00000222 0.00094968 0.00107767
1680081392.645643 -0.01010058 0.00113589 -0.00872532 0.00000320 0.00095880 0.00108210
1680081392.712323 -0.01010110 0.00117567 -0.00870326 0.00000305 0.00096637 0.00108697
1680081392.779004 -0.01010613 0.00124405 -0.00871344 0.00000249 0.00097500 0.00109132
1680081392.845685 -0.01010754 0.00131097 -0.00871067 0.00000255 0.00098374 0.00109554
1680081392.912366 -0.01010647 0.00137546 -0.00871465 0.00000238 0.00099165 0.00109962
1680081392.979047 -0.01008321 0.00144541 -0.00872217 0.00000473 0.00099876 0.00110352
1680081393.045727 -0.01006956 0.00152210 -0.00872709 0.00000594 0.00100715 0.00110642
1680081393.112405 -0.01006535 0.00158158 -0.00873123 0.00000633 0.00101468 0.00110949
1680081393.179084 -0.01006068 0.00165118 -0.00874492 0.00000701 0.00102288 0.00111340
1680081393.245763 -0.01005626 0.00172123 -0.00874594 0.00000718 0.00103089 0.00111789
1680081393.312442 -0.01004114 0.00179918 -0.00875767 0.00000917 0.00103925 0.00112198
1680081393.379121 -0.01003134 0.00188702 -0.00876073 0.00001035 0.00104842 0.00112597
1680081393.445800 -0.01002787 0.00195862 -0.00876939 0.00001066 0.00105640 0.00112936
1680081393.512478 -0.01004842 0.00202146 -0.00876688 0.00001093 0.00106383 0.00113264
1680081393.579156 -0.01005434 0.00208969 -0.00877777 0.00001069 0.00107321 0.00113674
1680081393.645835 -0.01005723 0.00215758 -0.00878280 0.00001073 0.00108128 0.00114105
1680081393.712514 -0.01005154 0.00222610 -0.00878680 0.00001125 0.00108925 0.00114485
1680081393.779193 -0.01005338 0.00229281 -0.00879055 0.00001108 0.00109723 0.00114810
1680081393.845872 -0.01006275 0.00235780 -0.00879510 0.00001014 0.00110563 0.00115235
1680081393.912549 -0.01009507 0.00237741 -0.00880050 0.00000982 0.00111220 0.00115467
1680081393.979228 -0.01007943 0.00246327 -0.00880370 0.00001151 0.00112065 0.00115792
1680081394.045907 -0.01006986 0.00254699 -0.00881228 0.00001275 0.00112929 0.00116049
1680081394.112590 -0.01006506 0.00262830 -0.00881323 0.00001361 0.00113788 0.00116276
1680081394.179272 -0.01005780 0.00270567 -0.00881814 0.00001469 0.00114594 0.00116552
1680081394.245954 -0.01004763 0.00276961 -0.00882204 0.00001569 0.00115324 0.00116834
1680081394.312636 -0.01004432 0.00284952 -0.00882867 0.00001639 0.00116153 0.00117068
1680081394.379317 -0.01004534 0.00291292 -0.00883133 0.00001652 0.00116938 0.00117331
1680081394.445999 -0.01004229 0.00297952 -0.00883445 0.00001634 0.00117670 0.00117655
1680081394.512681 -0.01003636 0.00304004 -0.00883866 0.00001714 0.00118342 0.00117988
1680081394.579363 -0.01003719 0.00311434 -0.00885187 0.00001696 0.00119180 0.00118238
1680081394.646045 -0.01003365 0.00319089 -0.00884515 0.00001767 0.00120007 0.00118511
1680081394.712727 -0.01002403 0.00325496 -0.00885109 0.00001855 0.00120698 0.00118836
1680081394.779410 -0.01002076 0.00332803 -0.00884875 0.00002022 0.00121224 0.00119269
1680081394.846091 -0.00997870 0.00337398 -0.00885287 0.00001994 0.00121989 0.00119571
1680081394.912773 -0.00996755 0.00344192 -0.00885454 0.00002113 0.00122685 0.00119820
1680081394.979455 -0.00995904 0.00350846 -0.00886129 0.00002166 0.00123376 0.00120028
1680081395.046137 -0.00995769 0.00357376 -0.00886947 0.00002170 0.00124109 0.00120220
1680081395.112816 -0.00995622 0.00364350 -0.00887089 0.00002220 0.00124906 0.00120499
1680081395.179496 -0.00995875 0.00371269 -0.00886920 0.00002252 0.00125726 0.00120745
1680081395.246174 -0.00995256 0.00377422 -0.00887323 0.00002287 0.00126423 0.00120955
1680081395.312853 -0.00994793 0.00383358 -0.00887717 0.00002341 0.00127078 0.00121219
1680081395.379531 -0.00994003 0.00389996 -0.00888198 0.00002411 0.00127752 0.00121465
1680081395.446210 -0.00993749 0.00396514 -0.00888045 0.00002417 0.00128463 0.00121704
