timestamp ba_x ba_y ba_z bg_x bg_y bg_z
1683613501.274250 0.00003190 0.00000096 0.00097680 -0.00001384 0.00034186 -0.00008811
1683613501.340949 0.00007841 -0.00000106 0.00087165 -0.00000618 0.00033773 -0.00008598
1683613501.407648 0.00005513 -0.00000706 0.00456804 -0.00005072 0.00015365 -0.00012031
1683613501.474347 0.00005158 -0.00000793 0.00473544 -0.00002880 0.00012992 -0.00010037
1683613501.541046 0.00004483 -0.00000772 0.00414668 -0.00005561 0.00015708 -0.00007342
1683613501.607745 0.00003646 -0.00000903 0.00404975 -0.00007352 0.00017792 -0.00006966
1683613501.674444 0.00003213 -0.00000981 0.00408495 -0.00007219 0.00013908 -0.00006574
1683613501.741143 0.00002829 -0.00000999 0.00385906 -0.00006963 0.00012212 -0.00005865
1683613501.807842 0.00002423 -0.00001019 0.00376390 -0.00004202 0.00011812 -0.00004393
1683613501.874542 0.00001512 -0.00000907 0.00358727 -0.00002413 0.00012293 -0.00003396
1683613501.941246 0.00000465 -0.00000796 0.00356300 0.00000042 0.00012532 -0.00003595
1683613502.007957 -0.00000584 -0.00000508 0.00330901 -0.00000787 0.00012321 -0.00002758
1683613502.074667 -0.00001685 -0.00000370 0.00338073 -0.00000786 0.00010785 -0.00000970
1683613502.141378 -0.00002678 -0.00000208 0.00351876 0.00001730 0.00005487 0.00000953
1683613502.208089 -0.00003180 -0.00000075 0.00340340 0.00002324 0.00000734 0.00002383
1683613502.274801 -0.00004207 0.00000444 0.00305024 -0.00001615 0.00003963 0.00002824
1683613502.341513 -0.00004781 0.00000457 0.00336556 -0.00002867 0.00003504 0.00002612
1683613502.408225 -0.00005659 0.00001040 0.00313354 -0.00000933 0.00001275 0.00003381
1683613502.474937 -0.00006188 0.00002095 0.00291314 -0.00003331 0.00005292 0.00004773
1683613502.541650 -0.00007129 0.00002072 0.00319639 -0.00005391 0.00006309 0.00004976
1683613502.608363 -0.00008164 0.00003377 0.00295602 -0.00005433 0.00005414 0.00005320
1683613502.675076 -0.00009000 0.00004801 0.00282795 -0.00008216 0.00006981 0.00006329
1683613502.741790 -0.00009828 0.00004846 0.00306135 -0.00009345 0.00007317 0.00007917
1683613502.808503 -0.00010172 0.00006994 0.00272299 -0.00009393 0.00007324 0.00008763
1683613502.875217 -0.00011019 0.00008763 0.00282843 -0.00009136 0.00004672 0.00008542
1683613502.941968 -0.00011938 0.00007725 0.00308236 -0.00003077 -0.00001915 0.00009412
1683613503.008758 -0.00007792 0.00018125 0.00208324 -0.00004775 0.00005581 0.00010364
1683613503.075552 -0.00009977 0.00017139 0.00306683 -0.00005398 0.00006879 0.00009803
1683613503.142349 -0.00010322 0.00020281 0.00257973 -0.00001748 0.00003921 0.00010274
1683613503.209150 -0.00008551 0.00024580 0.00252340 -0.00004959 0.00007318 0.00009328
1683613503.275954 -0.00010798 0.00025527 0.00279450 -0.00004510 0.00005898 0.00008526
1683613503.342762 -0.00009468 0.00028048 0.00264472 -0.00003672 0.00003824 0.00009125
1683613503.409574 -0.00008706 0.00031109 0.00263432 -0.00005084 0.00003350 0.00008969
1683613503.476389 -0.00007279 0.00036805 0.00243031 -0.00004683 0.00005421 0.00008541
1683613503.543207 -0.00006032 0.00038223 0.00272908 -0.00003586 0.00004871 0.00007478
1683613503.610029 -0.00006149 0.00041482 0.00260154 -0.00001390 0.00002855 0.00007248
1683613503.676856 0.00002955 0.00049633 0.00224216 -0.00002556 0.00007040 0.00007876
1683613503.743685 0.00001032 0.00050128 0.00275337 -0.00002663 0.00008043 0.00008148
1683613503.810518 0.00005042 0.00054399 0.00257758 -0.00000669 0.00004054 0.00008584
1683613503.877355 0.00009998 0.00057659 0.00249853 0.00000069 0.00004129 0.00008831
1683613503.944134 0.00012090 0.00060170 0.00247795 -0.00001439 0.00006092 0.00009241
1683613504.010857 0.00017583 0.00064915 0.00251304 -0.00002339 0.00005950 0.00009625
1683613504.077579 0.00018972 0.00067012 0.00252888 -0.00001716 0.00006282 0.00010183
1683613504.144302 0.00026941 0.00075773 0.00227501 -0.00002680 0.00007401 0.00011079
1683613504.211025 0.00031180 0.00079525 0.00264436 -0.00001883 0.00005026 0.00011657
1683613504.277748 0.00034600 0.00083029 0.00256164 -0.00000017 0.00002096 0.00012337
1683613504.344471 0.00042248 0.00089265 0.00234169 -0.00001101 0.00002995 0.00012348
1683613504.411194 0.00047738 0.00097727 0.00219991 -0.00002989 0.00006899 0.00012278
1683613504.477917 0.00049512 0.00104393 0.00251815 -0.00003925 0.00007383 0.00012762
1683613504.544640 0.00054536 0.00107056 0.00271616 -0.00001663 0.00002709 0.00013270
1683613504.611364 0.00060121 0.00114518 0.00223984 -0.00001145 0.00002191 0.00013501
1683613504.678087 0.00063369 0.00122005 0.00234768 -0.00001822 0.00003891 0.00012957
1683613504.744811 0.00072964 0.00130092 0.00236531 -0.00001435 0.00002885 0.00013381
1683613504.811534 0.00076580 0.00139149 0.00211807 -0.00002261 0.00004268 0.00014569
1683613504.878258 0.00082733 0.00150993 0.00209276 -0.00004052 0.00006731 0.00014380
1683613504.944976 0.00084679 0.00161587 0.00226113 -0.00003751 0.00006435 0.00014013
1683613505.011689 0.00090709 0.00170016 0.00233117 -0.00002646 0.00004027 0.00014743
1683613505.078402 0.00098717 0.00188703 0.00167137 -0.00005607 0.00008073 0.00015502
1683613505.145114 0.00094642 0.00199841 0.00245716 -0.00005312 0.00008271 0.00015545
1683613505.211826 0.00103922 0.00208883 0.00225353 -0.00003467 0.00004572 0.00015115
1683613505.278538 0.00100902 0.00217675 0.00221845 -0.00003153 0.00003902 0.00015744
1683613505.345251 0.00113311 0.00226969 0.00251468 -0.00000156 -0.00000395 0.00017015
1683613505.411963 0.00136944 0.00234241 0.00203191 0.00000836 -0.00001320 0.00017343
1683613505.478675 0.00138181 0.00240590 0.00224554 0.00000103 0.00000311 0.00017475
1683613505.545387 0.00153765 0.00248152 0.00211997 -0.00001093 0.00001104 0.00017071
1683613505.612099 0.00161450 0.00256264 0.00220903 -0.00001018 0.00001321 0.00017191
1683613505.678810 0.00173846 0.00263787 0.00216006 -0.00001162 0.00001273 0.00017392
1683613505.745522 0.00186883 0.00272796 0.00212500 -0.00002099 0.00001780 0.00017237
1683613505.812233 0.00192446 0.00281180 0.00229583 -0.00001805 0.00000771 0.00017466
1683613505.878945 0.00211144 0.00290414 0.00200468 -0.00002594 0.00001348 0.00017574
1683613505.945655 0.00217415 0.00301201 0.00214867 -0.00002453 0.00001965 0.00017914
1683613506.012362 0.00226285 0.00311571 0.00217013 -0.00002071 0.00001136 0.00018062
1683613506.079070 0.00241444 0.00323536 0.00205103 -0.00002679 0.00001289 0.00018060
1683613506.145777 0.00246307 0.00335748 0.00210949 -0.00002699 0.00001471 0.00018556
1683613506.212484 0.00259707 0.00348965 0.00203332 -0.00003341 0.00001937 0.00018647
1683613506.279191 0.00262665 0.00360692 0.00214630 -0.00004258 0.00002037 0.00018806
1683613506.345898 0.00267987 0.00371813 0.00213099 -0.00004127 0.00001472 0.00018915
1683613506.412605 0.00275312 0.00385701 0.00194866 -0.00004072 0.00002688 0.00018998
1683613506.479312 0.00280591 0.00397956 0.00218778 -0.00003302 0.00002778 0.00019249
1683613506.546018 0.00296668 0.00414374 0.00193013 -0.00002787 0.00003419 0.00019083
1683613506.612724 0.00301962 0.00428606 0.00216612 -0.00002582 0.00003967 0.00018825
1683613506.679430 0.00319375 0.00438055 0.00221029 -0.00002120 0.00003003 0.00018596
1683613506.746136 0.00326768 0.00440590 0.00232442 -0.00001437 0.00001074 0.00018536
1683613506.812842 -0.00170432 -0.00765240 0.01184994 -0.00000499 -0.00068032 0.00012650
1683613506.879547 0.00687784 -0.00654340 -0.00444852 0.00002532 -0.00070728 0.00016197
1683613506.946255 0.00759954 -0.00561159 0.00043581 -0.00003423 0.00000063 0.00020534
1683613507.012966 0.00745856 -0.00543428 0.00283422 -0.00005720 0.00006176 0.00018941
1683613507.079676 0.00755689 -0.00519689 0.00180339 -0.00003971 0.00005236 0.00018818
1683613507.146386 0.00765973 -0.00498104 0.00250437 -0.00003969 0.00004139 0.00019015
1683613507.213096 0.00796848 -0.00518006 0.00284140 0.00002272 -0.00004537 0.00019724
1683613507.279805 0.00843135 -0.00499720 0.00151897 0.00001452 -0.00001286 0.00019840
1683613507.346515 0.00887412 -0.00503150 0.00256358 -0.00000102 0.00000722 0.00020092
1683613507.413225 0.00914599 -0.00554492 0.00290683 0.00002062 -0.00005666 0.00020608
1683613507.479934 0.00941680 -0.00688897 0.00390987 0.00004392 -0.00021523 0.00020462
1683613507.546644 0.01034793 -0.00762188 0.00141910 0.00003943 -0.00019972 0.00020313
1683613507.613353 0.01086436 -0.00825447 0.00253253 0.00002510 -0.00012759 0.00020174
1683613507.680062 0.01128049 -0.00851383 0.00190035 0.00001588 -0.00007707 0.00020290
1683613507.746772 0.01155515 -0.00836631 0.00186015 -0.00001406 -0.00000546 0.00020382
1683613507.813480 0.01177688 -0.00845054 0.00254096 0.00000234 -0.00000756 0.00020549
1683613507.880189 0.01212330 -0.00856184 0.00228375 0.00001636 -0.00002190 0.00020783
1683613507.946902 0.01241798 -0.00861327 0.00221764 0.00000866 -0.00001326 0.00021166
1683613508.013618 0.01262383 -0.00867939 0.00231492 0.00000893 -0.00000955 0.00021706
1683613508.080334 0.01290386 -0.00874967 0.00235254 0.00000665 -0.00001317 0.00021651
1683613508.147051 0.01314321 -0.00880263 0.00213485 -0.00000624 0.00000122 0.00021790
1683613508.213767 0.01335635 -0.00890631 0.00251827 -0.00000551 -0.00000422 0.00022041
1683613508.280483 0.01361751 -0.00901841 0.00227758 -0.00000330 -0.00001034 0.00022288
1683613508.347200 0.01373508 -0.00916652 0.00234381 -0.00000859 -0.00000087 0.00022811
1683613508.413916 0.01392138 -0.00912783 0.00223431 -0.00001480 0.00000492 0.00023004
1683613508.480633 0.01401436 -0.00917149 0.00236129 -0.00001403 0.00000329 0.00023099
1683613508.547349 0.01410334 -0.00924023 0.00233603 -0.00001109 0.00000005 0.00023262
1683613508.614065 0.01426414 -0.00934788 0.00239879 -0.00001128 -0.00000619 0.00023122
1683613508.680782 0.01499298 -0.00987254 0.00266934 0.00001399 -0.00003538 0.00024880
1683613508.747498 0.01507158 -0.01011274 0.00223139 0.00001872 -0.00003821 0.00023743
1683613508.814215 0.01526700 -0.01027974 0.00224800 -0.00000483 -0.00001269 0.00021739
1683613508.880931 0.01544289 -0.01032790 0.00221777 -0.00001369 0.00000703 0.00022882
1683613508.947649 0.01624316 -0.01115714 0.00323875 0.00002140 -0.00005193 0.00024726
1683613509.014369 0.01704456 -0.01203000 0.00209685 0.00003744 -0.00006794 0.00026232
1683613509.081089 0.01722688 -0.01303412 0.00302706 0.00003077 -0.00008226 0.00023931
1683613509.147809 0.01725672 -0.01855486 0.00353916 0.00001041 -0.00017535 0.00022391
1683613509.214528 0.00501951 -0.03717047 0.00818988 0.00001705 -0.00060724 0.00009387
1683613509.281248 -0.00663742 -0.07251645 0.00743583 -0.00001705 -0.00110379 -0.00004196
1683613509.347968 -0.01718076 -0.12155488 0.00715148 -0.00005625 -0.00139577 0.00005668
1683613509.414688 -0.03554862 -0.16774978 0.00324931 -0.00009882 -0.00127057 0.00019036
1683613509.481408 -0.02209433 -0.16943957 -0.00067166 -0.00019686 -0.00076333 0.00009211
1683613509.548128 0.19393941 -0.13777450 0.00096333 -0.00025210 -0.00035750 0.00005562
1683613509.614849 0.49949335 -0.17056078 0.01036088 -0.00017176 -0.00025239 0.00012323
1683613509.681569 0.75059234 -0.23899950 0.02716280 -0.00015480 -0.00009959 0.00009456
1683613509.748289 0.94014420 -0.33903576 0.04693042 -0.00012388 0.00053054 0.00008715
1683613509.815010 0.87788173 -0.30773603 0.04220908 -0.00021220 0.00065304 0.00017593
1683613509.881730 0.59204904 -0.17221570 0.01953239 -0.00025741 0.00055511 0.00013182
1683613509.948447 0.50825407 -0.16575662 0.01409005 -0.00013762 0.00061713 -0.00001100
1683613510.015162 0.50070797 -0.11101597 0.01296155 -0.00016406 0.00073733 0.00000202
1683613510.081876 0.51797866 -0.05386434 0.01354265 -0.00020105 0.00072674 0.00010392
1683613510.148591 0.56704543 0.21956366 0.02012155 -0.00028449 0.00069619 -0.00000895
1683613510.215305 0.59989096 0.31419087 0.02529177 -0.00022902 0.00054099 -0.00013304
1683613510.282019 0.70206698 0.47860347 0.04029362 -0.00027420 0.00041913 -0.00015011
1683613510.348734 0.67313313 0.51323253 0.03953481 -0.00022669 0.00042832 -0.00021117
1683613510.415448 0.58543224 0.53001393 0.03422817 -0.00019703 0.00046592 -0.00021022
1683613510.482162 0.48433136 0.55938617 0.02954124 -0.00021216 0.00042050 -0.00024321
1683613510.548877 0.40333497 0.53994735 0.02339486 -0.00020904 0.00043834 -0.00026742
1683613510.615591 0.29021954 0.54635369 0.01703117 -0.00014684 0.00042477 -0.00036300
1683613510.682305 0.26562042 0.54070794 0.01511525 -0.00021833 0.00040836 -0.00032698
1683613510.749020 0.31323289 0.55382603 0.01894407 -0.00021454 0.00029324 -0.00034341
1683613510.815734 0.44839409 0.59492687 0.02967041 -0.00003195 0.00017638 -0.00043635
1683613510.882448 0.46769946 0.59749877 0.03094792 0.00010586 0.00014440 -0.00044797
1683613510.949160 0.30290682 0.50552878 0.01563323 0.00015909 0.00017724 -0.00035995
1683613511.015868 0.21696514 0.48467214 0.00929507 0.00011512 0.00017750 -0.00038426
1683613511.082575 0.24324213 0.50599126 0.01213568 0.00009478 0.00009004 -0.00047215
1683613511.149283 0.19822314 0.49600495 0.00882625 0.00007665 0.00007521 -0.00046648
1683613511.215991 0.02744822 0.46820406 -0.00322646 0.00008468 0.00008466 -0.00047675
1683613511.282699 -0.04297369 0.46977990 -0.00716295 0.00000564 0.00013067 -0.00052338
1683613511.349407 -0.01685428 0.48139452 -0.00492592 0.00008551 0.00009205 -0.00062350
1683613511.416115 0.04761863 0.50559279 -0.00000661 0.00013787 0.00012345 -0.00063278
1683613511.482823 -0.02061206 0.48857492 -0.00488743 0.00004147 0.00014069 -0.00054852
1683613511.549531 -0.01919459 0.48828845 -0.00485041 0.00001148 0.00014329 -0.00054095
1683613511.616238 -0.03041377 0.44265571 -0.00802313 -0.00000904 0.00021793 -0.00053339
1683613511.682946 -0.08873824 0.42120997 -0.01250977 -0.00003661 0.00022917 -0.00053632
1683613511.749654 -0.00724183 0.42931816 -0.00747241 0.00008714 0.00016682 -0.00058203
1683613511.816361 0.08781205 0.42233661 -0.00263552 0.00026763 0.00016503 -0.00059332
1683613511.883069 0.09185764 0.41803519 -0.00269233 0.00020491 0.00014031 -0.00056528
1683613511.949779 0.14431362 0.42233284 0.00048780 0.00021258 0.00010376 -0.00064042
1683613512.016490 0.22423991 0.36328541 0.00174746 0.00022614 0.00003599 -0.00065443
1683613512.083201 0.24981947 0.31320074 0.00043718 0.00025520 -0.00002467 -0.00057822
1683613512.149913 0.30141403 0.25944411 0.00044840 0.00035840 -0.00009139 -0.00060569
1683613512.216624 0.29026177 0.24047281 -0.00124208 0.00046554 -0.00006412 -0.00055701
1683613512.283335 0.30018255 0.20407813 -0.00263697 0.00053348 -0.00012513 -0.00057334
1683613512.350046 0.28241649 0.19372622 -0.00419377 0.00045252 -0.00015798 -0.00054952
1683613512.416758 0.29003056 0.13644980 -0.00696038 0.00046360 -0.00036787 -0.00049973
1683613512.483469 0.28095797 0.13862204 -0.00731925 0.00038979 -0.00034398 -0.00047016
1683613512.550179 0.28614938 0.12173477 -0.00801672 0.00044517 -0.00040121 -0.00044964
1683613512.616890 0.26936860 0.12095357 -0.00904784 0.00043811 -0.00042939 -0.00041732
1683613512.683601 0.24366199 0.08902921 -0.01235311 0.00047972 -0.00062677 -0.00037405
1683613512.750312 0.21866514 0.11784503 -0.01228544 0.00050328 -0.00057849 -0.00038573
1683613512.817023 0.17745506 0.12511170 -0.01431281 0.00048567 -0.00065464 -0.00029787
1683613512.883734 0.16699974 0.14315167 -0.01400538 0.00037158 -0.00061940 -0.00031296
1683613512.950446 0.21884876 0.08360457 -0.01422890 0.00030852 -0.00069016 -0.00027918
1683613513.017159 0.22913172 0.03350200 -0.01627465 0.00019377 -0.00074954 -0.00019408
1683613513.083873 0.20271937 0.06208142 -0.01632615 0.00018887 -0.00066192 -0.00019802
1683613513.150586 0.19786243 0.04658459 -0.01745234 0.00016547 -0.00068372 -0.00009342
1683613513.217299 0.21613344 0.02571506 -0.01768267 0.00016498 -0.00066911 -0.00002917
1683613513.284013 0.21913093 0.00314011 -0.01876364 0.00013310 -0.00069216 0.00008356
1683613513.350726 0.19927205 0.01668832 -0.01945861 0.00012335 -0.00063307 0.00013161
1683613513.417439 0.17527855 0.02758687 -0.02034306 0.00013756 -0.00060757 0.00020374
1683613513.484153 0.17155217 0.03384277 -0.02016383 0.00020918 -0.00062168 0.00014739
1683613513.550866 0.14891265 0.04498786 -0.02102864 0.00023228 -0.00060525 0.00018924
1683613513.617580 0.14554041 0.04497077 -0.02137750 0.00013770 -0.00051580 0.00029567
1683613513.684293 0.14970325 0.04034161 -0.02133927 0.00016477 -0.00049082 0.00031010
1683613513.751006 0.14870930 0.03995840 -0.02134304 0.00017855 -0.00045219 0.00035822
1683613513.817720 0.15451042 0.03620615 -0.02112213 0.00016245 -0.00040828 0.00046438
1683613513.884433 0.15282723 0.03446331 -0.02147523 0.00018877 -0.00034502 0.00047321
1683613513.951146 0.15404166 0.03778006 -0.02107010 0.00018093 -0.00034883 0.00053733
1683613514.017859 0.15389131 0.04478222 -0.02035766 0.00017735 -0.00044218 0.00053423
1683613514.084572 0.15779516 0.03897923 -0.02036601 0.00018105 -0.00042464 0.00046655
1683613514.151285 0.15420333 0.03591757 -0.02117170 0.00014340 -0.00027979 0.00046987
1683613514.217998 0.15503018 0.03320817 -0.02107932 0.00009262 -0.00025688 0.00047744
1683613514.284711 0.15447194 0.03939801 -0.02067938 0.00013165 -0.00033490 0.00051687
1683613514.351424 0.15571843 0.04050419 -0.02034929 0.00014958 -0.00040055 0.00051162
1683613514.418137 0.15660675 0.03837859 -0.02058370 0.00013305 -0.00036993 0.00046009
1683613514.484850 0.15569344 0.04418779 -0.01992538 0.00010812 -0.00044266 0.00043365
1683613514.551563 0.15115245 0.04441937 -0.02063793 0.00009631 -0.00040402 0.00049266
1683613514.618275 0.14984092 0.04932830 -0.02060952 0.00012170 -0.00022456 0.00050150
1683613514.684988 0.14908042 0.05241661 -0.02032729 0.00008920 -0.00021541 0.00047959
1683613514.751701 0.14662639 0.05941396 -0.01970208 0.00006766 -0.00029711 0.00053568
1683613514.818413 0.14798816 0.05603002 -0.02013258 0.00007120 -0.00022993 0.00056553
1683613514.885126 0.14707740 0.05972977 -0.01979600 0.00006275 -0.00017823 0.00054482
1683613514.951839 0.14596320 0.06556833 -0.01923827 0.00006177 -0.00023260 0.00052445
1683613515.018551 0.14648674 0.06133647 -0.01934013 0.00009902 -0.00022313 0.00054105
1683613515.085264 0.14809692 0.05835315 -0.01923055 0.00005123 -0.00021750 0.00056048
1683613515.151977 0.15018538 0.05396835 -0.01912075 -0.00000945 -0.00025152 0.00057632
1683613515.218689 0.15295272 0.04747846 -0.01931949 0.00001818 -0.00022756 0.00057521
1683613515.285402 0.15503282 0.04195694 -0.01966851 0.00006931 -0.00014397 0.00054925
1683613515.352115 0.15411747 0.04292345 -0.01938359 0.00006297 -0.00012932 0.00057588
1683613515.418827 0.15528458 0.04020475 -0.01940146 0.00004581 -0.00013007 0.00061001
1683613515.485540 0.15568793 0.03976569 -0.01908871 0.00003349 -0.00016906 0.00057920
1683613515.552252 0.15217961 0.04784946 -0.01830360 0.00001081 -0.00033269 0.00055610
1683613515.618965 0.15608346 0.03908513 -0.01873509 0.00001237 -0.00036503 0.00058994
1683613515.685677 0.16940718 0.00506384 -0.02052151 0.00000706 -0.00010519 0.00059913
1683613515.752390 0.16475628 0.01446249 -0.01987971 -0.00000821 -0.00003739 0.00066121
1683613515.819102 0.15765468 0.03095233 -0.01860836 -0.00001453 -0.00021461 0.00066326
1683613515.885814 0.16532196 0.01407080 -0.01954457 -0.00000335 -0.00018066 0.00063292
1683613515.952528 0.16441784 0.01483363 -0.01937424 0.00002658 -0.00010535 0.00062187
1683613516.019244 0.16314621 0.01699103 -0.01925254 0.00004862 -0.00010876 0.00062964
1683613516.085960 0.16250108 0.01837069 -0.01910490 0.00004155 -0.00011645 0.00062076
1683613516.152675 0.16141116 0.02035449 -0.01895595 0.00004041 -0.00012744 0.00062818
1683613516.219391 0.16031310 0.02229885 -0.01881203 0.00005637 -0.00013942 0.00065585
1683613516.286107 0.16055111 0.02155896 -0.01877422 0.00006480 -0.00014057 0.00065734
1683613516.352823 0.15972134 0.02301596 -0.01866060 0.00006183 -0.00013556 0.00066759
1683613516.419538 0.15926320 0.02386726 -0.01855666 0.00006463 -0.00013796 0.00068213
1683613516.486254 0.15830437 0.02575474 -0.01841762 0.00007289 -0.00014687 0.00068666
1683613516.552970 0.15635008 0.02988700 -0.01820490 0.00009124 -0.00016840 0.00069606
1683613516.619686 0.15903347 0.02393045 -0.01843677 0.00007491 -0.00014298 0.00069387
1683613516.686402 0.15867089 0.02432068 -0.01824378 0.00004930 -0.00011955 0.00069032
1683613516.753118 0.15894371 0.02354162 -0.01823923 0.00004475 -0.00011593 0.00069610
1683613516.819834 0.15791313 0.02546485 -0.01808265 0.00004589 -0.00011717 0.00070896
1683613516.886550 0.15874895 0.02342555 -0.01811346 0.00004875 -0.00011099 0.00071622
1683613516.953264 0.15568625 0.03012345 -0.01774568 0.00006765 -0.00013620 0.00071881
1683613517.019975 0.15452984 0.03275933 -0.01768971 0.00009660 -0.00016522 0.00072435
1683613517.086687 0.15846709 0.02382936 -0.01803243 0.00006250 -0.00011805 0.00073088
1683613517.153398 0.15590537 0.02875170 -0.01759320 0.00004418 -0.00010751 0.00073380
1683613517.220109 0.15517379 0.03055371 -0.01755339 0.00006338 -0.00012909 0.00073575
1683613517.286820 0.15551233 0.02951235 -0.01755685 0.00005972 -0.00012056 0.00073813
1683613517.353531 0.15479135 0.03069628 -0.01741078 0.00005691 -0.00011547 0.00074097
1683613517.420242 0.15357051 0.03328034 -0.01726024 0.00006266 -0.00012365 0.00074410
1683613517.486953 0.15368539 0.03289513 -0.01725318 0.00006339 -0.00012128 0.00074709
1683613517.553663 0.15327359 0.03348665 -0.01714838 0.00005881 -0.00011481 0.00074824
1683613517.620374 0.15233904 0.03530243 -0.01701457 0.00006242 -0.00011834 0.00075115
1683613517.687085 0.15205510 0.03580885 -0.01696865 0.00006380 -0.00011779 0.00075658
1683613517.753795 0.15156169 0.03667144 -0.01687046 0.00006205 -0.00011583 0.00075898
1683613517.820506 0.15087718 0.03802705 -0.01675642 0.00006705 -0.00012163 0.00075884
1683613517.887216 0.15105395 0.03752296 -0.01675250 0.00006456 -0.00011771 0.00076255
1683613517.953928 0.15050456 0.03838314 -0.01663945 0.00006151 -0.00011393 0.00076738
1683613518.020643 0.14974996 0.03991757 -0.01653257 0.00006533 -0.00011795 0.00076927
1683613518.087358 0.14959837 0.04016179 -0.01649548 0.00006642 -0.00011661 0.00077313
1683613518.154072 0.14856523 0.04221647 -0.01633892 0.00006757 -0.00012006 0.00077573
1683613518.220787 0.14830935 0.04280276 -0.01630521 0.00006960 -0.00012255 0.00077790
1683613518.287501 0.14904363 0.04096004 -0.01634946 0.00005981 -0.00010772 0.00078070
1683613518.354216 0.14685843 0.04533308 -0.01602083 0.00006335 -0.00011747 0.00078166
1683613518.420930 0.14679213 0.04588216 -0.01605647 0.00007181 -0.00012618 0.00078349
1683613518.487645 0.14734140 0.04437970 -0.01608018 0.00006300 -0.00011254 0.00078735
1683613518.554359 0.14612926 0.04662143 -0.01586915 0.00006262 -0.00011291 0.00079117
1683613518.621074 0.14550548 0.04809675 -0.01580766 0.00006965 -0.00011984 0.00079203
1683613518.687788 0.14557833 0.04782476 -0.01579703 0.00006831 -0.00011582 0.00079358
1683613518.754503 0.14497666 0.04885913 -0.01567667 0.00006586 -0.00011382 0.00079712
1683613518.821217 0.14448621 0.04989566 -0.01560323 0.00006706 -0.00011530 0.00079883
1683613518.887931 0.14405678 0.05074754 -0.01552935 0.00006860 -0.00011601 0.00079999
1683613518.954647 0.14385934 0.05106057 -0.01548364 0.00006678 -0.00011345 0.00080128
1683613519.021363 0.14323060 0.05225986 -0.01536962 0.00006536 -0.00011309 0.00080401
1683613519.088080 0.14286092 0.05303739 -0.01530782 0.00006596 -0.00011421 0.00080736
1683613519.154797 0.14255450 0.05361335 -0.01524574 0.00006429 -0.00011360 0.00081008
1683613519.221514 0.14212118 0.05442783 -0.01517076 0.00006552 -0.00011327 0.00081203
1683613519.288231 0.14142861 0.05578854 -0.01507262 0.00006705 -0.00011321 0.00081575
1683613519.354948 0.14021363 0.05839739 -0.01489629 0.00007157 -0.00012158 0.00082002
1683613519.421665 0.14103765 0.05679296 -0.01500648 0.00006844 -0.00011632 0.00082231
1683613519.488382 0.14150268 0.05528431 -0.01498488 0.00005709 -0.00009994 0.00082502
1683613519.555099 0.13930694 0.05966273 -0.01466311 0.00006347 -0.00010925 0.00082674
1683613519.621816 0.13914640 0.06048782 -0.01470961 0.00007246 -0.00011773 0.00082937
1683613519.688534 0.13982698 0.05882153 -0.01474778 0.00006311 -0.00010528 0.00083350
1683613519.755251 0.13903699 0.06009442 -0.01458299 0.00005939 -0.00010116 0.00083584
1683613519.821968 0.13771837 0.06295278 -0.01441535 0.00006817 -0.00011101 0.00083650
1683613519.888685 0.13813439 0.06227723 -0.01448228 0.00006675 -0.00010934 0.00083961
1683613519.955405 0.13820680 0.06175928 -0.01443951 0.00006027 -0.00009957 0.00084407
1683613520.022126 0.13704512 0.06398606 -0.01425794 0.00006438 -0.00010209 0.00084642
1683613520.088847 0.13652135 0.06528198 -0.01420432 0.00006882 -0.00010721 0.00084825
1683613520.155568 0.13668527 0.06486493 -0.01420939 0.00006546 -0.00010167 0.00085121
1683613520.222289 0.13611163 0.06580874 -0.01408468 0.00006243 -0.00009857 0.00085462
1683613520.289011 0.13576545 0.06657248 -0.01402773 0.00006193 -0.00009905 0.00085777
1683613520.355732 0.13551838 0.06706403 -0.01397273 0.00006169 -0.00009827 0.00085972
1683613520.422454 0.13509554 0.06788820 -0.01390269 0.00006252 -0.00009783 0.00086195
1683613520.489175 0.13430722 0.06955690 -0.01377194 0.00006207 -0.00010125 0.00086468
1683613520.555897 0.13618540 0.06563671 -0.01399497 0.00004577 -0.00008250 0.00086914
1683613520.622619 0.13336980 0.07079212 -0.01350346 0.00005300 -0.00009039 0.00087117
1683613520.689341 0.13236044 0.07370044 -0.01349307 0.00007379 -0.00011132 0.00087003
1683613520.756063 0.13516074 0.06786495 -0.01385587 0.00005327 -0.00008454 0.00087097
1683613520.822786 0.13144521 0.07458523 -0.01319070 0.00005352 -0.00009188 0.00087293
1683613520.889508 0.13085242 0.07687824 -0.01328622 0.00008042 -0.00011533 0.00087472
1683613520.956227 0.13247565 0.07348894 -0.01349110 0.00007035 -0.00009930 0.00087654
1683613521.022942 0.13223467 0.07322412 -0.01332606 0.00005808 -0.00008581 0.00087719
1683613521.089657 0.13133447 0.07501701 -0.01319962 0.00006155 -0.00008939 0.00087835
1683613521.156371 0.13015826 0.07770904 -0.01305873 0.00007047 -0.00009925 0.00088087
1683613521.223086 0.12996800 0.07835313 -0.01304942 0.00007270 -0.00010283 0.00088262
1683613521.289801 0.13053443 0.07712911 -0.01310180 0.00006625 -0.00009438 0.00088422
1683613521.356515 0.13044936 0.07684052 -0.01302538 0.00006063 -0.00008553 0.00088654
1683613521.423230 0.12953437 0.07856999 -0.01287961 0.00006395 -0.00008794 0.00088833
1683613521.489945 0.12846397 0.08107167 -0.01276028 0.00007387 -0.00009784 0.00088972
1683613521.556660 0.12830957 0.08158097 -0.01275693 0.00007561 -0.00009927 0.00089052
1683613521.623374 0.12848649 0.08110861 -0.01275339 0.00007130 -0.00009271 0.00089184
1683613521.690089 0.12805586 0.08177653 -0.01264997 0.00006874 -0.00008968 0.00089426
1683613521.756804 0.12756657 0.08278706 -0.01256573 0.00006994 -0.00009144 0.00089593
1683613521.823519 0.12731868 0.08344889 -0.01252441 0.00007091 -0.00009368 0.00089681
1683613521.890234 0.12719271 0.08366487 -0.01249141 0.00006885 -0.00009120 0.00089846
1683613521.956948 0.12656249 0.08483575 -0.01237988 0.00007111 -0.00009146 0.00090028
1683613522.023660 0.12635980 0.08534202 -0.01235750 0.00007286 -0.00009139 0.00090192
1683613522.090373 0.12627991 0.08542205 -0.01232664 0.00007084 -0.00008805 0.00090173
1683613522.157086 0.12557911 0.08675967 -0.01219486 0.00007169 -0.00008955 0.00090187
1683613522.223799 0.12539033 0.08731341 -0.01217526 0.00007260 -0.00009110 0.00090390
1683613522.290511 0.12519522 0.08771028 -0.01212998 0.00007159 -0.00008987 0.00090568
1683613522.357224 0.12492519 0.08818917 -0.01206678 0.00006981 -0.00008816 0.00090730
1683613522.423937 0.12477128 0.08845457 -0.01202420 0.00006857 -0.00008660 0.00090825
1683613522.490649 0.12446804 0.08909306 -0.01196904 0.00006894 -0.00008639 0.00091016
1683613522.557362 0.12416068 0.08964103 -0.01190320 0.00006897 -0.00008548 0.00091274
1683613522.624074 0.12395263 0.09012132 -0.01186038 0.00006804 -0.00008562 0.00091398
1683613522.690787 0.12348785 0.09100955 -0.01178030 0.00007044 -0.00008602 0.00091496
1683613522.757499 0.12330559 0.09145119 -0.01175700 0.00007038 -0.00008542 0.00091677
1683613522.824211 0.12312292 0.09170463 -0.01169915 0.00006834 -0.00008280 0.00091974
1683613522.890924 0.12282948 0.09226471 -0.01164256 0.00006919 -0.00008229 0.00092145
1683613522.957637 0.12246820 0.09306828 -0.01158353 0.00006984 -0.00008332 0.00092152
1683613523.024350 0.12222827 0.09353998 -0.01153109 0.00006917 -0.00008297 0.00092287
1683613523.091063 0.12215754 0.09372408 -0.01149378 0.00006741 -0.00008262 0.00092615
1683613523.157777 0.12208627 0.09386207 -0.01146924 0.00006538 -0.00008072 0.00092872
1683613523.224490 0.12179403 0.09437665 -0.01140930 0.00006622 -0.00007935 0.00093028
1683613523.291203 0.12170885 0.09452979 -0.01137369 0.00006579 -0.00007885 0.00093180
1683613523.357917 0.12121917 0.09557114 -0.01129961 0.00006613 -0.00008009 0.00093340
1683613523.424630 0.12088831 0.09629933 -0.01126547 0.00006702 -0.00007996 0.00093577
1683613523.491343 0.12060539 0.09678053 -0.01120302 0.00006717 -0.00007872 0.00093704
1683613523.558056 0.12033314 0.09738019 -0.01115372 0.00006691 -0.00007872 0.00093796
1683613523.624769 0.12011809 0.09780394 -0.01111306 0.00006668 -0.00007788 0.00094021
1683613523.691482 0.11983481 0.09832140 -0.01104613 0.00006634 -0.00007764 0.00094297
1683613523.758195 0.11978574 0.09849505 -0.01103983 0.00006631 -0.00007666 0.00094427
1683613523.824908 0.11949534 0.09893907 -0.01097827 0.00006678 -0.00007467 0.00094522
1683613523.891621 0.11920617 0.09957840 -0.01092009 0.00006617 -0.00007560 0.00094722
1683613523.958335 0.11829566 0.10142237 -0.01074959 0.00006859 -0.00008110 0.00095025
1683613524.025051 0.12029498 0.09771120 -0.01112147 0.00005927 -0.00006623 0.00095169
1683613524.091767 0.11682981 0.10393654 -0.01042454 0.00006408 -0.00007900 0.00095215
1683613524.158483 0.11832101 0.10209131 -0.01081290 0.00007206 -0.00008557 0.00095498
1683613524.225199 0.12007956 0.09796498 -0.01100947 0.00005004 -0.00005706 0.00095813
1683613524.291915 0.11631930 0.10478148 -0.01026276 0.00005828 -0.00007348 0.00095986
1683613524.358631 0.11748705 0.10383685 -0.01063554 0.00007029 -0.00008693 0.00096122
1683613524.425347 0.11895930 0.10045623 -0.01082129 0.00005246 -0.00006252 0.00096286
1683613524.492063 0.11710530 0.10331492 -0.01039313 0.00004986 -0.00006128 0.00096636
1683613524.558779 0.11654391 0.10496523 -0.01035862 0.00006063 -0.00007475 0.00096843
1683613524.625495 0.11701308 0.10424595 -0.01045603 0.00006198 -0.00007349 0.00096959
1683613524.692211 0.11710076 0.10387863 -0.01043372 0.00005335 -0.00006555 0.00097123
1683613524.758927 0.11691886 0.10404048 -0.01036976 0.00005068 -0.00006169 0.00097263
1683613524.825643 0.11689397 0.10403338 -0.01034270 0.00005139 -0.00005943 0.00097500
1683613524.892359 0.11665671 0.10441675 -0.01027584 0.00005129 -0.00005921 0.00097460
1683613524.959076 0.11588485 0.10603331 -0.01015438 0.00005767 -0.00006504 0.00097472
1683613525.025795 0.11586341 0.10635165 -0.01019842 0.00005960 -0.00006672 0.00097644
1683613525.092513 0.11581093 0.10627805 -0.01016332 0.00005710 -0.00006219 0.00097829
1683613525.159231 0.11535008 0.10710044 -0.01004965 0.00005861 -0.00006333 0.00098008
1683613525.225949 0.11548034 0.10703532 -0.01008761 0.00005795 -0.00006309 0.00098100
1683613525.292668 0.11531010 0.10721349 -0.01003046 0.00005635 -0.00006024 0.00098331
1683613525.359386 0.11498033 0.10787955 -0.00996408 0.00005647 -0.00006099 0.00098590
1683613525.426105 0.11469729 0.10852774 -0.00991208 0.00005562 -0.00006245 0.00098770
1683613525.492824 0.11466272 0.10862020 -0.00990677 0.00005697 -0.00006177 0.00098911
1683613525.559542 0.11466273 0.10862012 -0.00990675 -0.00105943 0.00082688 0.00135421
1683613525.626261 0.11466273 0.10862012 -0.00990675 -0.00015175 0.00029129 0.00238541
1683613525.692980 0.11466273 0.10862013 -0.00990675 0.00082910 -0.00089033 0.00110166
1683613525.759699 0.11466273 0.10862013 -0.00990675 -0.00012102 0.00000873 0.00107023
1683613525.826418 0.11466273 0.10862015 -0.00990675 0.00094393 -0.00030340 0.00172883
1683613525.893137 0.11466273 0.10862015 -0.00990675 0.00027938 0.00040469 0.00194243
1683613525.959856 0.11466273 0.10862015 -0.00990675 0.00071068 -0.00073726 0.00130258
1683613526.026574 0.11466273 0.10862014 -0.00990675 -0.00059937 0.00082243 0.00170135
1683613526.093292 0.11466273 0.10862015 -0.00990675 -0.00085100 0.00145323 0.00102321
1683613526.160011 0.11466273 0.10862014 -0.00990675 0.00021865 -0.00203352 0.00207628
1683613526.226729 0.11466272 0.10862014 -0.00990675 -0.00013359 -0.00027527 0.00130353
1683613526.293447 0.11466272 0.10862013 -0.00990675 -0.00053690 0.00035253 0.00119710
1683613526.360166 0.11466272 0.10862013 -0.00990675 0.00011056 -0.00017841 0.00112381
1683613526.426884 0.11466272 0.10862013 -0.00990675 -0.00095816 0.00079193 0.00110901
1683613526.493603 0.11466272 0.10862013 -0.00990675 -0.00008819 -0.00020564 0.00168179
1683613526.560322 0.11466272 0.10862012 -0.00990675 0.00012157 0.00019902 0.00186196
1683613526.627041 0.11466272 0.10862012 -0.00990675 0.00091240 -0.00104432 0.00124049
1683613526.693759 0.11466272 0.10862013 -0.00990675 0.00006852 -0.00007209 0.00136972
1683613526.760478 0.11466272 0.10862012 -0.00990675 -0.00118258 0.00115618 0.00189107
1683613526.827197 0.11466272 0.10862013 -0.00990675 0.00004491 -0.00058683 0.00127213
1683613526.893916 0.11466271 0.10862014 -0.00990675 -0.00012626 -0.00020192 0.00151759
1683613526.960633 0.11466271 0.10862014 -0.00990675 -0.00026896 0.00039149 0.00150061
1683613527.027349 0.11466271 0.10862014 -0.00990675 -0.00044938 0.00049575 0.00133272
1683613527.094065 0.11466271 0.10862015 -0.00990675 0.00039536 -0.00115541 0.00165719
1683613527.160781 0.11466271 0.10862015 -0.00990675 0.00107141 -0.00007198 0.00092496
1683613527.227497 0.11466271 0.10862015 -0.00990675 -0.00031078 0.00075971 0.00141988
1683613527.294213 0.11466271 0.10862015 -0.00990675 0.00031317 -0.00046084 0.00191425
1683613527.360929 0.11466271 0.10862014 -0.00990675 -0.00013046 0.00062979 0.00149682
1683613527.427644 0.11466271 0.10862015 -0.00990675 0.00060703 -0.00152970 0.00163193
1683613527.494360 0.11466271 0.10862015 -0.00990675 0.00670212 -0.01089271 0.00104482
1683613527.561076 0.11466271 0.10862014 -0.00990675 -0.02059530 0.02623433 -0.00042914
1683613527.627792 0.11466273 0.10862017 -0.00990675 0.01425932 -0.01435322 0.00292008
1683613527.694508 0.11466273 0.10862017 -0.00990675 0.01242062 -0.01254697 0.00186540
1683613527.761224 0.11466272 0.10862016 -0.00990675 -0.02513855 0.02702772 0.00380266
1683613527.827940 0.11466275 0.10862020 -0.00990676 0.03103827 -0.03184223 0.00130945
1683613527.894655 0.11466274 0.10862019 -0.00990676 -0.02064510 0.02230607 -0.00090456
1683613527.961372 0.11466274 0.10862019 -0.00990676 0.00001914 -0.00082592 0.00093434
1683613528.028089 0.11466274 0.10862020 -0.00990676 0.00631690 -0.00713391 0.00246312
1683613528.094805 0.11466274 0.10862020 -0.00990676 -0.00058992 0.00049979 0.00041628
1683613528.161522 0.11466274 0.10862020 -0.00990676 0.00074698 -0.00078069 0.00161593
1683613528.228239 0.11466274 0.10862020 -0.00990676 -0.00339019 0.00417992 0.00171976
1683613528.294956 0.11466274 0.10862020 -0.00990676 -0.00181431 0.00230272 0.00082814
1683613528.361673 0.11466274 0.10862020 -0.00990676 0.00478000 -0.00501901 0.00106517
1683613528.428390 0.11466274 0.10862020 -0.00990676 0.00057094 0.00015994 0.00097415
1683613528.495106 0.11466274 0.10862020 -0.00990676 -0.00006247 0.00010215 0.00197391
1683613528.561823 0.11466274 0.10862020 -0.00990676 -0.00111238 0.00089757 0.00138253
1683613528.628540 0.11466273 0.10862020 -0.00990676 -0.00117129 0.00067212 0.00107323
1683613528.695257 0.11466273 0.10862021 -0.00990676 0.00084369 -0.00126752 0.00140958
1683613528.761974 0.11466273 0.10862021 -0.00990676 -0.00142127 0.00100565 0.00167017
1683613528.828691 0.11466273 0.10862020 -0.00990676 0.00090748 -0.00109897 0.00139701
1683613528.895408 0.11466273 0.10862021 -0.00990676 0.00032278 0.00009609 0.00118495
1683613528.962125 0.11466273 0.10862021 -0.00990676 -0.00056275 0.00135547 0.00078959
1683613529.028842 0.11466273 0.10862020 -0.00990676 0.00078399 -0.00062455 0.00180329
1683613529.095559 0.11466273 0.10862021 -0.00990676 -0.00050282 0.00002606 0.00202216
1683613529.162276 0.11466273 0.10862020 -0.00990676 0.00080456 -0.00057288 0.00111292
1683613529.228992 0.11466273 0.10862020 -0.00990676 0.00053561 0.00002985 0.00097775
1683613529.295709 0.11466273 0.10862017 -0.00990675 -0.00055894 0.00023297 0.00137974
1683613529.362426 0.11466273 0.10862018 -0.00990675 0.00018887 -0.00067132 0.00200156
1683613529.429143 0.11466273 0.10862017 -0.00990675 -0.00059255 0.00025073 0.00099829
1683613529.495860 0.11466273 0.10862018 -0.00990675 -0.00005661 -0.00071633 0.00137705
1683613529.562577 0.11466273 0.10862018 -0.00990675 0.00000587 0.00013800 0.00156299
1683613529.629294 0.11466273 0.10862017 -0.00990675 -0.00085565 0.00087466 0.00169239
1683613529.696011 0.11466273 0.10862016 -0.00990675 0.00002884 -0.00153494 0.00151726
1683613529.762728 0.11466273 0.10862016 -0.00990675 0.00011317 0.00029629 0.00079354
1683613529.829445 0.11466273 0.10862015 -0.00990675 0.00003392 0.00044228 0.00109035
1683613529.896162 0.11466273 0.10862015 -0.00990675 -0.00110299 -0.00033417 0.00192638
1683613529.962878 0.11466273 0.10862015 -0.00990675 -0.00045687 0.00032781 0.00186885
1683613530.029593 0.11466273 0.10862015 -0.00990675 -0.00030981 -0.00036931 0.00163331
1683613530.096308 0.11466273 0.10862015 -0.00990675 0.00016114 -0.00007039 0.00107208
1683613530.163023 0.11466273 0.10862014 -0.00990675 0.00014306 -0.00004003 0.00182769
1683613530.229738 0.11466273 0.10862015 -0.00990675 -0.00066424 0.00040224 0.00179451
1683613530.296453 0.11466273 0.10862013 -0.00990675 -0.00057898 0.00041146 0.00094588
1683613530.363168 0.11466273 0.10862013 -0.00990675 -0.00003871 -0.00018604 0.00080569
1683613530.429883 0.11466273 0.10862013 -0.00990675 -0.00019292 0.00011193 0.00119103
1683613530.496598 0.11466273 0.10862013 -0.00990675 0.00001287 -0.00031846 0.00173451
1683613530.563313 0.11466273 0.10862011 -0.00990674 0.00032913 -0.00087475 0.00125281
1683613530.630028 0.11466273 0.10862012 -0.00990675 -0.00115726 0.00109982 0.00103619
1683613530.696743 0.11466273 0.10862010 -0.00990674 -0.00065510 0.00076730 0.00115791
1683613530.763458 0.11466273 0.10862010 -0.00990674 0.00033104 -0.00103165 0.00171666
1683613530.830173 0.11466273 0.10862010 -0.00990674 -0.00027688 0.00012980 0.00172653
1683613530.896888 0.11466273 0.10862011 -0.00990674 -0.00084622 0.00019663 0.00139500
1683613530.963604 0.11466273 0.10862011 -0.00990674 0.00062276 0.00001291 0.00101275
1683613531.030320 0.11466272 0.10862012 -0.00990674 -0.00071977 0.00134511 0.00107101
1683613531.097035 0.11466272 0.10862012 -0.00990674 0.00045421 -0.00085971 0.00104417
1683613531.163751 0.11466272 0.10862013 -0.00990674 0.00021759 -0.00072422 0.00131247
1683613531.230467 0.11466272 0.10862013 -0.00990674 -0.00103391 0.00073363 0.00135092
1683613531.297183 0.11466272 0.10862013 -0.00990674 0.00053678 -0.00059438 0.00127708
1683613531.363899 0.11466271 0.10862014 -0.00990675 -0.00094065 0.00086049 0.00160825
1683613531.430614 0.11466271 0.10862014 -0.00990675 0.00058356 -0.00044312 0.00107014
1683613531.497330 0.11466271 0.10862015 -0.00990675 -0.00041287 0.00062350 0.00100350
1683613531.564046 0.11466271 0.10862015 -0.00990675 0.00006034 0.00007520 0.00066303
1683613531.630762 0.11466271 0.10862015 -0.00990675 0.00117400 -0.00094916 0.00156770
1683613531.697478 0.11466271 0.10862014 -0.00990675 -0.00042464 0.00096045 0.00123916
1683613531.764194 0.11466271 0.10862015 -0.00990675 0.00076879 -0.00019581 0.00129365
1683613531.830909 0.11466271 0.10862013 -0.00990674 0.00005385 0.00013871 0.00084435
1683613531.897625 0.11466271 0.10862014 -0.00990675 -0.00044985 0.00018727 0.00155569
1683613531.964340 0.11466271 0.10862014 -0.00990675 0.00034949 -0.00041377 0.00180352
1683613532.031054 0.11466271 0.10862014 -0.00990675 0.00017864 0.00014546 0.00087863
1683613532.097769 0.11466271 0.10862014 -0.00990675 -0.00025893 0.00038305 0.00102516
1683613532.164483 0.11466271 0.10862014 -0.00990675 0.00016851 -0.00021593 0.00123615
1683613532.231197 0.11466271 0.10862014 -0.00990675 0.00002486 0.00012736 0.00185206
1683613532.297911 0.11466271 0.10862015 -0.00990675 0.00036311 -0.00013154 0.00134139
1683613532.364625 0.11466270 0.10862015 -0.00990675 0.00097044 0.00024510 0.00076701
1683613532.431339 0.11466271 0.10862014 -0.00990674 0.00043473 -0.00000942 0.00099369
1683613532.498054 0.11466270 0.10862014 -0.00990674 -0.00096184 0.00041705 0.00142233
1683613532.564767 0.11466270 0.10862014 -0.00990674 0.00018874 -0.00013833 0.00137496
1683613532.631481 0.11466270 0.10862014 -0.00990674 0.00039360 -0.00074597 0.00079348
1683613532.698195 0.11466270 0.10862014 -0.00990675 -0.00064327 0.00025253 0.00089222
1683613532.764910 0.11466270 0.10862014 -0.00990674 -0.00004652 0.00011401 0.00147890
1683613532.831623 0.11466270 0.10862014 -0.00990674 -0.00033012 0.00014979 0.00171660
1683613532.898337 0.11466270 0.10862016 -0.00990675 -0.00007039 0.00033774 0.00112495
1683613532.965051 0.11466270 0.10862016 -0.00990675 0.00105357 -0.00024525 0.00045556
1683613533.031766 0.11466270 0.10862016 -0.00990675 0.00053978 0.00011404 0.00124310
1683613533.098480 0.11466270 0.10862016 -0.00990675 0.00032847 -0.00012023 0.00126811
1683613533.165195 0.11466270 0.10862016 -0.00990675 0.00024770 -0.00025637 0.00087765
1683613533.231910 0.11466270 0.10862016 -0.00990675 0.00016312 -0.00006838 0.00085369
1683613533.298624 0.11466270 0.10862016 -0.00990675 0.00005812 0.00014381 0.00074337
1683613533.365338 0.11466270 0.10862015 -0.00990675 -0.00006111 0.00019705 0.00135357
1683613533.432053 0.11466270 0.10862015 -0.00990675 -0.00032096 0.00051200 0.00091998
1683613533.498767 0.11466269 0.10862015 -0.00990675 0.00009629 0.00012084 0.00064536
1683613533.565481 0.11466269 0.10862015 -0.00990675 0.00061690 -0.00008324 0.00096193
1683613533.632196 0.11466269 0.10862015 -0.00990675 0.00005930 0.00031807 0.00151168
1683613533.698910 0.11466269 0.10862014 -0.00990675 -0.00003965 0.00008561 0.00157884
1683613533.765625 0.11466269 0.10862015 -0.00990675 -0.00013119 -0.00021164 0.00091463
1683613533.832339 0.11466269 0.10862015 -0.00990675 -0.00030642 0.00045190 0.00104102
1683613533.899053 0.11466269 0.10862015 -0.00990675 -0.00018501 0.00008828 0.00138296
1683613533.965768 0.11466269 0.10862014 -0.00990674 -0.00056153 0.00033201 0.00212346
1683613534.032483 0.11466269 0.10862014 -0.00990674 0.00004704 -0.00033120 0.00054163
1683613534.099199 0.11466269 0.10862015 -0.00990675 -0.00021565 0.00018609 0.00043521
1683613534.165914 0.11466269 0.10862015 -0.00990675 -0.00018763 0.00017485 0.00083672
1683613534.232629 0.11466269 0.10862015 -0.00990675 0.00038678 -0.00053616 0.00149296
1683613534.299345 0.11466269 0.10862016 -0.00990675 0.00017303 0.00023160 0.00125793
1683613534.366060 0.11466269 0.10862015 -0.00990675 -0.00055791 0.00099843 0.00112147
1683613534.432775 0.11466269 0.10862015 -0.00990675 -0.00055372 0.00015998 0.00142602
1683613534.499490 0.11466269 0.10862016 -0.00990675 0.00029677 -0.00020767 0.00174793
1683613534.566206 0.11466269 0.10862016 -0.00990675 -0.00006915 0.00008888 0.00122853
1683613534.632921 0.11466268 0.10862016 -0.00990675 -0.00012624 0.00108000 0.00152073
1683613534.699637 0.11466269 0.10862016 -0.00990675 0.00193402 -0.00314988 0.00096645
1683613534.766352 0.11466268 0.10862016 -0.00990675 -0.00032075 0.00045957 0.00165101
1683613534.833067 0.11466268 0.10862016 -0.00990675 -0.00292680 0.00360690 0.00195030
1683613534.899783 0.11466268 0.10862017 -0.00990675 0.00092472 -0.00132134 0.00090717
1683613534.966498 0.11466268 0.10862017 -0.00990675 0.00244676 -0.00310278 0.00043123
1683613535.033213 0.11466268 0.10862017 -0.00990675 -0.00069011 0.00184316 0.00191277
1683613535.099927 0.11466268 0.10862017 -0.00990675 -0.00056496 -0.00103719 0.00175443
1683613535.166642 0.11466268 0.10862017 -0.00990675 -0.00311883 0.00513914 0.00136323
1683613535.233357 0.11466269 0.10862018 -0.00990675 0.00415536 -0.00551322 0.00154291
1683613535.300071 0.11466268 0.10862018 -0.00990675 -0.00097251 0.00188420 0.00169417
1683613535.366786 0.11466268 0.10862016 -0.00990675 -0.00184673 0.00240545 0.00210654
1683613535.433501 0.11466268 0.10862017 -0.00990675 -0.00037842 0.00070970 0.00134787
1683613535.500215 0.11466268 0.10862017 -0.00990675 0.00082172 -0.00158503 0.00135715
1683613535.566930 0.11466268 0.10862016 -0.00990675 -0.00020689 0.00075415 0.00139791
1683613535.633645 0.11466268 0.10862017 -0.00990675 0.00124259 -0.00124361 0.00156951
1683613535.700359 0.11466268 0.10862016 -0.00990675 -0.00024407 -0.00049813 0.00069122
1683613535.767074 0.11466268 0.10862017 -0.00990675 0.00246178 -0.00436368 0.00113512
1683613535.833788 0.11466267 0.10862017 -0.00990675 -0.00670257 0.01234132 0.00166535
1683613535.900503 0.11466268 0.10862017 -0.00990675 -0.00065731 -0.00091487 0.00051475
1683613535.967219 0.11466269 0.10862018 -0.00990675 0.00780841 -0.01982821 0.00425257
1683613536.033936 0.11466267 0.10862018 -0.00990675 -0.00287880 0.01026484 -0.00348831
1683613536.100654 0.11466267 0.10862018 -0.00990676 -0.00249408 0.00345282 0.00141716
1683613536.167371 0.11466268 0.10862019 -0.00990675 0.00847135 -0.01712309 0.00634474
1683613536.234089 0.11466267 0.10862019 -0.00990676 -0.00796872 0.00339998 0.00215077
1683613536.300807 0.11466267 0.10862019 -0.00990676 -0.00208223 0.00868973 -0.00039419
1683613536.367524 0.11466268 0.10862018 -0.00990675 0.01456417 -0.04369221 0.00908094
1683613536.434242 0.11466262 0.10862018 -0.00990676 -0.01232630 0.03260312 -0.00454358
1683613536.500960 0.05841255 0.03092889 0.28057736 -0.00438237 0.01827636 -0.00514557
1683613536.567678 0.17803340 -0.07567025 -0.15354995 -0.00281393 0.02099120 -0.00837326
1683613536.634396 0.24179711 -0.06169480 -0.15445678 -0.00224421 0.02458912 -0.01028667
1683613536.701113 0.23594484 -0.03864983 -0.14104923 -0.00387241 0.02805295 -0.01045462
1683613536.767831 0.10079917 0.05491791 0.01315666 -0.00481697 0.02905953 -0.00955069
1683613536.834549 -0.00356859 0.04244996 0.11217777 -0.00370613 0.02700504 -0.00922280
1683613536.901267 0.14558045 -0.00819526 -0.07983348 -0.00383513 0.02745274 -0.00925430
1683613536.967984 0.09883695 -0.03321533 -0.04748741 -0.00397013 0.02879015 -0.01005617
1683613537.034698 0.03189726 -0.00729968 0.02308172 -0.00398289 0.02879183 -0.01106647
1683613537.101412 0.02815528 0.00859075 0.02232666 -0.00572068 0.02870697 -0.01122917
1683613537.168127 0.02385880 0.00050055 0.02338043 -0.00574330 0.02775329 -0.01080651
1683613537.234841 -0.00322662 -0.01043817 0.02698392 -0.00438979 0.02734443 -0.01330635
1683613537.301555 -0.01265259 0.00013621 0.04091160 -0.00315857 0.02541767 -0.01528724
1683613537.368269 -0.01393327 0.01639433 0.05804624 -0.00440906 0.02284059 -0.01160877
1683613537.434983 -0.02247914 0.03055564 0.05761220 -0.00379986 0.02071954 -0.00998970
1683613537.501698 -0.00994332 0.01832479 0.05509986 -0.00204960 0.01950535 -0.01131050
1683613537.568412 -0.00702914 0.01344951 0.05353606 -0.00356336 0.01827384 -0.01030301
1683613537.635126 -0.01613734 0.00496892 0.05617277 -0.00586359 0.01647361 -0.01003222
1683613537.701840 -0.01706419 0.00905987 0.04337010 -0.00546048 0.01667423 -0.00923622
1683613537.768554 -0.01486472 0.00667314 0.01444900 -0.00668976 0.01662065 -0.00766472
1683613537.835268 -0.02445199 0.01198233 0.01047708 -0.00736956 0.01710309 -0.00684772
1683613537.901982 -0.02117596 0.00948109 0.00455140 -0.00598017 0.01648928 -0.00644632
1683613537.968697 -0.02152057 0.01360449 0.00747356 -0.00427277 0.01498426 -0.00684390
1683613538.035412 0.01577305 -0.03850393 0.00626236 -0.00442426 0.01497515 -0.00605722
1683613538.102128 -0.04115638 0.03609050 0.01009806 -0.00613941 0.01454492 -0.00475459
1683613538.168843 -0.04879131 0.04905557 0.01243389 -0.00542210 0.01357955 -0.00469847
1683613538.235559 -0.05318354 0.05339636 0.01021198 -0.00504688 0.01354049 -0.00415580
1683613538.302274 -0.05597906 0.05793064 0.00375576 -0.00502454 0.01339369 -0.00281049
1683613538.368989 -0.06477886 0.07251646 0.00627188 -0.00456676 0.01275533 -0.00297226
1683613538.435705 -0.07904112 0.09896043 0.01110133 -0.00465799 0.01174556 -0.00366800
1683613538.502420 -0.07519982 0.08671173 0.00700954 -0.00405886 0.01115122 -0.00342274
1683613538.569136 -0.08713845 0.11820833 0.01107213 -0.00363652 0.01088220 -0.00310514
1683613538.635851 -0.10151623 0.15056780 0.01646490 -0.00411566 0.01005776 -0.00316654
1683613538.702566 -0.11034597 0.16965486 0.01873598 -0.00433615 0.00922293 -0.00337797
1683613538.769282 -0.11340993 0.17843390 0.01927967 -0.00421960 0.00884618 -0.00284789
1683613538.835997 -0.10195164 0.14899339 0.01217353 -0.00362300 0.00850731 -0.00253539
1683613538.902712 -0.08688805 0.11361039 0.00696335 -0.00275942 0.00913194 -0.00197138
1683613538.969427 -0.11182045 0.16362114 0.01205348 -0.00404559 0.00832429 -0.00275909
1683613539.036141 -0.11672234 0.16955371 0.01248566 -0.00445037 0.00770262 -0.00351408
1683613539.102854 -0.10161996 0.12954023 0.00709989 -0.00385244 0.00824594 -0.00286973
1683613539.169568 -0.09733808 0.11412150 0.00479682 -0.00315648 0.00831023 -0.00239122
1683613539.236282 -0.10305349 0.12562112 0.00596552 -0.00354246 0.00770860 -0.00284350
1683613539.302996 -0.09779108 0.11428884 0.00493890 -0.00350617 0.00753150 -0.00242822
1683613539.369709 -0.08277101 0.08077271 0.00085259 -0.00315895 0.00716042 -0.00186454
1683613539.436423 -0.09614831 0.10905241 0.00212827 -0.00339698 0.00706106 -0.00257189
1683613539.503136 -0.09992135 0.12454744 0.00362618 -0.00310260 0.00674866 -0.00258377
1683613539.569850 -0.09568420 0.11002791 0.00225849 -0.00268793 0.00677075 -0.00244624
1683613539.636564 -0.10169116 0.12664175 0.00355259 -0.00268679 0.00660945 -0.00238774
1683613539.703277 -0.10976804 0.14624816 0.00523295 -0.00292897 0.00605025 -0.00254508
1683613539.769990 -0.10595669 0.15185773 0.00499837 -0.00252946 0.00543654 -0.00228355
1683613539.836704 -0.10486345 0.15037580 0.00468134 -0.00237911 0.00551830 -0.00187633
1683613539.903417 -0.10223854 0.14303074 0.00379119 -0.00217164 0.00555510 -0.00164948
1683613539.970131 -0.09587234 0.12264459 0.00222438 -0.00196871 0.00584934 -0.00134140
1683613540.036845 -0.09611902 0.12893630 0.00311626 -0.00157561 0.00564442 -0.00125907
1683613540.103559 -0.08649199 0.10812651 0.00221354 -0.00073543 0.00534832 -0.00113133
1683613540.170274 -0.09645969 0.13086584 0.00344212 -0.00127628 0.00520645 -0.00107770
1683613540.236988 -0.10786867 0.15557066 0.00488351 -0.00193163 0.00445786 -0.00172891
1683613540.303702 -0.09775157 0.13446738 0.00369026 -0.00202445 0.00419459 -0.00148168
1683613540.370416 -0.08862180 0.11641921 0.00332922 -0.00138134 0.00415871 -0.00088533
1683613540.437130 -0.08143370 0.09758695 0.00221118 -0.00086182 0.00418102 -0.00081269
1683613540.503844 -0.06799400 0.06648324 0.00180470 -0.00065524 0.00379034 -0.00046858
1683613540.570559 -0.06396444 0.05378862 0.00126006 -0.00094181 0.00392413 -0.00011260
1683613540.637273 -0.06569790 0.05790051 0.00234012 -0.00094724 0.00359659 -0.00042027
1683613540.703987 -0.05630450 0.03861966 0.00167741 -0.00060872 0.00340735 -0.00054187
1683613540.770701 -0.05070457 0.02152825 -0.00004245 -0.00075434 0.00393187 -0.00010291
1683613540.837415 -0.04058633 0.00881992 0.00153790 -0.00039291 0.00353496 -0.00020322
1683613540.904129 -0.03376748 0.00079212 0.00073114 0.00011634 0.00341278 -0.00045584
1683613540.970843 -0.03014302 -0.00720329 0.00055459 -0.00004495 0.00369692 -0.00030078
1683613541.037557 -0.03683648 0.00757132 0.00357754 -0.00060077 0.00327014 -0.00047427
1683613541.104270 -0.03214075 0.00233168 0.00287891 -0.00050575 0.00295232 -0.00053478
1683613541.170984 -0.02545224 -0.00682370 0.00226799 -0.00005697 0.00308676 -0.00015773
1683613541.237698 -0.01913234 -0.01762143 0.00225080 -0.00030732 0.00295115 -0.00023173
1683613541.304412 -0.01908575 -0.01945066 0.00168373 -0.00070487 0.00302698 -0.00009754
1683613541.371126 -0.01686865 -0.02128953 0.00126395 -0.00051239 0.00305544 -0.00000815
1683613541.437840 -0.01302843 -0.02531663 0.00182744 -0.00027042 0.00288058 0.00005876
1683613541.504554 -0.01244663 -0.02591477 0.00149521 -0.00048159 0.00290988 0.00018132
1683613541.571267 -0.01207921 -0.02653202 0.00155432 -0.00051283 0.00292645 0.00013377
1683613541.637981 -0.01043463 -0.02887080 0.00185382 -0.00047485 0.00277255 0.00001904
1683613541.704695 -0.00705239 -0.03580234 0.00246941 -0.00046012 0.00264167 -0.00007556
1683613541.771409 -0.00629694 -0.03689247 0.00293042 -0.00041767 0.00260248 -0.00024504
1683613541.838122 -0.00545390 -0.03667376 0.00259947 -0.00054035 0.00268286 -0.00007329
1683613541.904836 -0.00573648 -0.03372736 0.00179151 -0.00053851 0.00286814 0.00010543
1683613541.971550 -0.00489415 -0.03429008 0.00188926 -0.00057111 0.00295078 0.00034494
1683613542.038265 -0.00449996 -0.03662356 0.00260390 -0.00062987 0.00283427 0.00039376
1683613542.104980 -0.00405638 -0.03388224 0.00160931 -0.00050507 0.00286415 0.00020039
1683613542.171696 0.00010810 -0.04114179 0.00271012 -0.00053597 0.00270709 0.00019626
1683613542.238411 0.00137840 -0.03999408 0.00209282 -0.00048099 0.00260794 0.00032775
1683613542.305126 0.00248597 -0.04484161 0.00319527 -0.00054751 0.00247960 0.00035155
1683613542.371841 0.00203485 -0.04362534 0.00295028 -0.00075384 0.00243709 0.00031553
1683613542.438556 0.00245783 -0.04057260 0.00209511 -0.00070673 0.00254167 0.00041714
1683613542.505272 0.00254538 -0.03817434 0.00140321 -0.00056863 0.00264639 0.00042275
1683613542.571987 0.00233563 -0.03743292 0.00129449 -0.00062266 0.00271682 0.00038883
1683613542.638702 0.00377163 -0.04615778 0.00317450 -0.00068429 0.00245948 0.00037127
1683613542.705417 0.00438879 -0.04151207 0.00228652 -0.00045012 0.00235457 0.00033808
1683613542.772133 0.00426065 -0.03783378 0.00155194 -0.00026145 0.00253449 0.00037206
1683613542.838848 0.00412535 -0.04048045 0.00208326 -0.00041199 0.00254402 0.00043601
1683613542.905563 0.00328934 -0.03924125 0.00188555 -0.00064766 0.00251118 0.00050137
1683613542.972278 0.00418594 -0.04619328 0.00305125 -0.00079991 0.00232074 0.00031556
1683613543.038993 0.00505057 -0.04798036 0.00337186 -0.00097737 0.00206251 0.00022013
1683613543.105707 0.00287335 -0.03627781 0.00157322 -0.00087661 0.00223771 0.00049387
1683613543.172423 0.00618231 -0.04804134 0.00321184 -0.00055105 0.00220145 0.00044642
1683613543.239137 0.00463270 -0.03887473 0.00185420 -0.00057962 0.00221696 0.00042402
1683613543.305852 0.00717490 -0.05283938 0.00395175 -0.00067587 0.00206367 0.00032200
1683613543.372567 0.00454943 -0.03640109 0.00155560 -0.00059377 0.00212310 0.00041803
1683613543.439282 0.00506173 -0.04243065 0.00244893 -0.00055839 0.00227588 0.00061149
1683613543.505996 0.00594400 -0.04590097 0.00291819 -0.00061627 0.00215202 0.00059223
1683613543.572711 0.00731378 -0.05042914 0.00335505 -0.00051296 0.00209735 0.00051438
1683613543.639426 0.00916482 -0.06010386 0.00480920 -0.00058402 0.00203928 0.00053581
1683613543.706141 0.00976925 -0.06286409 0.00523763 -0.00051945 0.00192842 0.00049907
1683613543.772856 0.00845350 -0.05733733 0.00441831 -0.00060480 0.00198432 0.00052696
1683613543.839571 0.00895635 -0.05946996 0.00464445 -0.00067595 0.00194217 0.00065309
1683613543.906286 0.00724382 -0.05024026 0.00334532 -0.00053007 0.00200297 0.00061037
1683613543.973002 0.00846781 -0.05783464 0.00436961 -0.00065432 0.00193400 0.00060314
1683613544.039719 0.00679004 -0.04700558 0.00289229 -0.00059464 0.00201850 0.00075314
1683613544.106436 0.00624761 -0.04247266 0.00213019 -0.00053128 0.00189705 0.00070310
1683613544.173153 0.00807573 -0.05157421 0.00332249 -0.00068673 0.00173402 0.00060244
1683613544.239870 0.00746587 -0.04584176 0.00242810 -0.00074651 0.00177781 0.00066818
1683613544.306588 0.00772997 -0.04428007 0.00216182 -0.00059887 0.00186301 0.00070899
1683613544.373305 0.00861886 -0.04749684 0.00255661 -0.00045544 0.00183671 0.00066377
1683613544.440022 0.00939771 -0.05452785 0.00348493 -0.00057765 0.00165582 0.00055968
1683613544.506740 0.00837180 -0.04683280 0.00241947 -0.00075139 0.00171127 0.00065699
1683613544.573457 0.00771470 -0.04425301 0.00201775 -0.00065561 0.00184942 0.00069093
1683613544.640175 0.00890967 -0.05185964 0.00297572 -0.00066220 0.00175348 0.00062969
1683613544.706892 0.00966431 -0.05370306 0.00315015 -0.00074059 0.00160672 0.00063429
1683613544.773610 0.00911991 -0.04667234 0.00222605 -0.00073593 0.00164740 0.00074378
1683613544.840327 0.00801044 -0.04452711 0.00194614 -0.00064465 0.00177121 0.00071789
1683613544.907045 0.00920220 -0.04920239 0.00249208 -0.00064423 0.00177013 0.00070964
1683613544.973762 0.00887798 -0.04876792 0.00239096 -0.00074404 0.00173963 0.00076571
1683613545.040477 0.00965520 -0.05256194 0.00283036 -0.00076251 0.00163877 0.00080610
1683613545.107193 0.01050542 -0.05198299 0.00264348 -0.00074633 0.00155308 0.00088696
1683613545.173909 0.01017928 -0.04986065 0.00233996 -0.00067144 0.00155624 0.00089994
1683613545.240625 0.00965723 -0.05069269 0.00249983 -0.00068282 0.00156375 0.00082032
1683613545.307341 0.01002889 -0.05561730 0.00310776 -0.00090440 0.00149664 0.00081904
1683613545.374057 0.00552154 -0.04792259 0.00242014 -0.00082389 0.00129898 0.00095633
1683613545.440773 0.01457879 -0.06268133 0.00338536 -0.00056967 0.00138240 0.00092112
1683613545.507489 0.01496585 -0.06356540 0.00339906 -0.00055844 0.00139196 0.00093783
1683613545.574205 0.01524380 -0.06513768 0.00354907 -0.00051480 0.00134930 0.00095324
1683613545.640921 0.01600652 -0.06559746 0.00339738 -0.00045194 0.00134161 0.00093602
1683613545.707638 0.01639363 -0.06741991 0.00367204 -0.00042427 0.00128641 0.00092583
1683613545.774354 0.01902706 -0.07295992 0.00390160 -0.00033091 0.00112897 0.00096321
1683613545.841070 0.01883857 -0.07249054 0.00381120 -0.00033564 0.00114333 0.00098004
1683613545.907786 0.01875740 -0.07271684 0.00383479 -0.00034514 0.00114414 0.00096145
1683613545.974502 0.01935006 -0.07440995 0.00392106 -0.00035207 0.00108922 0.00093421
1683613546.041219 0.02196269 -0.07922883 0.00426511 -0.00034061 0.00092999 0.00097659
1683613546.107936 0.02430070 -0.08291151 0.00439612 -0.00029615 0.00076042 0.00103590
1683613546.174653 0.02667837 -0.08673891 0.00458491 -0.00026987 0.00061443 0.00110195
1683613546.241371 0.02767389 -0.08856686 0.00453542 -0.00026487 0.00054309 0.00112806
1683613546.308088 0.03150992 -0.09550266 0.00522833 -0.00025528 0.00037462 0.00118361
1683613546.374805 0.03197758 -0.09488063 0.00481198 -0.00021026 0.00021297 0.00123475
1683613546.441522 0.03278453 -0.09528386 0.00539466 -0.00024640 0.00021224 0.00120633
1683613546.508239 0.03445330 -0.09769644 0.00545569 -0.00022599 0.00016653 0.00120455
1683613546.574956 0.03560939 -0.09913268 0.00533478 -0.00020385 0.00014703 0.00120497
1683613546.641673 0.03559110 -0.09904334 0.00507564 -0.00023689 0.00019081 0.00120969
1683613546.708391 0.03730010 -0.10198195 0.00531565 -0.00023562 0.00017763 0.00121421
1683613546.775108 0.03877878 -0.10392217 0.00528281 -0.00020019 0.00013561 0.00121757
1683613546.841825 0.03995613 -0.10563061 0.00527310 -0.00018142 0.00011562 0.00122163
1683613546.908542 0.03749530 -0.10185713 0.00461211 -0.00027556 0.00023401 0.00122821
1683613546.975259 0.04161439 -0.10947167 0.00575545 -0.00023980 0.00016857 0.00121708
1683613547.041975 0.04178076 -0.10820851 0.00495892 -0.00016861 0.00010690 0.00121879
1683613547.108690 0.04151489 -0.10864989 0.00505811 -0.00022300 0.00017857 0.00122634
1683613547.175406 0.04365241 -0.11233169 0.00548662 -0.00019504 0.00014582 0.00122351
1683613547.242122 0.04392703 -0.11218983 0.00516036 -0.00016918 0.00012740 0.00122555
1683613547.308838 0.04410732 -0.11286551 0.00519992 -0.00019488 0.00015800 0.00122975
1683613547.375553 0.04492612 -0.11446705 0.00533829 -0.00019731 0.00015391 0.00123428
1683613547.442269 0.04540701 -0.11528238 0.00530115 -0.00019497 0.00014897 0.00123572
1683613547.508985 0.04604607 -0.11644537 0.00536338 -0.00019369 0.00014836 0.00123343
1683613547.575701 0.04705564 -0.11813290 0.00548363 -0.00017829 0.00013265 0.00123472
1683613547.642416 0.04736090 -0.11857587 0.00538972 -0.00017524 0.00012687 0.00123787
1683613547.709132 0.04750127 -0.11900677 0.00539053 -0.00018566 0.00014073 0.00123879
1683613547.775848 0.04808785 -0.12011524 0.00548423 -0.00018187 0.00014045 0.00123667
1683613547.842564 0.04894803 -0.12152276 0.00557126 -0.00016711 0.00012594 0.00123526
1683613547.909280 0.04895573 -0.12151870 0.00545684 -0.00017113 0.00013096 0.00123808
1683613547.975996 0.04884237 -0.12157267 0.00544623 -0.00018384 0.00014840 0.00124114
1683613548.042711 0.04960273 -0.12301290 0.00561269 -0.00017648 0.00014379 0.00124008
1683613548.109426 0.04999879 -0.12348245 0.00555303 -0.00016875 0.00013544 0.00124124
1683613548.176141 0.04997140 -0.12356380 0.00550987 -0.00017324 0.00014230 0.00124754
1683613548.242856 0.05045795 -0.12454973 0.00562302 -0.00017263 0.00014309 0.00124911
1683613548.309571 0.05080155 -0.12504756 0.00560826 -0.00016904 0.00013703 0.00124826
1683613548.376286 0.05100645 -0.12550051 0.00561663 -0.00016766 0.00013621 0.00125186
1683613548.443001 0.05123319 -0.12599775 0.00564661 -0.00017086 0.00013835 0.00125535
1683613548.509716 0.05164983 -0.12671839 0.00569531 -0.00016851 0.00013272 0.00125403
1683613548.576431 0.05192194 -0.12710748 0.00568037 -0.00016240 0.00012786 0.00125122
1683613548.643146 0.05194947 -0.12718891 0.00565412 -0.00016408 0.00013205 0.00125036
1683613548.709861 0.05223108 -0.12777806 0.00571854 -0.00016366 0.00013155 0.00125184
1683613548.776576 0.05238648 -0.12800094 0.00569611 -0.00016362 0.00012838 0.00125209
1683613548.843291 0.05238705 -0.12807506 0.00568468 -0.00016598 0.00013205 0.00125224
1683613548.910006 0.05265334 -0.12863321 0.00573961 -0.00016790 0.00012889 0.00125537
1683613548.976722 0.05280580 -0.12895587 0.00573667 -0.00016941 0.00012450 0.00125879
1683613549.043438 0.05310360 -0.12948792 0.00577860 -0.00016569 0.00011918 0.00125895
1683613549.110154 0.05326081 -0.12966065 0.00575588 -0.00016011 0.00011608 0.00125896
1683613549.176870 0.05328770 -0.12976236 0.00575824 -0.00016185 0.00011815 0.00125993
1683613549.243587 0.05333430 -0.12994307 0.00578035 -0.00016418 0.00012061 0.00126146
1683613549.310303 0.05346577 -0.13018147 0.00579339 -0.00016301 0.00011915 0.00126019
1683613549.377019 0.05362498 -0.13042796 0.00580815 -0.00016073 0.00011677 0.00125952
1683613549.443735 0.05374109 -0.13054358 0.00580207 -0.00015769 0.00011492 0.00125985
1683613549.510451 0.05383017 -0.13075005 0.00581928 -0.00015639 0.00011256 0.00126262
1683613549.577168 0.05377858 -0.13078713 0.00581611 -0.00016002 0.00011393 0.00126502
1683613549.643884 0.05387287 -0.13094606 0.00582667 -0.00015953 0.00011193 0.00126463
1683613549.710600 0.05404893 -0.13123435 0.00585122 -0.00015491 0.00010775 0.00126576
1683613549.777316 0.05410327 -0.13133106 0.00584662 -0.00015685 0.00010581 0.00126794
1683613549.844033 0.05421070 -0.13150424 0.00586639 -0.00015481 0.00010361 0.00126849
1683613549.910749 0.05436500 -0.13167910 0.00587651 -0.00014918 0.00010052 0.00126498
1683613549.977465 0.05451002 -0.13195631 0.00590541 -0.00015165 0.00009670 0.00126242
1683613550.044180 0.05431054 -0.13171114 0.00584933 -0.00015452 0.00009615 0.00126430
1683613550.110896 0.05431329 -0.13177757 0.00589100 -0.00015563 0.00009852 0.00126743
1683613550.177611 0.05439541 -0.13188331 0.00588957 -0.00015286 0.00009491 0.00126514
1683613550.244326 0.05434660 -0.13174988 0.00586688 -0.00015321 0.00009475 0.00126394
1683613550.311042 0.05444553 -0.13201120 0.00591258 -0.00015518 0.00009205 0.00126519
1683613550.377757 0.05428873 -0.13179231 0.00586346 -0.00015635 0.00009217 0.00126307
1683613550.444473 0.05437747 -0.13194591 0.00591013 -0.00015718 0.00009144 0.00126040
1683613550.511188 0.05410084 -0.13147125 0.00584009 -0.00015721 0.00009444 0.00126006
1683613550.577903 0.05423770 -0.13171597 0.00591546 -0.00015660 0.00009655 0.00126211
1683613550.644619 0.05435210 -0.13185763 0.00591755 -0.00015324 0.00008984 0.00126274
1683613550.711334 0.05418049 -0.13160052 0.00586864 -0.00015401 0.00008861 0.00126235
1683613550.778049 0.05393113 -0.13129544 0.00585087 -0.00016064 0.00009372 0.00126234
1683613550.844765 0.05413204 -0.13166752 0.00592457 -0.00016038 0.00008971 0.00126310
1683613550.911480 0.05421237 -0.13169970 0.00589840 -0.00015485 0.00008399 0.00126431
1683613550.978195 0.05408024 -0.13149126 0.00587431 -0.00015522 0.00008493 0.00126490
1683613551.044910 0.05391988 -0.13125804 0.00587102 -0.00015556 0.00008859 0.00126441
1683613551.111624 0.05391008 -0.13122458 0.00589538 -0.00015707 0.00009214 0.00126391
1683613551.178339 0.05388580 -0.13114563 0.00588600 -0.00015462 0.00009016 0.00126396
1683613551.245053 0.05379328 -0.13096524 0.00587692 -0.00015335 0.00009131 0.00126487
1683613551.311768 0.05384580 -0.13112099 0.00591751 -0.00015443 0.00008911 0.00126373
1683613551.378482 0.05378426 -0.13102021 0.00590400 -0.00015464 0.00008720 0.00126441
1683613551.445197 0.05350174 -0.13054051 0.00584992 -0.00015865 0.00009139 0.00126653
1683613551.511911 0.05367815 -0.13089647 0.00594007 -0.00015793 0.00009000 0.00126581
1683613551.578625 0.05375330 -0.13093781 0.00593256 -0.00015340 0.00008561 0.00126343
1683613551.645340 0.05306885 -0.12976013 0.00577315 -0.00015670 0.00009594 0.00126451
1683613551.712054 0.05355381 -0.13065380 0.00598657 -0.00015518 0.00009401 0.00126670
1683613551.778769 0.05367894 -0.13073170 0.00594300 -0.00015180 0.00008481 0.00126766
1683613551.845483 0.05353896 -0.13049283 0.00590718 -0.00015185 0.00008281 0.00126682
1683613551.912198 0.05336442 -0.13022260 0.00588496 -0.00015396 0.00008413 0.00126859
1683613551.978912 0.05326026 -0.13008933 0.00589647 -0.00015842 0.00008694 0.00126991
1683613552.045627 0.05342015 -0.13038464 0.00596366 -0.00015742 0.00008284 0.00126974
1683613552.112343 0.05333365 -0.13020140 0.00592268 -0.00015781 0.00007964 0.00127037
1683613552.179058 0.05339177 -0.13030661 0.00594996 -0.00015654 0.00007608 0.00127143
1683613552.245774 0.05345083 -0.13032812 0.00594116 -0.00015349 0.00007225 0.00127136
1683613552.312489 0.05339253 -0.13018608 0.00592506 -0.00015317 0.00007125 0.00127131
1683613552.379204 0.05324994 -0.13002338 0.00592579 -0.00015628 0.00007149 0.00127262
1683613552.445920 0.05330209 -0.13014093 0.00595758 -0.00015622 0.00006874 0.00127275
1683613552.512635 0.05333593 -0.13012347 0.00594671 -0.00015458 0.00006502 0.00127375
1683613552.579350 0.05324585 -0.12995152 0.00592831 -0.00015386 0.00006442 0.00127384
1683613552.646065 0.05304444 -0.12962561 0.00591024 -0.00015668 0.00006791 0.00127179
1683613552.712781 0.05298501 -0.12950972 0.00592119 -0.00015535 0.00006861 0.00127109
1683613552.779496 0.05299140 -0.12946387 0.00591960 -0.00015421 0.00006709 0.00127168
1683613552.846211 0.05327651 -0.12991474 0.00600115 -0.00015115 0.00006140 0.00127221
1683613552.912927 0.05309721 -0.12958240 0.00592510 -0.00015134 0.00005846 0.00127195
1683613552.979642 0.05297094 -0.12943780 0.00593958 -0.00015406 0.00006002 0.00127141
1683613553.046356 0.05309101 -0.12962521 0.00598826 -0.00015285 0.00005750 0.00127068
1683613553.113071 0.05295873 -0.12936923 0.00594993 -0.00015383 0.00005658 0.00127124
1683613553.179785 0.05293293 -0.12936953 0.00597618 -0.00015512 0.00005650 0.00127098
1683613553.246500 0.05295638 -0.12935703 0.00597977 -0.00015441 0.00005421 0.00126923
1683613553.313215 0.05295698 -0.12935545 0.00599343 -0.00015385 0.00005235 0.00126972
1683613553.379929 0.05295247 -0.12935974 0.00600580 -0.00015412 0.00004976 0.00127103
1683613553.446644 0.05262727 -0.12880421 0.00591804 -0.00015532 0.00005070 0.00126978
1683613553.513358 0.05272103 -0.12895565 0.00597876 -0.00015517 0.00004972 0.00126889
1683613553.580072 0.05255836 -0.12866311 0.00593102 -0.00015503 0.00004901 0.00126736
1683613553.646787 0.05224066 -0.12814491 0.00588989 -0.00015827 0.00005470 0.00126739
1683613553.713501 0.05234244 -0.12831593 0.00595372 -0.00015936 0.00005419 0.00126686
1683613553.780216 0.05226068 -0.12812911 0.00591792 -0.00015822 0.00005180 0.00126558
1683613553.846930 0.05227897 -0.12812883 0.00593173 -0.00015590 0.00004940 0.00126415
1683613553.913645 0.05223557 -0.12801572 0.00591135 -0.00015587 0.00004786 0.00126403
1683613553.980360 0.05217431 -0.12792040 0.00591798 -0.00015781 0.00004746 0.00126430
1683613554.047075 0.05211398 -0.12781619 0.00591395 -0.00015771 0.00004597 0.00126391
1683613554.113791 0.05195657 -0.12753391 0.00589088 -0.00015750 0.00004651 0.00126252
1683613554.180507 0.05199593 -0.12755274 0.00590410 -0.00015430 0.00004455 0.00126117
1683613554.247222 0.05177073 -0.12712357 0.00585076 -0.00015353 0.00004639 0.00126000
1683613554.313938 0.05174756 -0.12703829 0.00587079 -0.00015397 0.00004875 0.00126018
1683613554.380653 0.05142560 -0.12656506 0.00582606 -0.00015597 0.00005013 0.00125731
1683613554.447369 0.05184026 -0.12715506 0.00592775 -0.00015371 0.00004513 0.00125432
1683613554.514085 0.05203578 -0.12731886 0.00591943 -0.00014873 0.00003834 0.00125615
1683613554.580800 0.05166976 -0.12675251 0.00583728 -0.00015080 0.00003847 0.00125917
1683613554.647516 0.05135284 -0.12632050 0.00582466 -0.00015468 0.00004365 0.00125961
1683613554.714232 0.05204490 -0.12745480 0.00602118 -0.00015506 0.00003418 0.00125658
1683613554.780947 0.05109069 -0.12588171 0.00572800 -0.00015991 0.00003628 0.00125860
1683613554.847663 0.04945797 -0.12357475 0.00551182 -0.00017394 0.00006201 0.00125338
1683613554.914379 0.05330104 -0.12924795 0.00645865 -0.00015554 0.00003347 0.00125749
1683613554.981094 0.05046389 -0.12451068 0.00544242 -0.00014213 0.00003213 0.00126662
1683613555.047809 0.05014950 -0.12438959 0.00569877 -0.00016473 0.00005735 0.00125847
1683613555.114524 0.05107540 -0.12576947 0.00594600 -0.00016255 0.00005020 0.00125323
1683613555.181238 0.05041683 -0.12467874 0.00571407 -0.00015888 0.00004689 0.00124811
1683613555.247953 0.05317127 -0.12872548 0.00633435 -0.00014339 0.00001926 0.00124792
1683613555.314668 0.05043199 -0.12440216 0.00547618 -0.00014351 0.00002348 0.00124878
1683613555.381383 0.05127975 -0.12593071 0.00593774 -0.00015674 0.00003347 0.00124693
1683613555.448098 0.04912189 -0.12265712 0.00542543 -0.00016685 0.00004980 0.00124545
1683613555.514812 0.05181967 -0.12669350 0.00620269 -0.00015715 0.00003803 0.00124232
1683613555.581527 0.05105686 -0.12513509 0.00573885 -0.00013826 0.00002199 0.00124028
1683613555.648242 0.04582295 -0.11763312 0.00481137 -0.00018587 0.00008384 0.00123319
1683613555.714957 0.04582308 -0.11763306 0.00481135 0.02171286 -0.02555176 -0.00040129
1683613555.781671 0.04582308 -0.11763305 0.00481135 0.01857879 -0.02183456 -0.00336368
1683613555.848386 0.04582308 -0.11763306 0.00481135 -0.00379064 0.00080353 -0.01594745
1683613555.915100 0.04582310 -0.11763304 0.00481135 0.02879270 -0.02599608 -0.07349591
1683613555.981815 0.04582312 -0.11763305 0.00481134 -0.04233600 0.01234500 0.04988192
1683613556.048530 0.04582313 -0.11763304 0.00481134 -0.06309017 0.02028006 0.03477255
1683613556.115245 0.04582294 -0.11763309 0.00481128 -0.16682827 0.19274396 0.07986083
1683613556.181960 0.11848074 -1.43580254 2.59024935 -0.12997232 0.10264621 0.03022345
1683613556.248675 -0.34921001 -0.19092816 0.35565123 -0.07100452 0.02196905 -0.00748556
1683613556.315389 0.13413340 -0.49243490 -0.34891406 -0.06177245 0.02714933 -0.01671965
1683613556.382104 0.92735067 -0.84915885 -0.93173976 -0.04088232 0.05021847 -0.03288555
1683613556.448819 0.46218745 -0.52751011 -0.40377073 -0.03943857 0.04364073 -0.03209278
1683613556.515534 -0.04818920 -0.11838395 0.14814168 -0.03910967 0.03561281 -0.02647490
1683613556.582248 0.03042068 -0.08767045 0.22690232 -0.04180825 0.02993578 -0.01791148
1683613556.648963 -0.34628917 0.14227545 0.44884201 -0.04460077 0.02659387 -0.01268200
1683613556.715678 -0.36386711 0.17129448 0.47942495 -0.04631606 0.02064619 -0.00729615
1683613556.782393 -0.32677980 0.12556628 0.42666414 -0.04427434 0.01523466 -0.00508043
1683613556.849108 -0.24211398 0.04903211 0.34284996 -0.04133661 0.01121116 -0.00523050
1683613556.915822 -0.24513021 0.03212234 0.35344058 -0.04382955 0.01495787 -0.00582610
1683613556.982537 -0.17847172 -0.08176344 0.27028325 -0.04018669 0.01248422 -0.00607287
1683613557.049252 -0.20354886 0.01042439 0.33618317 -0.04382079 0.01410363 -0.00640325
1683613557.115967 -0.17136751 -0.14415537 0.26703373 -0.04111629 0.01134099 -0.00581604
1683613557.182682 -0.25587809 -0.05551012 0.34193053 -0.04353917 0.01262364 -0.00604483
1683613557.249397 -0.25539448 -0.07120589 0.34464834 -0.03886518 0.01080757 -0.00638469
1683613557.316111 -0.25483346 -0.07290622 0.34641542 -0.04307933 0.01198433 -0.00588871
1683613557.382826 -0.19711407 -0.02927237 0.33007636 -0.04164570 0.01269098 -0.00715195
1683613557.449541 -0.16796779 -0.08483503 0.31380796 -0.04201332 0.01119206 -0.00745383
1683613557.516256 -0.20870033 -0.04178839 0.34719544 -0.04012569 0.01138033 -0.00862453
1683613557.582971 -0.25924836 0.01997589 0.36752635 -0.04115472 0.01185005 -0.00890666
1683613557.649686 -0.24825695 0.02840135 0.37404492 -0.04092232 0.01348357 -0.00756705
1683613557.716400 -0.24925221 0.02996432 0.37200283 -0.04080179 0.01291264 -0.00793667
1683613557.783115 0.07110384 -0.05507241 0.00911923 -0.00825627 0.00386196 0.00117999
1683613557.849830 0.02749753 0.01206658 0.04857546 -0.00795161 0.00448669 -0.00461264
1683613557.916545 0.01263445 0.01490569 0.03569396 -0.00888519 0.00272817 -0.00417383
1683613557.983259 0.04251982 -0.02097658 0.01848797 -0.00809664 0.00244337 -0.00260369
1683613558.049974 0.06585257 -0.06316505 -0.00725903 -0.00666539 0.00684750 0.00038958
1683613558.116689 0.05732280 -0.06189847 -0.00538849 -0.00646077 0.00713771 0.00088656
1683613558.183403 0.05202654 -0.05781662 -0.00061910 -0.00552889 0.00669110 -0.00014864
1683613558.250118 0.04231473 -0.05587928 0.00471371 -0.00468849 0.00779966 0.00014145
1683613558.316833 0.04745875 -0.06524522 0.00888368 -0.00453979 0.00737642 0.00121918
1683613558.383548 0.04377208 -0.07410698 0.01047532 -0.00379818 0.00746516 0.00126778
1683613558.450263 0.04316075 -0.07426822 0.01174930 -0.00325181 0.00710249 0.00131763
1683613558.516977 0.04632088 -0.07100865 0.01081727 -0.00263123 0.00643280 0.00139890
1683613558.583692 0.04908893 -0.07428981 0.01191450 -0.00216356 0.00611805 0.00123669
1683613558.650406 0.04548040 -0.02321519 -0.00300206 -0.00202161 0.00536245 0.00120512
1683613558.717121 0.05026672 -0.04182857 0.00362649 -0.00208728 0.00541254 0.00113348
1683613558.783836 0.04904485 -0.04008792 0.00171741 -0.00251642 0.00539081 0.00104294
1683613558.850550 0.03865035 -0.00846309 -0.01172685 -0.00314038 0.00524402 0.00116158
1683613558.917265 0.03215712 -0.00220118 -0.01327617 -0.00374886 0.00513212 0.00125185
1683613558.983979 0.02557058 0.01184033 -0.01825615 -0.00357326 0.00540264 0.00109291
1683613559.050694 0.02774986 0.00219048 -0.01525514 -0.00377615 0.00506412 0.00104101
1683613559.117409 0.03376143 -0.01768481 -0.01025886 -0.00379036 0.00455841 0.00090722
1683613559.184124 0.04194225 -0.04032861 -0.00472943 -0.00363059 0.00421218 0.00075565
1683613559.250839 0.04231903 -0.04598035 -0.00267607 -0.00390334 0.00349669 0.00065483
1683613559.317554 0.04246436 -0.04785161 -0.00268700 -0.00363985 0.00308147 0.00042723
1683613559.384268 0.04526495 -0.05174297 -0.00132913 -0.00349966 0.00309624 0.00046651
1683613559.450983 0.06529975 -0.09054780 0.00852598 -0.00289898 0.00318748 0.00041106
1683613559.517698 0.05444363 -0.06758999 0.00259911 -0.00312352 0.00264536 0.00024441
1683613559.584412 0.05974003 -0.07384953 0.00400915 -0.00278725 0.00245258 0.00011469
1683613559.651127 0.06078111 -0.07486590 0.00438254 -0.00259038 0.00228944 -0.00023227
1683613559.717842 0.06626336 -0.07924375 0.00526156 -0.00221813 0.00192242 -0.00057946
1683613559.784556 0.06918532 -0.08434644 0.00623050 -0.00163610 0.00199116 -0.00083789
1683613559.851271 0.06221053 -0.07768520 0.00477751 -0.00143655 0.00202573 -0.00079600
1683613559.917986 0.05536992 -0.07088250 0.00348763 -0.00165737 0.00221775 -0.00077346
1683613559.984701 0.05549406 -0.07209317 0.00404735 -0.00146543 0.00253846 -0.00020779
1683613560.051417 0.05233920 -0.07060069 0.00328770 -0.00156454 0.00247747 -0.00030243
1683613560.118133 0.04892795 -0.07052747 0.00300452 -0.00120125 0.00260057 0.00018406
1683613560.184849 0.05370140 -0.07417082 0.00430078 -0.00110474 0.00252090 0.00013808
1683613560.251565 0.04771295 -0.07174178 0.00303388 -0.00083347 0.00258955 0.00033745
1683613560.318280 0.04572913 -0.07104674 0.00257719 -0.00073202 0.00254070 0.00041971
1683613560.384997 0.04469509 -0.06967407 0.00188456 -0.00066354 0.00251546 0.00034474
1683613560.451712 0.03928175 -0.06824793 0.00014955 -0.00046896 0.00251490 0.00032452
1683613560.518429 0.03541750 -0.06548186 -0.00114012 -0.00063145 0.00285264 0.00038521
1683613560.585145 0.02520376 -0.06707485 -0.00147465 -0.00077340 0.00332195 0.00038216
1683613560.651860 0.01679719 -0.06851721 -0.00271441 -0.00087572 0.00368085 0.00040810
1683613560.718576 0.01367739 -0.06817172 -0.00185898 -0.00095608 0.00371189 0.00034314
1683613560.785292 0.01820815 -0.06753538 -0.00118638 -0.00094113 0.00354073 0.00029106
1683613560.852009 0.02635341 -0.06800979 -0.00107365 -0.00081119 0.00348606 0.00030642
1683613560.918725 0.02659824 -0.06887059 -0.00106676 -0.00074034 0.00335003 0.00032113
1683613560.985440 0.02538037 -0.06853663 -0.00095636 -0.00076962 0.00328150 0.00032067
1683613561.052155 0.02929101 -0.06844380 -0.00065393 -0.00079444 0.00315102 0.00030873
1683613561.118870 0.03725633 -0.06883133 -0.00038961 -0.00074055 0.00291515 0.00026407
1683613561.185585 0.05507537 -0.06896885 0.00082987 -0.00076319 0.00259556 0.00019983
1683613561.252301 0.08255339 -0.07195229 0.00255136 -0.00053807 0.00235356 0.00004716
1683613561.319016 0.07674243 -0.07305382 0.00188496 -0.00055321 0.00213884 0.00003534
1683613561.385731 0.09220803 -0.07387641 0.00296504 -0.00041095 0.00178157 0.00006737
1683613561.452446 0.10227034 -0.07487519 0.00371746 -0.00035151 0.00142368 0.00013448
1683613561.519161 0.10616394 -0.07446240 0.00385833 -0.00027271 0.00127331 0.00027133
1683613561.585876 0.09960154 -0.07281928 0.00345935 -0.00042989 0.00103222 0.00017791
1683613561.652591 0.09516115 -0.07233683 0.00291109 -0.00031717 0.00103364 0.00021189
1683613561.719306 0.08758405 -0.07040186 0.00242540 -0.00047775 0.00103467 0.00004503
1683613561.786021 0.08006211 -0.06976753 0.00169203 -0.00049253 0.00121696 0.00013879
1683613561.852736 0.06925849 -0.06957126 0.00059332 -0.00045441 0.00140943 0.00046594
1683613561.919451 0.06663728 -0.06813262 0.00021195 -0.00057938 0.00155853 0.00055464
1683613561.986167 0.05873914 -0.06931908 -0.00034324 -0.00079380 0.00161937 0.00050484
1683613562.052884 0.05160394 -0.06965734 -0.00153647 -0.00082348 0.00164192 0.00059811
1683613562.119600 0.04769387 -0.06933249 -0.00244591 -0.00082993 0.00170285 0.00064822
1683613562.186317 0.04890883 -0.06964884 -0.00217997 -0.00080763 0.00163657 0.00062789
1683613562.253034 0.04853978 -0.06926337 -0.00250071 -0.00080207 0.00168867 0.00074771
1683613562.319751 0.04878613 -0.06936876 -0.00258657 -0.00083498 0.00176219 0.00080616
1683613562.386467 0.04864597 -0.06920780 -0.00270205 -0.00079344 0.00180010 0.00077295
1683613562.453184 0.04759133 -0.06961109 -0.00225797 -0.00078346 0.00168055 0.00071122
1683613562.519901 0.04677781 -0.07017944 -0.00184804 -0.00079681 0.00160972 0.00077075
1683613562.586617 0.04698384 -0.06989799 -0.00208178 -0.00077983 0.00164036 0.00083717
1683613562.653334 0.04708629 -0.06913682 -0.00267624 -0.00070372 0.00155087 0.00090354
1683613562.720051 0.04716933 -0.06897661 -0.00282695 -0.00066009 0.00156348 0.00084837
1683613562.786768 0.04793386 -0.06915342 -0.00345221 -0.00069325 0.00164279 0.00087489
1683613562.853485 0.04684111 -0.06931146 -0.00270814 -0.00073291 0.00160081 0.00095082
1683613562.920202 0.04651148 -0.06996756 -0.00241950 -0.00072857 0.00152894 0.00098985
1683613562.986919 0.04591935 -0.07011673 -0.00217430 -0.00071617 0.00148869 0.00099542
1683613563.053635 0.04464699 -0.06998362 -0.00217643 -0.00068749 0.00145772 0.00100400
1683613563.120351 0.04520955 -0.06981677 -0.00239506 -0.00062456 0.00149072 0.00098540
1683613563.187067 0.04475863 -0.06980664 -0.00226108 -0.00059431 0.00148309 0.00097327
1683613563.253783 0.04427031 -0.07001469 -0.00212316 -0.00060680 0.00145577 0.00096874
1683613563.320500 0.04315126 -0.07006947 -0.00176700 -0.00064251 0.00139495 0.00097957
1683613563.387216 0.04233450 -0.07009528 -0.00149454 -0.00063349 0.00134915 0.00101626
1683613563.453932 0.04227209 -0.07006501 -0.00158247 -0.00058283 0.00135361 0.00102925
1683613563.520648 0.04229798 -0.07035729 -0.00167627 -0.00057530 0.00141956 0.00101687
1683613563.587365 0.03987349 -0.07053185 -0.00079729 -0.00058976 0.00133614 0.00102983
1683613563.654081 0.04141204 -0.07080132 -0.00108874 -0.00059645 0.00128936 0.00106526
1683613563.720797 0.04112398 -0.07116252 -0.00098624 -0.00060915 0.00130594 0.00107994
1683613563.787514 0.04052348 -0.07121559 -0.00079786 -0.00059180 0.00129003 0.00109781
1683613563.854230 0.03904368 -0.07124562 -0.00066538 -0.00054697 0.00121146 0.00107019
1683613563.920946 0.04009693 -0.07208291 -0.00074892 -0.00054234 0.00124626 0.00106406
1683613563.987663 0.04023833 -0.07239689 -0.00083331 -0.00056337 0.00123958 0.00109408
1683613564.054381 0.03997587 -0.07276722 -0.00074356 -0.00057521 0.00124603 0.00112715
1683613564.121099 0.03940006 -0.07305369 -0.00053765 -0.00056344 0.00120563 0.00110924
1683613564.187817 0.03910816 -0.07322615 -0.00045229 -0.00056772 0.00117172 0.00110066
1683613564.254534 0.03882570 -0.07337124 -0.00038879 -0.00056182 0.00115907 0.00111649
1683613564.321252 0.03892121 -0.07360428 -0.00044413 -0.00056055 0.00116715 0.00111710
1683613564.387970 0.03773289 -0.07367605 -0.00003437 -0.00056002 0.00111784 0.00113078
1683613564.454688 0.03851286 -0.07367489 -0.00033572 -0.00053802 0.00109410 0.00112446
1683613564.521406 0.03781154 -0.07388861 -0.00013521 -0.00053954 0.00109747 0.00112067
1683613564.588124 0.03784546 -0.07403902 -0.00018014 -0.00054090 0.00110111 0.00113979
1683613564.654842 0.03731200 -0.07422208 -0.00000427 -0.00053135 0.00109082 0.00113536
1683613564.721560 0.03713939 -0.07421564 0.00002684 -0.00052186 0.00106250 0.00112794
1683613564.788278 0.03715319 -0.07431596 0.00000978 -0.00052592 0.00105396 0.00114058
1683613564.854996 0.03695089 -0.07447326 0.00007078 -0.00051813 0.00105795 0.00115552
1683613564.921714 0.03644339 -0.07450429 0.00023578 -0.00049027 0.00103035 0.00114493
1683613564.988431 0.03676530 -0.07457389 0.00012129 -0.00051998 0.00102089 0.00116679
1683613565.055148 0.03651958 -0.07493473 0.00027634 -0.00053375 0.00102171 0.00118494
1683613565.121864 0.03614081 -0.07477430 0.00036324 -0.00049248 0.00098941 0.00116252
1683613565.188581 0.03636851 -0.07467305 0.00022828 -0.00049514 0.00098955 0.00117707
1683613565.255297 0.03595091 -0.07504481 0.00044099 -0.00050329 0.00098552 0.00119187
1683613565.322014 0.03597570 -0.07499547 0.00042142 -0.00049283 0.00096785 0.00118405
1683613565.388730 0.03550646 -0.07491768 0.00050518 -0.00048688 0.00096043 0.00119249
1683613565.455447 0.03567635 -0.07503584 0.00052990 -0.00048470 0.00095470 0.00120496
1683613565.522163 0.03575785 -0.07507489 0.00051508 -0.00048395 0.00093910 0.00120755
1683613565.588880 0.03576094 -0.07509214 0.00049755 -0.00048274 0.00093697 0.00121832
1683613565.655596 0.03551138 -0.07522222 0.00060684 -0.00047125 0.00093031 0.00121908
1683613565.722313 0.03544016 -0.07519737 0.00061073 -0.00046425 0.00092402 0.00121446
1683613565.789030 0.03523575 -0.07524924 0.00069109 -0.00045653 0.00091030 0.00121982
1683613565.855747 0.03529630 -0.07517276 0.00065591 -0.00045094 0.00089872 0.00122782
1683613565.922463 0.03516052 -0.07524777 0.00072598 -0.00044467 0.00088690 0.00122842
1683613565.989180 0.03511153 -0.07517812 0.00073092 -0.00043767 0.00087478 0.00122871
1683613566.055897 0.03500819 -0.07519580 0.00076627 -0.00043148 0.00086672 0.00123346
1683613566.122614 0.03487551 -0.07518367 0.00080743 -0.00042359 0.00085760 0.00123888
1683613566.189331 0.03485941 -0.07511106 0.00079263 -0.00041181 0.00085065 0.00124175
1683613566.256048 0.03469674 -0.07518199 0.00087258 -0.00040792 0.00084064 0.00124422
1683613566.322765 0.03472070 -0.07513369 0.00085581 -0.00040353 0.00083184 0.00124611
1683613566.389482 0.03465450 -0.07513987 0.00087110 -0.00039751 0.00082741 0.00124846
1683613566.456198 0.03459888 -0.07515918 0.00089145 -0.00039042 0.00082261 0.00124871
1683613566.522916 0.03449061 -0.07520042 0.00094621 -0.00038730 0.00081563 0.00124737
1683613566.589633 0.03448078 -0.07517070 0.00094278 -0.00038229 0.00080918 0.00124743
1683613566.656350 0.03438019 -0.07519234 0.00098413 -0.00037657 0.00080389 0.00124812
1683613566.723067 0.03429444 -0.07521069 0.00103359 -0.00037318 0.00079438 0.00124722
1683613566.789784 0.03430431 -0.07513634 0.00101604 -0.00036875 0.00078763 0.00124953
1683613566.856501 0.03425795 -0.07516467 0.00102826 -0.00036395 0.00078584 0.00125386
1683613566.923218 0.03411669 -0.07521302 0.00110000 -0.00035912 0.00077900 0.00125666
1683613566.989936 0.03416635 -0.07514478 0.00107261 -0.00035438 0.00077296 0.00125577
1683613567.056655 0.03410207 -0.07521322 0.00110342 -0.00035460 0.00077147 0.00125804
1683613567.123374 0.03398664 -0.07525908 0.00117372 -0.00034925 0.00076326 0.00126114
1683613567.190093 0.03405622 -0.07517509 0.00113830 -0.00034568 0.00075536 0.00126071
1683613567.256812 0.03401594 -0.07518059 0.00115595 -0.00034307 0.00075039 0.00126086
1683613567.323531 0.03394448 -0.07517885 0.00119357 -0.00034029 0.00074363 0.00126410
1683613567.390251 0.03405708 -0.07516465 0.00114272 -0.00034026 0.00074073 0.00126534
1683613567.456970 0.03396685 -0.07526841 0.00120167 -0.00034047 0.00073915 0.00126617
1683613567.523689 0.03390976 -0.07528586 0.00124101 -0.00033738 0.00073300 0.00126574
1683613567.590409 0.03392576 -0.07524750 0.00123478 -0.00033436 0.00072722 0.00126397
1683613567.657128 0.03386426 -0.07523582 0.00126297 -0.00032949 0.00072194 0.00126365
1683613567.723847 0.03383708 -0.07520094 0.00127378 -0.00032537 0.00071727 0.00126348
1683613567.790566 0.03384349 -0.07519859 0.00127130 -0.00032235 0.00071415 0.00126057
1683613567.857286 0.03378304 -0.07519718 0.00129831 -0.00031918 0.00070867 0.00125900
1683613567.924005 0.03382154 -0.07515262 0.00127429 -0.00031642 0.00070490 0.00125995
1683613567.990724 0.03374824 -0.07512491 0.00130550 -0.00030891 0.00069981 0.00126013
1683613568.057443 0.03367798 -0.07510218 0.00134797 -0.00030375 0.00069264 0.00125889
1683613568.124161 0.03373374 -0.07513630 0.00133848 -0.00030901 0.00068954 0.00125987
1683613568.190880 0.03381017 -0.07518490 0.00132071 -0.00031284 0.00068833 0.00125944
1683613568.257599 0.03372788 -0.07528388 0.00138499 -0.00031237 0.00068645 0.00125591
1683613568.324317 0.03377755 -0.07519890 0.00134293 -0.00030693 0.00068337 0.00125221
1683613568.391036 0.03359442 -0.07519700 0.00143160 -0.00029968 0.00067596 0.00125240
1683613568.457755 0.03368658 -0.07517349 0.00142535 -0.00030182 0.00066452 0.00125023
1683613568.524473 0.03393692 -0.07527136 0.00134123 -0.00031407 0.00067516 0.00124047
1683613568.591192 0.03353463 -0.07539502 0.00148101 -0.00031025 0.00067007 0.00123786
1683613568.657911 0.03356921 -0.07539716 0.00141135 -0.00028755 0.00064221 0.00124300
1683613568.724630 0.03368359 -0.07571822 0.00147184 -0.00029323 0.00064938 0.00123274
1683613568.791349 0.03353389 -0.07585516 0.00156350 -0.00029205 0.00063738 0.00122321
1683613568.858068 0.03342516 -0.07585154 0.00161949 -0.00028436 0.00062054 0.00120350
1683613568.924787 0.03332405 -0.07575958 0.00164295 -0.00027964 0.00059648 0.00119133
1683613568.991500 0.03315664 -0.07564102 0.00137407 -0.00026775 0.00062338 0.00118488
1683613569.058214 0.03347141 -0.07575533 0.00131831 -0.00026358 0.00068869 0.00118388
1683613569.124928 0.03416072 -0.07564317 0.00155023 -0.00027220 0.00064270 0.00116182
1683613569.191642 0.03321162 -0.07555405 0.00180213 -0.00026139 0.00064154 0.00114559
1683613569.258356 0.03299524 -0.07565618 0.00149438 -0.00024681 0.00066112 0.00114966
1683613569.325070 0.03255191 -0.07556273 0.00141489 -0.00023346 0.00067382 0.00115217
1683613569.391783 0.03215756 -0.07511307 0.00155736 -0.00019294 0.00064676 0.00115118
1683613569.458497 0.03255742 -0.07514450 0.00152215 -0.00017092 0.00060281 0.00113672
1683613569.525211 0.03235802 -0.07477234 0.00147516 -0.00015816 0.00056582 0.00112626
1683613569.591924 0.03238569 -0.07528817 0.00149148 -0.00017321 0.00052207 0.00112865
1683613569.658638 0.03335805 -0.07291661 0.00102167 -0.00017996 0.00046603 0.00111694
1683613569.725352 0.03318264 -0.07275681 0.00092193 -0.00018332 0.00048674 0.00112422
1683613569.792065 0.03304414 -0.07078795 0.00057568 -0.00017578 0.00046778 0.00112329
1683613569.858779 0.03292228 -0.06982119 0.00049290 -0.00016708 0.00049058 0.00111615
1683613569.925493 0.03299329 -0.07227908 0.00066510 -0.00017769 0.00046186 0.00111116
1683613569.992206 0.03324810 -0.07389405 0.00089353 -0.00018456 0.00043853 0.00110073
1683613570.058920 0.03302027 -0.06942590 0.00034044 -0.00017426 0.00038185 0.00109458
1683613570.125634 0.03341440 -0.07345108 0.00071994 -0.00017708 0.00039678 0.00108642
1683613570.192348 0.03375325 -0.06828941 0.00015835 -0.00017694 0.00035286 0.00107919
1683613570.259062 0.03334626 -0.07123136 0.00048087 -0.00017019 0.00037251 0.00107359
1683613570.325776 0.03343941 -0.07217151 0.00054893 -0.00017332 0.00036942 0.00107814
1683613570.392490 0.03281182 -0.06638217 0.00008326 -0.00018368 0.00033103 0.00105975
1683613570.459204 0.03341211 -0.07119998 0.00041650 -0.00018268 0.00033140 0.00105514
1683613570.525918 0.03152117 -0.06039835 -0.00028031 -0.00016967 0.00028161 0.00104170
1683613570.592632 0.03358948 -0.06999510 0.00028544 -0.00016862 0.00031932 0.00104900
1683613570.659346 0.03407613 -0.07121179 0.00032363 -0.00016650 0.00031334 0.00104989
1683613570.726059 0.03509345 -0.07160146 0.00022359 -0.00017703 0.00027984 0.00103571
1683613570.792773 0.03512510 -0.07143506 0.00019390 -0.00017571 0.00028277 0.00104229
1683613570.859487 0.03543583 -0.07130024 0.00014829 -0.00018300 0.00028274 0.00103288
1683613570.926201 0.03112259 -0.05764683 -0.00038223 -0.00019173 0.00023477 0.00099440
1683613570.992915 0.03236207 -0.06137107 -0.00029083 -0.00018274 0.00024031 0.00100781
1683613571.059629 0.03551693 -0.06948021 -0.00002016 -0.00018264 0.00027202 0.00102387
1683613571.126343 0.03561079 -0.06892512 -0.00007534 -0.00018434 0.00026721 0.00102207
1683613571.193058 0.03542853 -0.06711041 -0.00018262 -0.00019019 0.00026596 0.00102016
1683613571.259772 0.03530354 -0.06542626 -0.00028728 -0.00019316 0.00026279 0.00103398
1683613571.326486 0.03553704 -0.06320300 -0.00046474 -0.00019761 0.00025188 0.00103155
1683613571.393200 0.03562298 -0.06179735 -0.00058151 -0.00020089 0.00027635 0.00103050
1683613571.459914 0.03611115 -0.06187014 -0.00065142 -0.00023868 0.00028054 0.00102940
1683613571.526628 0.03666863 -0.06273266 -0.00067681 -0.00026981 0.00026562 0.00102911
1683613571.593342 0.03689037 -0.06188452 -0.00078835 -0.00027916 0.00027393 0.00103106
1683613571.660056 0.03726067 -0.05837922 -0.00113937 -0.00031643 0.00031387 0.00105830
1683613571.726770 0.03745474 -0.05965369 -0.00103936 -0.00033082 0.00031985 0.00106552
1683613571.793484 0.03864976 -0.06196027 -0.00097910 -0.00036381 0.00033227 0.00106111
1683613571.860198 0.03864851 -0.06216117 -0.00098187 -0.00035948 0.00033565 0.00105697
1683613571.926912 0.03887267 -0.06189429 -0.00106474 -0.00036893 0.00034840 0.00107185
1683613571.993627 0.03896499 -0.06248133 -0.00101519 -0.00036766 0.00036523 0.00107093
1683613572.060341 0.03915281 -0.06301388 -0.00100273 -0.00038337 0.00037739 0.00106777
1683613572.127055 0.03871532 -0.06210170 -0.00105401 -0.00039088 0.00036631 0.00106130
1683613572.193770 0.03975303 -0.06722922 -0.00064222 -0.00040067 0.00039865 0.00106432
1683613572.260484 0.03814019 -0.06216805 -0.00090969 -0.00039819 0.00039017 0.00106318
1683613572.327199 0.03711748 -0.05800239 -0.00139586 -0.00038719 0.00038524 0.00107216
1683613572.393913 0.03729269 -0.06124806 -0.00083469 -0.00036765 0.00043657 0.00107909
1683613572.460628 0.03589310 -0.05668886 -0.00142771 -0.00038197 0.00038651 0.00106155
1683613572.527342 0.03515710 -0.05594440 -0.00141185 -0.00037372 0.00037728 0.00105013
1683613572.594056 0.03488999 -0.05550974 -0.00147829 -0.00036450 0.00037410 0.00105150
1683613572.660770 0.03519420 -0.05440301 -0.00172635 -0.00035418 0.00035953 0.00104747
1683613572.727485 0.03429345 -0.05490010 -0.00152832 -0.00035041 0.00036562 0.00105383
1683613572.794199 0.03600600 -0.05421393 -0.00185910 -0.00035065 0.00033287 0.00105833
1683613572.860913 0.03455736 -0.05464609 -0.00149298 -0.00032760 0.00034243 0.00108763
1683613572.927627 0.03435449 -0.05465585 -0.00147965 -0.00030257 0.00033610 0.00109994
1683613572.994342 0.03387776 -0.05513367 -0.00135030 -0.00028590 0.00034527 0.00111302
1683613573.061056 0.03374628 -0.05543341 -0.00136830 -0.00027135 0.00034432 0.00112619
1683613573.127770 0.03405287 -0.05533615 -0.00139342 -0.00025701 0.00033531 0.00112612
1683613573.194484 0.03391485 -0.05562047 -0.00142858 -0.00024841 0.00033141 0.00112594
1683613573.261199 0.03328533 -0.05551863 -0.00132771 -0.00024461 0.00033245 0.00112788
1683613573.327913 0.03309919 -0.05540737 -0.00127708 -0.00024885 0.00032142 0.00114718
1683613573.394627 0.03346673 -0.05574054 -0.00135364 -0.00025203 0.00030910 0.00114751
1683613573.461341 0.03316868 -0.05585210 -0.00133340 -0.00026593 0.00029578 0.00113843
1683613573.528055 0.03501299 -0.05707294 -0.00155472 -0.00027766 0.00030037 0.00115107
1683613573.594769 0.03650484 -0.05814170 -0.00170729 -0.00029434 0.00029689 0.00116081
1683613573.661483 0.03578109 -0.05708972 -0.00160913 -0.00031451 0.00029194 0.00116228
1683613573.728197 0.03439970 -0.05684371 -0.00145080 -0.00032360 0.00028279 0.00116008
1683613573.794911 0.03517936 -0.05771959 -0.00150115 -0.00033049 0.00026985 0.00117224
1683613573.861625 0.03464268 -0.05734830 -0.00144511 -0.00034741 0.00027676 0.00117491
1683613573.928339 0.03028157 -0.05597514 -0.00101280 -0.00036803 0.00028431 0.00117246
1683613573.995055 0.02713391 -0.05502056 -0.00070449 -0.00037237 0.00028981 0.00117120
1683613574.062507 0.02585415 -0.05463894 -0.00059012 -0.00038068 0.00032937 0.00117352
1683613574.129969 0.02528357 -0.05448111 -0.00053424 -0.00037712 0.00037199 0.00117821
1683613574.197440 0.02322788 -0.05431722 -0.00021730 -0.00035773 0.00041770 0.00117866
1683613574.264921 0.01513816 -0.05216861 0.00081344 -0.00036464 0.00046544 0.00115833
1683613574.332411 0.01684606 -0.05400769 0.00087668 -0.00031250 0.00048452 0.00118858
1683613574.399911 0.01448393 -0.05337256 0.00118633 -0.00029753 0.00047972 0.00118290
1683613574.467420 0.01323672 -0.05290609 0.00134376 -0.00028982 0.00046543 0.00117063
1683613574.534938 0.01311122 -0.05138326 0.00147052 -0.00031603 0.00043940 0.00114452
1683613574.602466 0.01366498 -0.05241178 0.00134456 -0.00028841 0.00043852 0.00114978
1683613574.670003 0.01418607 -0.05292931 0.00124909 -0.00026344 0.00043092 0.00115515
1683613574.737550 0.01462132 -0.05318651 0.00118949 -0.00025738 0.00040231 0.00115475
1683613574.805106 0.01388350 -0.05173870 0.00133799 -0.00030645 0.00035836 0.00112183
1683613574.872672 0.01593862 -0.05360726 0.00106407 -0.00025261 0.00034503 0.00115947
1683613574.940247 0.01608104 -0.05281727 0.00108832 -0.00027887 0.00030865 0.00113785
1683613575.007821 0.01679687 -0.05339892 0.00102279 -0.00023601 0.00028372 0.00115266
1683613575.074462 0.01668469 -0.05272240 0.00100404 -0.00026103 0.00026449 0.00112532
1683613575.141102 0.01618679 -0.05346448 0.00088125 -0.00022461 0.00025979 0.00113712
1683613575.207740 0.01662142 -0.05274675 0.00096350 -0.00023658 0.00025037 0.00110129
1683613575.274376 0.01408400 -0.05397430 0.00057015 -0.00020789 0.00025030 0.00112220
1683613575.341012 0.01255625 -0.05439065 0.00035379 -0.00020661 0.00024275 0.00111878
1683613575.407646 0.00920518 -0.05495579 0.00001874 -0.00021578 0.00024801 0.00110909
1683613575.474279 0.00680785 -0.05526323 -0.00020383 -0.00022529 0.00025321 0.00109056
1683613575.540911 0.00738094 -0.05550452 -0.00021652 -0.00021868 0.00025335 0.00109080
1683613575.607541 0.00675942 -0.05542856 -0.00023449 -0.00020404 0.00024652 0.00109398
1683613575.674170 0.00355211 -0.05560631 -0.00040903 -0.00019789 0.00025712 0.00109701
1683613575.740798 -0.00213060 -0.05583924 -0.00064073 -0.00023252 0.00024214 0.00105047
1683613575.807424 0.00075615 -0.05596739 -0.00061371 -0.00019555 0.00027362 0.00107400
1683613575.874049 -0.00032054 -0.05581072 -0.00063931 -0.00019240 0.00027680 0.00107289
1683613575.940673 -0.00086791 -0.05577548 -0.00070445 -0.00019118 0.00028829 0.00106383
1683613576.007298 0.00101602 -0.05578884 -0.00064986 -0.00018981 0.00029898 0.00106643
1683613576.073939 0.00350008 -0.05581837 -0.00060489 -0.00018984 0.00030479 0.00106736
1683613576.140579 0.00373868 -0.05568278 -0.00060856 -0.00018591 0.00031097 0.00106424
1683613576.207218 -0.00377829 -0.05481924 -0.00068638 -0.00018767 0.00031613 0.00105418
1683613576.273856 0.00267995 -0.05531742 -0.00065476 -0.00017580 0.00035527 0.00106975
1683613576.340492 0.00491921 -0.05553740 -0.00063741 -0.00019336 0.00035646 0.00106593
1683613576.407127 0.00397886 -0.05526874 -0.00062353 -0.00020500 0.00034938 0.00105976
1683613576.473761 0.00954961 -0.05619000 -0.00057251 -0.00019071 0.00037429 0.00107479
1683613576.540393 0.01192122 -0.05692770 -0.00053255 -0.00018807 0.00038270 0.00108446
1683613576.607024 0.01115497 -0.05640489 -0.00057063 -0.00018052 0.00038919 0.00109778
1683613576.673654 0.01067946 -0.05587013 -0.00055205 -0.00016205 0.00040923 0.00110514
1683613576.740282 0.01121219 -0.05642236 -0.00047394 -0.00017688 0.00040610 0.00108923
1683613576.806909 0.01396351 -0.05730957 -0.00048964 -0.00016059 0.00039661 0.00109466
1683613576.873535 0.01401095 -0.05685163 -0.00053541 -0.00014504 0.00038610 0.00110071
1683613576.940160 0.01434451 -0.05694051 -0.00053062 -0.00013081 0.00039869 0.00110097
1683613577.006785 0.01265856 -0.05620929 -0.00052821 -0.00012885 0.00040278 0.00110828
1683613577.073427 0.01079525 -0.05623809 -0.00038304 -0.00012289 0.00040163 0.00108628
1683613577.140068 0.01023590 -0.05542619 -0.00054100 -0.00007863 0.00041210 0.00109764
1683613577.206707 0.01032428 -0.05548798 -0.00064123 -0.00005482 0.00042444 0.00105716
1683613577.273346 0.01242330 -0.05616469 -0.00058052 -0.00004165 0.00042389 0.00101217
1683613577.339983 0.01344471 -0.05630628 -0.00047564 -0.00003246 0.00041007 0.00099442
1683613577.406618 0.01176841 -0.05598097 -0.00039135 -0.00002895 0.00040348 0.00098940
1683613577.473253 0.00749949 -0.05463446 -0.00040368 -0.00002949 0.00040568 0.00099031
1683613577.539886 0.00388556 -0.05379360 -0.00037782 -0.00005971 0.00042266 0.00100204
1683613577.606517 0.00074445 -0.05164981 -0.00051197 -0.00008122 0.00042560 0.00100540
1683613577.673148 0.00057981 -0.05222490 -0.00044410 -0.00010373 0.00042966 0.00099306
1683613577.739777 0.00213065 -0.05275931 -0.00049994 -0.00011659 0.00040623 0.00097794
1683613577.806405 0.00249205 -0.05450875 -0.00034087 -0.00015861 0.00037491 0.00093900
1683613577.873032 0.00313690 -0.05439683 -0.00046033 -0.00016313 0.00036048 0.00093045
1683613577.939657 0.00329432 -0.05471527 -0.00080971 -0.00016180 0.00035332 0.00094410
1683613578.006283 0.00394168 -0.05399270 -0.00098092 -0.00017401 0.00035630 0.00095107
1683613578.072926 0.00401863 -0.05173115 -0.00082359 -0.00019267 0.00035150 0.00096281
1683613578.139567 0.00384512 -0.05066156 -0.00088355 -0.00020232 0.00032386 0.00098184
1683613578.206207 0.00353848 -0.04916548 -0.00064053 -0.00020610 0.00031035 0.00100898
1683613578.272846 0.00280833 -0.04999758 -0.00041680 -0.00022598 0.00029896 0.00104533
1683613578.339483 0.00286924 -0.04973091 -0.00042745 -0.00022334 0.00030256 0.00106154
1683613578.406120 0.00229032 -0.05015006 -0.00034126 -0.00022419 0.00029445 0.00107090
1683613578.472755 0.00268266 -0.05083242 -0.00034643 -0.00022620 0.00029165 0.00110341
