timestamp ba_x ba_y ba_z bg_x bg_y bg_z
1680836377.251647 0.00005245 -0.00051840 -0.02037115 0.00033586 0.00001039 0.00839273
1680836377.318552 0.00005758 -0.00053365 -0.02111819 0.00024810 0.00000349 0.00839063
1680836377.385466 0.00006338 -0.00054858 -0.02186583 0.00012083 0.00000275 0.00836651
1680836377.452389 0.00007237 -0.00056752 -0.02287652 0.00008287 0.00009294 0.00837545
1680836377.519322 0.00008069 -0.00055398 -0.02303613 0.00014283 0.00018843 0.00838006
1680836377.586263 0.00008641 -0.00053570 -0.02317719 0.00016066 0.00021421 0.00836972
1680836377.653214 0.00009333 -0.00052360 -0.02356939 0.00014587 0.00017503 0.00833933
1680836377.720174 0.00010257 -0.00049789 -0.02355251 0.00010621 0.00014057 0.00836327
1680836377.787144 0.00011419 -0.00047422 -0.02348301 0.00005831 0.00009926 0.00837782
1680836377.854121 0.00013018 -0.00045849 -0.02377290 0.00002454 0.00009873 0.00835873
1680836377.920813 0.00014027 -0.00044125 -0.02388108 0.00002478 0.00013301 0.00836620
1680836377.987505 0.00015024 -0.00041891 -0.02373087 0.00006299 0.00019094 0.00845089
1680836378.054196 0.00016044 -0.00039324 -0.02366056 0.00008112 0.00011640 0.00839661
1680836378.120888 0.00016994 -0.00038541 -0.02387116 0.00007928 0.00010343 0.00833236
1680836378.187581 0.00018440 -0.00035611 -0.02372617 0.00006961 0.00014081 0.00833772
1680836378.254273 0.00019005 -0.00033648 -0.02384464 0.00006172 0.00018833 0.00834168
1680836378.320965 0.00019787 -0.00031527 -0.02386932 0.00007522 0.00015397 0.00833672
1680836378.387657 0.00021056 -0.00028706 -0.02384784 0.00007312 0.00010447 0.00834452
1680836378.454348 0.00022312 -0.00027387 -0.02407526 0.00005840 0.00008580 0.00833966
1680836378.521040 0.00022770 -0.00026053 -0.02399222 0.00005503 0.00009059 0.00836333
1680836378.587733 0.00023824 -0.00025038 -0.02410953 0.00006703 0.00007388 0.00837196
1680836378.654425 0.00025361 -0.00022412 -0.02391596 0.00005039 0.00009954 0.00838650
1680836378.721117 0.00025902 -0.00022130 -0.02408812 0.00002082 0.00012112 0.00838806
1680836378.787809 0.00026819 -0.00021302 -0.02420260 0.00001571 0.00012401 0.00835789
1680836378.854501 0.00028278 -0.00019541 -0.02411964 0.00001814 0.00013299 0.00837659
1680836378.921198 0.00028229 -0.00019467 -0.02427254 0.00001849 0.00014117 0.00838004
1680836378.987896 0.00029418 -0.00018331 -0.02414329 0.00001056 0.00016028 0.00843184
1680836379.054595 0.00030084 -0.00017324 -0.02418809 -0.00000245 0.00011103 0.00845043
1680836379.121293 0.00031583 -0.00016171 -0.02423205 -0.00000780 0.00010244 0.00839760
1680836379.187991 0.00031654 -0.00016849 -0.02446802 -0.00000653 0.00010278 0.00838240
1680836379.254689 0.00031954 -0.00016707 -0.02446790 0.00000803 0.00010000 0.00838490
1680836379.321388 0.00032751 -0.00015468 -0.02430309 0.00000451 0.00012492 0.00842770
1680836379.388085 0.00033179 -0.00015342 -0.02443956 -0.00000220 0.00010791 0.00839530
1680836379.454783 0.00032710 -0.00016740 -0.02467992 0.00000466 0.00009103 0.00835588
1680836379.521482 0.00032089 -0.00017575 -0.02467386 0.00001826 0.00009138 0.00837656
1680836379.588181 0.00032925 -0.00016462 -0.02453600 0.00001387 0.00007537 0.00839678
1680836379.654879 0.00033974 -0.00015661 -0.02455254 -0.00000763 0.00011360 0.00838645
1680836379.721578 0.00034007 -0.00015844 -0.02459917 -0.00001670 0.00015512 0.00842956
1680836379.788276 0.00034257 -0.00015506 -0.02457256 -0.00001737 0.00014233 0.00839626
1680836379.854975 0.00033720 -0.00016690 -0.02469861 -0.00000949 0.00012240 0.00835150
1680836379.921669 0.00034430 -0.00015410 -0.02463778 -0.00001361 0.00011472 0.00834047
1680836379.988362 0.00034471 -0.00015368 -0.02464485 -0.00002392 0.00010684 0.00833822
1680836380.055056 0.00032168 -0.00018546 -0.02483422 -0.00003572 0.00014232 0.00834068
1680836380.121749 0.00032399 -0.00017378 -0.02466839 -0.00004075 0.00013727 0.00834286
1680836380.188443 0.00032328 -0.00017709 -0.02475829 -0.00003822 0.00012854 0.00833870
1680836380.255135 0.00032734 -0.00016340 -0.02469333 -0.00004490 0.00012225 0.00833286
1680836380.321828 0.00031246 -0.00018376 -0.02483705 -0.00005156 0.00011491 0.00832651
1680836380.388521 0.00029069 -0.00020934 -0.02491741 -0.00006307 0.00011971 0.00831855
1680836380.455215 0.00026965 -0.00023156 -0.02496767 -0.00005936 0.00012879 0.00832237
1680836380.521908 0.00025966 -0.00022951 -0.02474605 -0.00004838 0.00012187 0.00835048
1680836380.588601 0.00026447 -0.00022505 -0.02471277 -0.00005857 0.00012677 0.00836509
1680836380.655294 0.00025591 -0.00023658 -0.02485284 -0.00006071 0.00013349 0.00834562
1680836380.721986 0.00023918 -0.00025364 -0.02491972 -0.00006449 0.00013090 0.00833949
1680836380.788679 0.00023918 -0.00025364 -0.02491972 -0.00006449 0.00013090 0.00833949
1680836380.855372 0.00023794 -0.00024883 -0.02478372 -0.00007218 0.00013245 0.00834007
1680836380.922062 0.00022580 -0.00026020 -0.02485348 -0.00009075 0.00014966 0.00836669
1680836380.988752 0.00020942 -0.00028199 -0.02492779 -0.00009821 0.00014251 0.00837983
1680836381.055442 0.00019804 -0.00029137 -0.02491420 -0.00009505 0.00014979 0.00838586
1680836381.122131 0.00017757 -0.00031368 -0.02498578 -0.00009874 0.00014140 0.00836700
1680836381.188821 0.00015554 -0.00031433 -0.02484935 -0.00010685 0.00014457 0.00838811
1680836381.255510 0.00014504 -0.00033169 -0.02492404 -0.00010005 0.00013627 0.00838494
1680836381.322200 0.00014504 -0.00033169 -0.02492404 -0.00010005 0.00013627 0.00838494
1680836381.388890 0.00014504 -0.00033169 -0.02492404 -0.00010005 0.00013627 0.00838494
1680836381.455580 0.00012620 -0.00035757 -0.02501145 -0.00011903 0.00013258 0.00838566
1680836381.522269 0.00011282 -0.00037947 -0.02500509 -0.00012051 0.00013452 0.00839040
1680836381.588958 0.00009656 -0.00040620 -0.02505047 -0.00012281 0.00013473 0.00839071
1680836381.655648 0.00004989 -0.00043601 -0.02513964 -0.00012868 0.00014009 0.00839806
1680836381.722337 0.00001736 -0.00047910 -0.02508648 -0.00013600 0.00014320 0.00840893
1680836381.789026 -0.00000930 -0.00049731 -0.02505797 -0.00013403 0.00014282 0.00840894
1680836381.855716 -0.00001936 -0.00051991 -0.02508195 -0.00012295 0.00014871 0.00840984
1680836381.922411 0.00000150 -0.00057175 -0.02506894 -0.00011784 0.00015198 0.00841531
1680836381.989105 0.00000040 -0.00058300 -0.02507149 -0.00012426 0.00015468 0.00841889
1680836382.055799 0.00000527 -0.00058408 -0.02508079 -0.00012767 0.00015740 0.00842493
1680836382.122493 0.00004242 -0.00060108 -0.02504140 -0.00012539 0.00015142 0.00842673
1680836382.189188 0.00003262 -0.00059543 -0.02512767 -0.00014252 0.00015388 0.00842907
1680836382.255882 -0.00001163 -0.00060017 -0.02516338 -0.00015611 0.00015244 0.00843121
1680836382.322577 -0.00001525 -0.00060961 -0.02514459 -0.00015171 0.00014979 0.00842933
1680836382.389271 -0.00001000 -0.00062046 -0.02512841 -0.00014760 0.00014747 0.00843069
1680836382.455964 -0.00000208 -0.00063243 -0.02513427 -0.00014839 0.00014246 0.00842966
1680836382.522659 0.00001864 -0.00064997 -0.02520409 -0.00014760 0.00014627 0.00843390
1680836382.589353 0.00005544 -0.00064581 -0.02520877 -0.00014972 0.00014905 0.00843773
1680836382.656048 0.00012079 -0.00065243 -0.02517130 -0.00014852 0.00014905 0.00844023
1680836382.722742 0.00017029 -0.00067812 -0.02518446 -0.00014968 0.00014710 0.00844125
1680836382.789436 0.00019169 -0.00069157 -0.02516961 -0.00015591 0.00014789 0.00844275
1680836382.856130 0.00019169 -0.00069157 -0.02516961 -0.00015591 0.00014789 0.00844275
1680836382.922822 0.00028806 -0.00067148 -0.02515090 -0.00016420 0.00015289 0.00844705
1680836382.989514 0.00031330 -0.00068221 -0.02514784 -0.00016970 0.00014800 0.00844714
1680836383.056207 0.00034997 -0.00078215 -0.02514517 -0.00016902 0.00014597 0.00845083
1680836383.122900 0.00039752 -0.00076032 -0.02513465 -0.00017883 0.00014660 0.00841935
1680836383.189592 0.00041080 -0.00076987 -0.02502302 -0.00017686 0.00010663 0.00842418
1680836383.256284 0.00048224 -0.00088515 -0.02498702 -0.00017121 0.00013215 0.00842288
1680836383.322977 0.00045368 -0.00086095 -0.02502927 -0.00016576 0.00015961 0.00842307
1680836383.389668 0.00057551 -0.00089578 -0.02504752 -0.00016303 0.00011541 0.00841703
1680836383.456360 0.00051816 -0.00089560 -0.02503280 -0.00016044 0.00010534 0.00842730
1680836383.523052 0.00046846 -0.00088239 -0.02504277 -0.00016784 0.00013485 0.00845798
1680836383.589745 0.00065862 -0.00087907 -0.02503337 -0.00016796 0.00014358 0.00846462
1680836383.656437 0.00066608 -0.00088786 -0.02507731 -0.00015922 0.00012873 0.00845177
1680836383.723129 0.00066608 -0.00088786 -0.02507731 -0.00015922 0.00012873 0.00845177
1680836383.789820 0.00078034 -0.00085087 -0.02512295 -0.00015887 0.00015196 0.00842131
1680836383.856512 0.00077296 -0.00086735 -0.02498241 -0.00015766 0.00013521 0.00841958
1680836383.923209 0.00077636 -0.00086111 -0.02503645 -0.00016089 0.00014677 0.00843162
1680836383.989907 0.00083219 -0.00087063 -0.02498793 -0.00016270 0.00016373 0.00843624
1680836384.056604 0.00084550 -0.00086191 -0.02504243 -0.00016411 0.00016700 0.00843338
1680836384.123301 0.00092334 -0.00088137 -0.02499652 -0.00016750 0.00015008 0.00843584
1680836384.189999 0.00094029 -0.00095878 -0.02492247 -0.00016558 0.00011523 0.00844333
1680836384.256695 0.00105808 -0.00095991 -0.02504975 -0.00016569 0.00013621 0.00844280
1680836384.323393 0.00107110 -0.00094752 -0.02501233 -0.00016998 0.00017503 0.00843737
1680836384.390090 0.00104355 -0.00093087 -0.02498791 -0.00016855 0.00018581 0.00844253
1680836384.456788 0.00110902 -0.00089974 -0.02502371 -0.00015799 0.00015491 0.00844186
1680836384.523486 0.00114462 -0.00094258 -0.02494051 -0.00015228 0.00013538 0.00844094
1680836384.590183 0.00119692 -0.00098590 -0.02494255 -0.00015165 0.00013786 0.00844669
1680836384.656881 0.00129098 -0.00095549 -0.02501259 -0.00015065 0.00013055 0.00844266
1680836384.723578 0.00132051 -0.00102235 -0.02487420 -0.00015079 0.00014244 0.00844107
1680836384.790276 0.00137964 -0.00108121 -0.02491288 -0.00015558 0.00015515 0.00844847
1680836384.856974 0.00143623 -0.00111289 -0.02488178 -0.00015487 0.00015955 0.00845441
1680836384.923676 0.00142577 -0.00103990 -0.02504694 -0.00014741 0.00012887 0.00847696
1680836384.990377 0.00150158 -0.00106009 -0.02493408 -0.00014750 0.00013365 0.00848840
1680836385.057080 0.00164967 -0.00117892 -0.02481651 -0.00014937 0.00016699 0.00846818
1680836385.123781 0.00168479 -0.00116630 -0.02492383 -0.00014498 0.00016346 0.00846057
1680836385.190483 0.00174554 -0.00118516 -0.02484074 -0.00014333 0.00016081 0.00845509
1680836385.257185 0.00178747 -0.00116416 -0.02491865 -0.00014424 0.00014575 0.00845607
1680836385.323888 0.00180654 -0.00115479 -0.02483034 -0.00014683 0.00014322 0.00846580
1680836385.390590 0.00189796 -0.00126637 -0.02482092 -0.00014654 0.00015261 0.00847371
1680836385.457293 0.00189139 -0.00123723 -0.02486134 -0.00014450 0.00014596 0.00847458
1680836385.523996 0.00197336 -0.00128814 -0.02483502 -0.00014601 0.00016135 0.00847271
1680836385.590698 0.00197365 -0.00130538 -0.02477450 -0.00014084 0.00017434 0.00847381
1680836385.657401 0.00200870 -0.00129620 -0.02481275 -0.00014012 0.00017411 0.00847503
1680836385.724104 0.00198714 -0.00131423 -0.02474189 -0.00014322 0.00016291 0.00847871
1680836385.790808 0.00205180 -0.00128873 -0.02487177 -0.00014770 0.00015265 0.00847970
1680836385.857512 0.00208713 -0.00127603 -0.02474528 -0.00015236 0.00015761 0.00847978
1680836385.924205 0.00216975 -0.00133890 -0.02473042 -0.00015189 0.00016253 0.00847747
1680836385.990898 0.00216409 -0.00138855 -0.02468912 -0.00014412 0.00015900 0.00848166
1680836386.057590 0.00223418 -0.00138221 -0.02472004 -0.00014226 0.00016491 0.00848702
1680836386.124283 0.00220797 -0.00140897 -0.02458819 -0.00014538 0.00016813 0.00848857
1680836386.190976 0.00226236 -0.00140484 -0.02474119 -0.00014921 0.00016106 0.00849321
1680836386.257669 0.00232607 -0.00142783 -0.02462991 -0.00014709 0.00016342 0.00848314
1680836386.324362 0.00228928 -0.00142827 -0.02455690 -0.00014822 0.00016967 0.00848493
1680836386.391055 0.00233596 -0.00143158 -0.02463753 -0.00015200 0.00016350 0.00849400
1680836386.457747 0.00234922 -0.00144602 -0.02461331 -0.00015151 0.00015198 0.00849062
1680836386.524440 0.00234952 -0.00149397 -0.02453979 -0.00014773 0.00016224 0.00849320
1680836386.591133 0.00230666 -0.00150445 -0.02451924 -0.00014271 0.00016254 0.00849930
1680836386.657825 0.00241270 -0.00154931 -0.02451171 -0.00014179 0.00015002 0.00849412
1680836386.724518 0.00237516 -0.00156533 -0.02446333 -0.00014002 0.00014466 0.00849765
1680836386.791211 0.00244799 -0.00155817 -0.02449007 -0.00014138 0.00016800 0.00850364
1680836386.857904 0.00261586 -0.00152777 -0.02455494 -0.00014264 0.00016721 0.00849988
1680836386.924601 0.00257204 -0.00157378 -0.02433516 -0.00014174 0.00015229 0.00850265
1680836386.991299 0.00261265 -0.00155455 -0.02444986 -0.00014328 0.00015898 0.00850700
1680836387.057997 0.00262852 -0.00154100 -0.02440579 -0.00014908 0.00016414 0.00850400
1680836387.124696 0.00273727 -0.00159192 -0.02436746 -0.00015135 0.00015676 0.00849858
1680836387.191394 0.00273727 -0.00159193 -0.02436747 0.00066663 0.00129886 0.01087265
1680836387.258093 0.00273727 -0.00159192 -0.02436747 0.00017685 -0.00240835 0.00695619
1680836387.324791 0.00273727 -0.00159192 -0.02436746 0.00006606 0.00389609 0.00769981
1680836387.391489 0.00273727 -0.00159192 -0.02436745 -0.00027316 -0.00429901 0.00893925
1680836387.458187 0.00273726 -0.00159192 -0.02436744 0.00049326 0.00273900 0.00902450
1680836387.524886 0.00273726 -0.00159193 -0.02436744 -0.00139465 0.00011492 0.00727216
1680836387.591585 0.00273727 -0.00159192 -0.02436744 -0.00016982 0.00143038 0.00915848
1680836387.658284 0.00273727 -0.00159191 -0.02436747 -0.00065299 -0.00173988 0.00823740
1680836387.724983 0.00273727 -0.00159191 -0.02436748 -0.00041287 0.00263214 0.00911488
1680836387.791680 0.00273725 -0.00159197 -0.02436762 0.00062271 -0.00952819 0.01295202
1680836387.858380 0.00273723 -0.00159201 -0.02436771 -0.00094501 0.00732770 0.00604776
1680836387.925075 0.00273723 -0.00159201 -0.02436771 0.00023638 -0.00058704 0.00660311
1680836387.991770 0.00273723 -0.00159202 -0.02436771 -0.00053863 -0.00076834 0.01479976
1680836388.058465 0.00273721 -0.00159209 -0.02436774 -0.00062970 0.00146683 0.00625405
1680836388.125160 0.00273721 -0.00159208 -0.02436775 0.00006808 -0.00040046 0.00446147
1680836388.191856 0.00273722 -0.00159198 -0.02436777 -0.00144852 0.00118320 0.01324544
1680836388.258550 0.00273721 -0.00159201 -0.02436777 -0.00023656 0.00015959 0.00651654
1680836388.325245 0.00273721 -0.00159202 -0.02436776 -0.00092148 0.00148683 0.00855540
1680836388.391940 0.00273720 -0.00159203 -0.02436777 -0.00044696 0.00080507 0.00934444
1680836388.458636 0.00273720 -0.00159202 -0.02436776 -0.00043630 0.00047302 0.00930495
1680836388.525331 0.00273721 -0.00159202 -0.02436776 0.00013427 -0.00422640 0.00809480
1680836388.592026 0.00273721 -0.00159202 -0.02436779 -0.00105987 0.00008409 0.00796658
1680836388.658721 0.00273721 -0.00159202 -0.02436778 -0.00033425 0.00420582 0.01093310
1680836388.725416 0.00273722 -0.00159199 -0.02436780 0.00113975 -0.00096584 0.00168078
1680836388.792111 0.00273722 -0.00159196 -0.02436780 0.00000252 -0.00230405 0.00972229
1680836388.858806 0.00273722 -0.00159196 -0.02436780 -0.00042100 0.00479519 0.00968112
1680836388.925497 0.00273722 -0.00159196 -0.02436781 -0.00018482 0.00145689 0.00984882
1680836388.992188 0.00273723 -0.00159195 -0.02436783 0.00092267 -0.00188826 0.00825892
1680836389.058878 0.00273723 -0.00159196 -0.02436781 -0.00001575 -0.00579017 0.00813762
1680836389.125568 0.00273722 -0.00159196 -0.02436779 -0.00205252 0.00797805 0.00973631
1680836389.192259 0.00273721 -0.00159198 -0.02436768 0.00117643 -0.00270687 0.00899715
1680836389.258949 0.00273722 -0.00159199 -0.02436763 -0.00066656 0.00117694 0.00962273
1680836389.325639 0.00273721 -0.00159200 -0.02436762 0.00033073 -0.00300469 0.00634732
1680836389.392330 0.00273721 -0.00159200 -0.02436763 -0.00068413 0.00203201 0.00679400
1680836389.459020 0.00273721 -0.00159200 -0.02436763 -0.00023317 0.00131453 0.00939070
1680836389.525710 0.00273721 -0.00159199 -0.02436763 -0.00052021 0.00099963 0.01039435
1680836389.592399 0.00273721 -0.00159199 -0.02436761 -0.00012307 0.00220504 0.00875999
1680836389.659089 0.00273723 -0.00159197 -0.02436765 0.00053294 -0.00236462 0.00750267
1680836389.725779 0.00273723 -0.00159198 -0.02436767 0.00033966 0.00060465 0.00760665
1680836389.792469 0.00273723 -0.00159198 -0.02436767 -0.00060846 -0.00035367 0.00858338
1680836389.859159 0.00273723 -0.00159199 -0.02436767 -0.00000510 0.00021467 0.00350799
1680836389.925849 0.00273721 -0.00159204 -0.02436769 -0.00121868 -0.00131208 0.01012852
1680836389.992540 0.00273722 -0.00159202 -0.02436766 -0.00022942 0.00339714 0.00737334
1680836390.059229 0.00273722 -0.00159201 -0.02436765 0.00014562 -0.00224576 0.01322405
1680836390.125919 0.00273722 -0.00159199 -0.02436765 -0.00161382 -0.00092270 0.00696170
1680836390.192609 0.00273722 -0.00159198 -0.02436767 0.00042508 0.00354683 0.00873316
1680836390.259299 0.00273725 -0.00159195 -0.02436777 -0.00002215 -0.00812037 0.00653733
1680836390.325989 0.00273724 -0.00159196 -0.02436774 0.00067847 0.00778794 0.00845812
1680836390.392679 0.00273723 -0.00159194 -0.02436770 -0.00100329 -0.00043385 0.01091090
1680836390.459368 0.00273725 -0.00159184 -0.02436774 0.00050200 -0.00462992 0.00396689
1680836390.526057 0.00273725 -0.00159184 -0.02436774 0.00010976 0.00473722 0.01018678
1680836390.592747 0.00273725 -0.00159185 -0.02436773 0.00042914 0.00017102 0.00894775
1680836390.659436 0.00273725 -0.00159186 -0.02436772 -0.00104506 0.00069716 0.01063674
1680836390.726126 0.00273725 -0.00159186 -0.02436772 -0.00029297 -0.00061799 0.00822873
1680836390.792815 0.00273724 -0.00159185 -0.02436772 -0.00035293 -0.00126612 0.00707777
1680836390.859505 0.00273724 -0.00159184 -0.02436773 -0.00069977 0.00238153 0.00980253
1680836390.926195 0.00273727 -0.00159173 -0.02436778 0.00046281 -0.00196377 0.00382482
1680836390.992886 0.00273727 -0.00159173 -0.02436778 -0.00040716 0.00175106 0.01382575
1680836391.059576 0.00273726 -0.00159175 -0.02436778 0.00051954 -0.00016063 0.00531145
1680836391.126267 0.00273726 -0.00159174 -0.02436777 0.00024761 -0.00192299 0.00903530
1680836391.192957 0.00273728 -0.00159175 -0.02436783 -0.00030213 0.00243685 0.00771539
1680836391.259648 0.00273728 -0.00159175 -0.02436783 0.00045243 -0.00425002 0.00633262
1680836391.326339 0.00273728 -0.00159175 -0.02436783 -0.00125527 0.00231786 0.00996485
1680836391.393028 0.00273727 -0.00159176 -0.02436783 0.00105217 0.00141225 0.00688004
1680836391.459718 0.00273726 -0.00159176 -0.02436784 -0.00048968 0.00044768 0.00814768
1680836391.526409 0.00273726 -0.00159177 -0.02436785 0.00007628 -0.00417478 0.01030524
1680836391.593099 0.00273725 -0.00159177 -0.02436798 -0.00021928 0.00776559 0.00919003
1680836391.659790 0.00273726 -0.00159173 -0.02436811 0.00112485 -0.00017394 0.00726217
1680836391.726480 0.00273726 -0.00159173 -0.02436812 0.00033332 -0.00567638 0.00474132
1680836391.793169 0.00273727 -0.00159170 -0.02436815 -0.00126861 0.00414863 0.01061916
1680836391.859859 0.00273727 -0.00159172 -0.02436814 -0.00005367 0.00227930 0.00854307
1680836391.926552 0.00273727 -0.00159172 -0.02436814 -0.00060707 -0.00637638 0.00835233
1680836391.993243 0.00273725 -0.00159171 -0.02436828 0.00096233 0.00198004 0.00823261
1680836392.059935 0.00273725 -0.00159171 -0.02436828 -0.00143429 0.00068630 0.00786712
1680836392.126627 0.00273726 -0.00159171 -0.02436828 0.00042907 0.00078579 0.00794070
1680836392.193319 0.00273726 -0.00159171 -0.02436828 -0.00006309 -0.00066041 0.00486505
1680836392.260010 0.00273727 -0.00159166 -0.02436831 -0.00094572 0.00358582 0.01318349
1680836392.326701 0.00273727 -0.00159166 -0.02436831 -0.00051796 -0.00365387 0.00614720
1680836392.393393 0.00273723 -0.00159172 -0.02436827 -0.00052016 0.00186931 0.01155990
1680836392.460084 0.00273725 -0.00159167 -0.02436827 0.00098050 0.00058833 0.00176930
1680836392.526776 0.00273726 -0.00159167 -0.02436827 0.00153749 -0.00469067 0.00920721
1680836392.593467 0.00273723 -0.00159170 -0.02436817 -0.00248054 0.00717071 0.01156240
1680836392.660159 0.00273724 -0.00159168 -0.02436819 0.00070388 -0.00141702 0.00665876
1680836392.726850 0.00273725 -0.00159166 -0.02436817 0.00153177 0.00050915 0.00849735
1680836392.793541 0.00273725 -0.00159166 -0.02436816 -0.00084697 -0.00055776 0.00485310
1680836392.860232 0.00273727 -0.00159160 -0.02436812 0.00127981 -0.00519090 0.00977160
1680836392.926922 0.00273726 -0.00159160 -0.02436812 -0.00022232 0.00696636 0.00900230
1680836392.993612 0.00273727 -0.00159159 -0.02436814 0.00174992 -0.00641758 0.00493982
1680836393.060302 0.00273726 -0.00159160 -0.02436813 -0.00148052 0.00626906 0.01165319
1680836393.126991 0.00273726 -0.00159160 -0.02436813 0.00044475 0.02075904 0.00689678
1680836393.193681 0.00273727 -0.00159160 -0.02436812 0.00140778 -0.01565439 0.00705581
1680836393.260370 0.00273728 -0.00159158 -0.02436815 -0.00198707 -0.00868060 0.00904779
1680836393.327060 0.00273729 -0.00159158 -0.02436816 -0.00037202 -0.00101489 0.00862895
1680836393.393749 0.00273728 -0.00159158 -0.02436816 -0.00143315 0.00095661 0.00878098
1680836393.460439 0.00273729 -0.00159156 -0.02436817 0.00088509 0.00282919 0.00482494
1680836393.527128 0.00273727 -0.00159159 -0.02436816 0.00029649 -0.00337495 0.00970455
1680836393.593817 0.00273727 -0.00159159 -0.02436816 -0.00140879 0.02284687 0.01122358
1680836393.660506 0.00273727 -0.00159161 -0.02436815 0.00261621 -0.01077356 0.00802712
1680836393.727195 0.00273727 -0.00159161 -0.02436815 0.00130581 -0.01566779 0.00237595
1680836393.793884 0.00273730 -0.00159152 -0.02436822 -0.00014006 0.00085106 0.01083435
1680836393.860573 0.00273730 -0.00159151 -0.02436823 -0.00164175 0.00643463 0.00840343
1680836393.927262 0.00273730 -0.00159150 -0.02436823 -0.00005792 -0.00460597 0.00463750
1680836393.993951 0.00273730 -0.00159151 -0.02436823 -0.00062576 0.00045187 0.00828295
1680836394.060638 0.00273730 -0.00159151 -0.02436824 0.00090196 0.00064969 0.00741778
1680836394.127327 0.00273730 -0.00159152 -0.02436821 -0.00144046 0.00457994 0.01135435
1680836394.194015 0.00273733 -0.00159147 -0.02436826 0.00218180 -0.00516486 0.00545252
1680836394.260703 0.00273733 -0.00159147 -0.02436826 -0.00036627 0.00019548 0.00893543
1680836394.327392 0.00273733 -0.00159147 -0.02436826 -0.00097566 -0.00075631 0.00540080
1680836394.394080 0.00273731 -0.00159149 -0.02436826 0.00137012 -0.00078836 0.00892612
1680836394.460767 0.00273731 -0.00159149 -0.02436829 -0.00124854 0.00366577 0.00765944
1680836394.527455 0.00273733 -0.00159148 -0.02436831 0.00164478 -0.00367037 0.00534307
1680836394.594143 0.00273733 -0.00159147 -0.02436833 -0.00038470 0.00595853 0.01334378
1680836394.660830 0.00273735 -0.00159145 -0.02436834 -0.00053633 -0.00409766 0.00410441
1680836394.727518 0.00273730 -0.00159153 -0.02436826 -0.00087302 0.00647499 0.01170191
1680836394.794206 0.00273728 -0.00159156 -0.02436823 0.00083296 -0.00304180 0.00435349
1680836394.860893 0.00273727 -0.00159160 -0.02436822 -0.00086529 0.00225767 0.01024977
1680836394.927583 0.00273727 -0.00159160 -0.02436821 0.00034352 -0.00517083 0.00538652
1680836394.994273 0.00273727 -0.00159160 -0.02436822 -0.00116078 0.00191222 0.01020838
1680836395.060964 0.00273727 -0.00159160 -0.02436821 0.00042041 0.00137230 0.00849447
1680836395.127654 0.00273727 -0.00159160 -0.02436820 -0.00758897 -0.00425892 0.00813159
1680836395.194344 0.00273727 -0.00159159 -0.02436822 0.00837005 0.00701217 0.00640106
1680836395.261034 0.00273728 -0.00159158 -0.02436823 0.00225967 0.00246483 0.00948426
1680836395.327725 0.00273732 -0.00159150 -0.02436832 -0.00808908 -0.00148927 0.00288115
1680836395.394414 0.00273735 -0.00159142 -0.02436837 0.01019667 -0.00490841 0.01248837
1680836395.461104 0.00273736 -0.00159142 -0.02436837 0.00640946 -0.01711352 0.01001207
1680836395.527794 0.00273736 -0.00159142 -0.02436837 0.08721088 -0.05226448 -0.04571206
1680836395.594484 0.00273732 -0.00159147 -0.02436837 -0.06352586 0.00330357 0.02728820
1680836395.661174 0.00273730 -0.00159143 -0.02436838 -0.10300640 0.08846189 0.02304776
1680836395.727864 0.00273740 -0.00159063 -0.02436868 0.07123086 0.11753356 0.09263834
1680836395.794553 -0.10286837 -0.74084769 0.80285096 0.06103437 0.07233756 0.06543413
1680836395.861243 -0.52086269 -0.94810946 3.17403522 0.01955107 -0.07179929 0.04407231
1680836395.927931 -1.49544795 -1.54908561 4.69293854 0.00900857 -0.12028338 0.02539971
1680836395.994620 -1.19286507 -1.97581430 4.03159486 0.00969940 -0.06050905 0.01436985
1680836396.061308 -0.74207073 -1.55459259 2.20977697 0.00487699 -0.07690416 -0.00607897
1680836396.127996 -0.13045194 -1.16890250 0.66070123 0.01347646 -0.07182371 0.01066597
1680836396.194684 0.02090403 -0.56816590 0.21501828 0.00810337 -0.06394136 -0.00361560
1680836396.261371 0.11171630 -0.36831218 -0.02562478 0.01198236 -0.06689342 0.00266448
1680836396.328059 0.23132561 -0.15257149 -0.13978737 0.00965674 -0.05541414 0.00345751
1680836396.394747 0.18265809 0.05735584 -0.03456982 0.00668483 -0.04435600 0.00400371
1680836396.461434 0.17481481 0.33008722 0.05487868 0.00388645 -0.04307725 0.00588448
1680836396.528122 0.15896626 0.49987669 0.03952630 0.00543964 -0.03795311 0.00690797
1680836396.594810 0.12582048 0.52907443 -0.03888525 0.00398074 -0.03688990 0.00298224
1680836396.661497 0.02745311 0.28665444 0.02974828 0.00397746 -0.01831340 0.00927051
1680836396.728184 -0.05877671 0.18028176 0.06604726 0.00325888 -0.01388658 0.00646614
1680836396.794871 -0.04569728 0.00455809 0.08001765 0.00288786 -0.01182144 0.00446734
1680836396.861558 -0.12835612 0.05388342 0.07576786 0.00359941 -0.01188825 0.00529328
1680836396.928246 -0.19222918 0.09976457 0.09191480 0.00282205 -0.00869657 0.00507471
1680836396.994935 -0.26761865 0.13803836 0.11904006 0.00341904 -0.00502362 0.00517708
1680836397.061623 -0.28469440 0.14894376 0.12872804 0.00252873 -0.00376728 0.00444554
1680836397.128310 -0.26406080 0.19215634 0.12979232 0.00240125 -0.00456804 0.00466670
1680836397.194998 -0.25024678 0.24752259 0.12536039 0.00121760 -0.00307539 0.00450990
1680836397.261686 -0.32049092 0.22541725 0.12290086 0.00116261 -0.00265349 0.00517107
1680836397.328373 -0.39419803 0.22523393 0.12369664 0.00109272 -0.00295649 0.00557172
1680836397.395061 -0.43057147 0.23926535 0.12403274 0.00070798 -0.00186626 0.00545213
1680836397.461749 -0.50963984 0.20857857 0.11745630 0.00028408 -0.00179169 0.00560908
1680836397.528437 -0.59615443 0.18217941 0.11455390 -0.00053857 -0.00072825 0.00505205
1680836397.595123 -0.60077343 0.17829592 0.11570656 -0.00058386 -0.00072201 0.00529111
1680836397.661811 -0.58868435 0.19521358 0.11819765 -0.00061009 -0.00081821 0.00508001
1680836397.728498 -0.55145966 0.20738815 0.11765110 -0.00055808 -0.00036500 0.00504803
1680836397.795185 -0.53827118 0.20819333 0.11742652 -0.00031656 -0.00031605 0.00514596
1680836397.861873 -0.50766101 0.19389349 0.11764979 0.00006576 -0.00014999 0.00522411
1680836397.928560 -0.55871219 0.18359572 0.11731584 -0.00036060 -0.00097144 0.00525178
1680836397.995247 -0.54659539 0.15668193 0.11693333 -0.00054303 -0.00126404 0.00524083
1680836398.061932 -0.53077259 0.17114196 0.11697866 -0.00035336 -0.00087389 0.00539503
1680836398.128619 -0.53315145 0.18619408 0.11607833 -0.00020725 -0.00059747 0.00563092
1680836398.195306 -0.53998255 0.18892621 0.11566981 -0.00004962 -0.00055456 0.00589924
1680836398.261993 -0.65758112 0.20932769 0.11761967 0.00023146 -0.00005236 0.00631515
1680836398.328679 -0.80022392 0.23450537 0.12150020 0.00014590 0.00026421 0.00634108
1680836398.395366 -0.90426787 0.21492026 0.12359341 0.00017127 0.00037584 0.00646542
1680836398.462051 -0.94433313 0.20779280 0.12577526 0.00014993 0.00039531 0.00636920
1680836398.528738 -0.95916773 0.19246706 0.12636229 0.00025594 0.00020484 0.00639557
1680836398.595424 -0.93624875 0.18389092 0.12590020 0.00026008 0.00024465 0.00640598
1680836398.662110 -0.90198469 0.14600661 0.12323929 0.00033806 0.00001752 0.00644087
1680836398.728796 -0.89264010 0.12751290 0.12340083 0.00035162 0.00000588 0.00632501
1680836398.795482 -0.88189329 0.10999316 0.12343201 0.00036835 -0.00000289 0.00627747
1680836398.862168 -0.85630066 0.09348043 0.12130478 0.00041176 -0.00001569 0.00634209
1680836398.928854 -0.82363629 0.06299186 0.12001115 0.00042264 -0.00004953 0.00632244
1680836398.995540 -0.74174941 -0.01183273 0.11657789 0.00041147 -0.00006858 0.00621201
1680836399.062226 -0.70489319 -0.05374067 0.11526261 0.00044053 -0.00009013 0.00615611
1680836399.128912 -0.65865251 -0.08671367 0.11227892 0.00044308 -0.00004174 0.00615161
1680836399.195597 -0.63017958 -0.11009940 0.11066053 0.00049887 -0.00002967 0.00617519
1680836399.262283 -0.58668232 -0.12827915 0.10615532 0.00056213 -0.00008679 0.00627598
1680836399.328969 -0.57521464 -0.12814509 0.10456435 0.00046783 -0.00006047 0.00624160
1680836399.395653 -0.55208590 -0.14386080 0.10441751 0.00053015 -0.00004358 0.00635182
1680836399.462339 -0.53835358 -0.16644479 0.10210039 0.00052861 -0.00023917 0.00633009
1680836399.529024 -0.52969534 -0.17714377 0.10150382 0.00054398 -0.00033308 0.00643847
1680836399.595710 -0.52615093 -0.18023661 0.10081816 0.00049097 -0.00035022 0.00645407
1680836399.662395 -0.51401980 -0.17935695 0.09814842 0.00048910 -0.00049467 0.00654830
1680836399.729080 -0.49809135 -0.18727961 0.09551362 0.00047073 -0.00053263 0.00655868
1680836399.795764 -0.47122810 -0.16502212 0.08922514 0.00034591 -0.00056348 0.00652433
1680836399.862450 -0.45983574 -0.18468544 0.08782322 0.00031564 -0.00074235 0.00652166
1680836399.929138 -0.44252113 -0.17724869 0.08480580 0.00022496 -0.00081540 0.00648445
1680836399.995826 -0.43824572 -0.17711081 0.08403511 0.00018056 -0.00082934 0.00645644
1680836400.062513 -0.42593153 -0.15716132 0.08106471 0.00012403 -0.00082542 0.00632401
1680836400.129200 -0.42846476 -0.14023004 0.08080707 0.00014237 -0.00077363 0.00625235
1680836400.195887 -0.42175276 -0.11918303 0.07837958 0.00019488 -0.00077894 0.00616946
1680836400.262573 -0.39223372 -0.13191172 0.07276339 0.00023624 -0.00081208 0.00608054
1680836400.329261 -0.40485229 -0.09052075 0.07340465 0.00023359 -0.00062379 0.00608163
1680836400.395947 -0.39542147 -0.06223467 0.06994160 0.00028940 -0.00048775 0.00603002
1680836400.462635 -0.39376340 -0.07290323 0.07073267 0.00035651 -0.00045491 0.00601509
1680836400.529321 -0.38722988 -0.07575873 0.06936321 0.00035087 -0.00048794 0.00601959
1680836400.596008 -0.38467236 -0.08749392 0.06986921 0.00031999 -0.00047678 0.00602887
1680836400.662695 -0.36692861 -0.11047439 0.06774886 0.00032963 -0.00048656 0.00602889
1680836400.729381 -0.34743172 -0.14729156 0.06602267 0.00038086 -0.00053528 0.00601108
1680836400.796068 -0.32827570 -0.18405037 0.06406638 0.00042201 -0.00061497 0.00601112
1680836400.862754 -0.31647026 -0.22553142 0.06447247 0.00046936 -0.00068183 0.00600655
1680836400.929445 -0.30098922 -0.25112817 0.06322620 0.00049992 -0.00077348 0.00593854
1680836400.996136 -0.29695210 -0.26603712 0.06337585 0.00051358 -0.00081529 0.00590551
1680836401.062826 -0.28579801 -0.28595819 0.06247572 0.00051500 -0.00086574 0.00585592
1680836401.129516 -0.28339666 -0.27547655 0.06205872 0.00050924 -0.00079488 0.00581159
1680836401.196207 -0.27714186 -0.25890116 0.06007057 0.00050256 -0.00074693 0.00577858
1680836401.262897 -0.25958263 -0.24545865 0.05561499 0.00049546 -0.00073368 0.00572227
1680836401.329588 -0.24991092 -0.22713579 0.05261717 0.00048243 -0.00070073 0.00567319
1680836401.396279 -0.23772205 -0.21253999 0.04957344 0.00047883 -0.00068351 0.00562079
1680836401.462970 -0.22554054 -0.20642836 0.04725625 0.00048866 -0.00067161 0.00557108
1680836401.529661 -0.20458981 -0.18981002 0.04261957 0.00049722 -0.00067549 0.00551069
1680836401.596351 -0.19082523 -0.18546794 0.04030377 0.00051582 -0.00063829 0.00548464
1680836401.663042 -0.17523218 -0.17055984 0.03711791 0.00052935 -0.00061518 0.00543325
1680836401.729733 -0.16710829 -0.16882898 0.03572496 0.00053656 -0.00059301 0.00541939
1680836401.796423 -0.16090838 -0.16005080 0.03423866 0.00053754 -0.00055558 0.00540596
1680836401.863114 -0.16127970 -0.15465554 0.03421535 0.00053752 -0.00050468 0.00539647
1680836401.929801 -0.16415839 -0.15406291 0.03489189 0.00054004 -0.00045801 0.00539359
1680836401.996487 -0.16687125 -0.15187859 0.03539060 0.00052430 -0.00042326 0.00540436
1680836402.063173 -0.16793454 -0.12956949 0.03438403 0.00048922 -0.00044241 0.00540109
1680836402.129859 -0.16979274 -0.12673228 0.03476296 0.00047536 -0.00039049 0.00536213
1680836402.196545 -0.17317328 -0.12722563 0.03567523 0.00047141 -0.00034629 0.00532079
1680836402.263232 -0.17572232 -0.12075931 0.03594483 0.00046836 -0.00028737 0.00530189
1680836402.329918 -0.17153095 -0.11294064 0.03499860 0.00047619 -0.00025439 0.00528977
1680836402.396604 -0.16717739 -0.09171864 0.03324259 0.00045835 -0.00026424 0.00528525
1680836402.463289 -0.17023269 -0.08934222 0.03374013 0.00044441 -0.00025188 0.00527249
1680836402.529975 -0.15559997 -0.05966750 0.03010647 0.00046145 -0.00025633 0.00529293
1680836402.596661 -0.17045656 -0.06806256 0.03300643 0.00046067 -0.00020389 0.00525129
1680836402.663347 -0.16763651 -0.05329702 0.03180755 0.00047534 -0.00023375 0.00523251
1680836402.730032 -0.16944713 -0.06349252 0.03278374 0.00047394 -0.00021773 0.00519666
1680836402.796718 -0.16781246 -0.06984775 0.03272698 0.00046609 -0.00022594 0.00519241
1680836402.863404 -0.16918497 -0.07442994 0.03314815 0.00048138 -0.00022262 0.00516998
1680836402.930099 -0.17087625 -0.06541168 0.03295735 0.00050837 -0.00023758 0.00514472
1680836402.996792 -0.16927866 -0.06426402 0.03248592 0.00049830 -0.00022808 0.00511534
1680836403.063486 -0.16817930 -0.06178014 0.03209794 0.00049906 -0.00021276 0.00509611
1680836403.130179 -0.17526572 -0.06743629 0.03351643 0.00053391 -0.00020956 0.00503673
1680836403.196872 -0.17106686 -0.06113918 0.03241143 0.00054265 -0.00019732 0.00504561
1680836403.263566 -0.17732900 -0.06381540 0.03369428 0.00056825 -0.00017309 0.00500174
1680836403.330260 -0.17086711 -0.05949669 0.03212862 0.00057783 -0.00017995 0.00497589
1680836403.396952 -0.17480585 -0.05997264 0.03298115 0.00065468 -0.00015233 0.00496858
1680836403.463646 -0.17402379 -0.05669909 0.03245637 0.00065387 -0.00018717 0.00493951
1680836403.530340 -0.17864960 -0.05559694 0.03334359 0.00069546 -0.00018809 0.00492229
1680836403.597034 -0.17148659 -0.04844031 0.03119787 0.00068502 -0.00023456 0.00487765
1680836403.663727 -0.16817444 -0.04207589 0.03025778 0.00071970 -0.00026403 0.00486704
1680836403.730421 -0.16415223 -0.04073379 0.02941685 0.00071384 -0.00026733 0.00484997
1680836403.797114 -0.16494472 -0.04370604 0.02983821 0.00071909 -0.00019688 0.00486136
1680836403.863807 -0.16494550 -0.04195686 0.02964620 0.00069469 -0.00019908 0.00483417
1680836403.930497 -0.16100402 -0.03929437 0.02867537 0.00068699 -0.00018479 0.00482336
1680836403.997187 -0.15420044 -0.03445525 0.02722091 0.00068004 -0.00019713 0.00478581
1680836404.063877 -0.15105435 -0.03074705 0.02642358 0.00067018 -0.00018370 0.00475669
1680836404.130567 -0.15088664 -0.03033698 0.02638195 0.00064845 -0.00016585 0.00473718
1680836404.197257 -0.14497283 -0.02716618 0.02521738 0.00064951 -0.00019563 0.00472622
1680836404.263946 -0.14240298 -0.02707649 0.02483364 0.00062695 -0.00019819 0.00469537
1680836404.330637 -0.13788075 -0.02841749 0.02418581 0.00061608 -0.00018410 0.00468815
1680836404.397327 -0.12952359 -0.02860240 0.02292408 0.00062246 -0.00017082 0.00468310
1680836404.464017 -0.14752400 -0.02878818 0.02567046 0.00064548 -0.00018728 0.00468659
1680836404.530707 -0.13960946 -0.02385910 0.02407254 0.00062809 -0.00016620 0.00466359
1680836404.597397 -0.15760293 -0.02560257 0.02734130 0.00061601 -0.00030039 0.00462712
1680836404.664087 -0.13443584 -0.02809462 0.02391068 0.00060745 -0.00034911 0.00457532
1680836404.730777 -0.13460667 -0.01824307 0.02326843 0.00057398 -0.00024335 0.00454284
1680836404.797467 -0.13213029 -0.01575203 0.02277413 0.00056061 -0.00023225 0.00450836
1680836404.864157 -0.11996201 -0.01466470 0.02094420 0.00051125 -0.00025516 0.00445111
1680836404.930845 -0.11165394 -0.01321361 0.01956128 0.00050424 -0.00026319 0.00443401
1680836404.997532 -0.10956086 -0.01233174 0.01919062 0.00049611 -0.00026160 0.00441198
1680836405.064220 -0.10710199 -0.01136881 0.01877049 0.00048302 -0.00025843 0.00439249
1680836405.130906 -0.10097858 -0.00905410 0.01774885 0.00046628 -0.00024682 0.00434817
1680836405.197594 -0.09562561 -0.01227586 0.01703339 0.00046476 -0.00023854 0.00432785
1680836405.264281 -0.09372009 -0.01008619 0.01663430 0.00044676 -0.00023856 0.00431611
1680836405.330969 -0.09141853 -0.00995278 0.01626812 0.00043601 -0.00024756 0.00429433
1680836405.397656 -0.08789629 -0.01033935 0.01571900 0.00041928 -0.00023476 0.00427917
1680836405.464343 -0.08816159 -0.01056287 0.01576973 0.00042204 -0.00023984 0.00426312
1680836405.531030 -0.08741120 -0.01042100 0.01565964 0.00040890 -0.00024904 0.00424478
1680836405.597717 -0.08636139 -0.01061637 0.01548307 0.00040000 -0.00023904 0.00422775
1680836405.664404 -0.08589059 -0.01080435 0.01543483 0.00039023 -0.00022947 0.00421264
1680836405.731091 -0.08515415 -0.01093486 0.01532949 0.00038264 -0.00023122 0.00419904
1680836405.797778 -0.08424740 -0.01099679 0.01518323 0.00037840 -0.00023490 0.00418172
1680836405.864465 -0.08353072 -0.01080314 0.01503668 0.00037522 -0.00022485 0.00416231
1680836405.931152 -0.08309493 -0.01118301 0.01501140 0.00036995 -0.00023457 0.00415318
1680836405.997839 -0.08268267 -0.01127071 0.01495852 0.00036277 -0.00023105 0.00413601
1680836406.064525 -0.08148538 -0.01178524 0.01479380 0.00035786 -0.00023039 0.00412138
1680836406.131212 -0.08147809 -0.01154179 0.01477599 0.00034746 -0.00022661 0.00410373
1680836406.197899 -0.07984714 -0.01216942 0.01452605 0.00034068 -0.00020842 0.00409298
1680836406.264585 -0.08215015 -0.01132983 0.01481819 0.00033842 -0.00019998 0.00407765
1680836406.331272 -0.08214445 -0.01125532 0.01483624 0.00033402 -0.00021399 0.00406371
1680836406.397959 -0.08034585 -0.01211386 0.01459203 0.00032713 -0.00022145 0.00405239
1680836406.464645 -0.07967126 -0.01232886 0.01450866 0.00032715 -0.00022054 0.00404124
1680836406.531331 -0.07850019 -0.01285308 0.01432043 0.00031275 -0.00019880 0.00402522
1680836406.598018 -0.07946022 -0.01242737 0.01445602 0.00030569 -0.00019952 0.00401114
1680836406.664705 -0.07888699 -0.01273614 0.01438380 0.00030152 -0.00021710 0.00399850
1680836406.731391 -0.07775758 -0.01324482 0.01422620 0.00029512 -0.00022057 0.00398518
1680836406.798077 -0.07672819 -0.01357773 0.01406919 0.00029480 -0.00021638 0.00396891
1680836406.864764 -0.07527647 -0.01421880 0.01389046 0.00028884 -0.00023977 0.00395859
1680836406.931449 -0.07189902 -0.01543617 0.01340612 0.00028478 -0.00024779 0.00394842
1680836406.998136 -0.07112770 -0.01584063 0.01327657 0.00028230 -0.00023384 0.00394598
1680836407.064822 -0.07059734 -0.01598803 0.01319034 0.00028179 -0.00021661 0.00393743
1680836407.131508 -0.07103303 -0.01565764 0.01324755 0.00027925 -0.00021177 0.00392883
1680836407.198195 -0.07063512 -0.01541615 0.01317910 0.00028027 -0.00021250 0.00391703
1680836407.264881 -0.07018126 -0.01565021 0.01312724 0.00027653 -0.00021841 0.00390648
1680836407.331567 -0.06789880 -0.01665181 0.01278846 0.00027405 -0.00021391 0.00390094
1680836407.398252 -0.06845238 -0.01630001 0.01286208 0.00027138 -0.00020846 0.00389560
1680836407.464938 -0.06747203 -0.01666474 0.01272435 0.00026499 -0.00020846 0.00388787
1680836407.531624 -0.06647023 -0.01698491 0.01258117 0.00026220 -0.00020604 0.00388004
1680836407.598310 -0.06602278 -0.01727767 0.01252021 0.00026223 -0.00020674 0.00387394
1680836407.664996 -0.06531510 -0.01769481 0.01241252 0.00026229 -0.00020446 0.00386888
1680836407.731681 -0.06588538 -0.01725969 0.01248559 0.00025924 -0.00020326 0.00386122
1680836407.798366 -0.06553536 -0.01740235 0.01244645 0.00025602 -0.00020386 0.00385410
1680836407.865052 -0.06487588 -0.01782605 0.01235874 0.00025383 -0.00020299 0.00384773
1680836407.931741 -0.06491423 -0.01784584 0.01235364 0.00024993 -0.00020580 0.00384238
1680836407.998430 -0.06375339 -0.01847949 0.01218587 0.00025109 -0.00019815 0.00383845
1680836408.065119 -0.06381819 -0.01839800 0.01219437 0.00025508 -0.00019363 0.00383015
1680836408.131808 -0.06311567 -0.01866130 0.01209770 0.00025605 -0.00019500 0.00382186
1680836408.198498 -0.06288097 -0.01872763 0.01206322 0.00025777 -0.00019540 0.00381476
1680836408.265186 -0.06252681 -0.01882892 0.01202190 0.00025486 -0.00019639 0.00380745
1680836408.331875 -0.06200582 -0.01917751 0.01195078 0.00025215 -0.00019398 0.00380142
1680836408.398564 -0.06201969 -0.01919447 0.01193360 0.00024842 -0.00019511 0.00379357
1680836408.465253 -0.06130131 -0.01950222 0.01182683 0.00024488 -0.00019254 0.00378531
1680836408.531942 -0.06133685 -0.01953723 0.01183112 0.00024370 -0.00018896 0.00377864
1680836408.598632 -0.06091363 -0.01986534 0.01176923 0.00023940 -0.00018543 0.00377192
1680836408.665321 -0.06093918 -0.01984250 0.01176877 0.00023911 -0.00018449 0.00376505
1680836408.732009 -0.06046887 -0.01995523 0.01169874 0.00024007 -0.00018304 0.00375565
1680836408.798698 -0.06021661 -0.02003715 0.01165445 0.00023817 -0.00017886 0.00374873
1680836408.865388 -0.05981767 -0.02033900 0.01160399 0.00023760 -0.00017641 0.00374389
1680836408.932076 -0.05958868 -0.02054873 0.01159215 0.00023609 -0.00017518 0.00373813
1680836408.998763 -0.05912491 -0.02096643 0.01153144 0.00023410 -0.00017583 0.00373371
1680836409.065451 -0.05868461 -0.02112254 0.01146179 0.00023250 -0.00017301 0.00372587
1680836409.132138 -0.05856407 -0.02114352 0.01143521 0.00023143 -0.00016780 0.00372026
1680836409.198825 -0.05853640 -0.02114206 0.01142547 0.00022983 -0.00016625 0.00371549
1680836409.265513 -0.05859589 -0.02111949 0.01143896 0.00022879 -0.00016804 0.00370907
1680836409.332201 -0.05785645 -0.02139527 0.01133644 0.00022647 -0.00016528 0.00370142
1680836409.398888 -0.05739381 -0.02150749 0.01126812 0.00022313 -0.00016015 0.00369517
1680836409.465576 -0.05749255 -0.02160364 0.01127617 0.00022250 -0.00016037 0.00369104
1680836409.532264 -0.05714353 -0.02183958 0.01122939 0.00022077 -0.00015855 0.00368619
1680836409.598950 -0.05681693 -0.02212145 0.01118984 0.00022024 -0.00015788 0.00368286
1680836409.665637 -0.05676907 -0.02227182 0.01117789 0.00022053 -0.00015781 0.00367940
1680836409.732325 -0.05663266 -0.02232509 0.01115814 0.00022064 -0.00015769 0.00367396
1680836409.799012 -0.05602917 -0.02263775 0.01107707 0.00022003 -0.00015816 0.00366766
1680836409.865700 -0.05582761 -0.02272263 0.01104778 0.00022114 -0.00015608 0.00366449
1680836409.932388 -0.05582071 -0.02272597 0.01104257 0.00022105 -0.00015441 0.00366239
1680836409.999076 -0.05563734 -0.02286223 0.01102473 0.00021803 -0.00015905 0.00365712
1680836410.065763 -0.05512797 -0.02321643 0.01095538 0.00021571 -0.00015649 0.00365231
1680836410.132451 -0.05482951 -0.02330618 0.01091055 0.00021390 -0.00015073 0.00364763
1680836410.199139 -0.05492669 -0.02328995 0.01092185 0.00021241 -0.00015013 0.00364354
1680836410.265827 -0.05486818 -0.02347712 0.01091316 0.00020994 -0.00015307 0.00363935
1680836410.332515 -0.05441695 -0.02364096 0.01084466 0.00021030 -0.00015023 0.00363482
1680836410.399203 -0.05476261 -0.02351343 0.01089166 0.00021018 -0.00014964 0.00363041
1680836410.465890 -0.05440283 -0.02370269 0.01084221 0.00021036 -0.00015091 0.00362616
1680836410.532578 -0.05383615 -0.02370671 0.01075088 0.00021447 -0.00014471 0.00362040
1680836410.599266 -0.05389853 -0.02414697 0.01078413 0.00020966 -0.00014773 0.00361856
1680836410.665954 -0.05356006 -0.02422908 0.01073024 0.00020931 -0.00014690 0.00361271
1680836410.732642 -0.05351561 -0.02422260 0.01071713 0.00020852 -0.00014448 0.00360909
1680836410.799330 -0.05312860 -0.02438760 0.01067378 0.00020862 -0.00014216 0.00360457
1680836410.866018 -0.05307631 -0.02444333 0.01066193 0.00020617 -0.00014110 0.00360003
1680836410.932705 -0.05282823 -0.02472082 0.01062119 0.00020536 -0.00013930 0.00359679
1680836410.999393 -0.05286446 -0.02469548 0.01062582 0.00020801 -0.00013776 0.00359300
1680836411.066082 -0.05258981 -0.02483222 0.01058571 0.00020901 -0.00013583 0.00358792
1680836411.132770 -0.05250310 -0.02488746 0.01058044 0.00020798 -0.00013689 0.00358337
1680836411.199459 -0.05176265 -0.02523042 0.01046801 0.00020750 -0.00013256 0.00358019
1680836411.266147 -0.05291478 -0.02473037 0.01066093 0.00020586 -0.00013769 0.00357953
1680836411.332835 -0.05026728 -0.02593807 0.01026578 0.00021011 -0.00012754 0.00357571
1680836411.399523 -0.05158105 -0.02523818 0.01045101 0.00020967 -0.00012195 0.00356973
1680836411.466211 -0.05182604 -0.02517265 0.01049778 0.00020782 -0.00013113 0.00356547
1680836411.532900 -0.05159084 -0.02544899 0.01048197 0.00020467 -0.00014022 0.00356207
1680836411.599588 -0.05028767 -0.02599215 0.01028821 0.00020190 -0.00013594 0.00355932
1680836411.666276 -0.05045155 -0.02604515 0.01029649 0.00020275 -0.00012928 0.00355808
1680836411.732965 -0.05071891 -0.02581787 0.01034244 0.00020103 -0.00012828 0.00355417
1680836411.799652 -0.05006308 -0.02611143 0.01024214 0.00020045 -0.00012662 0.00355004
1680836411.866340 -0.05017350 -0.02626794 0.01025959 0.00020160 -0.00012465 0.00354805
1680836411.933028 -0.05003543 -0.02637203 0.01023903 0.00020181 -0.00012446 0.00354519
1680836411.999716 -0.04995221 -0.02629456 0.01022029 0.00020279 -0.00012394 0.00354106
1680836412.066403 -0.04962930 -0.02646060 0.01017464 0.00020299 -0.00012324 0.00353858
1680836412.133091 -0.04965279 -0.02651714 0.01018168 0.00020113 -0.00012359 0.00353551
1680836412.199779 -0.04944119 -0.02652633 0.01016173 0.00019879 -0.00012574 0.00353104
1680836412.266465 -0.04886186 -0.02684234 0.01008309 0.00019796 -0.00012437 0.00352912
1680836412.333153 -0.04918188 -0.02698519 0.01012938 0.00019861 -0.00012336 0.00352683
1680836412.399840 -0.04902256 -0.02698021 0.01009957 0.00019954 -0.00012167 0.00352167
1680836412.466528 -0.04888507 -0.02690945 0.01007268 0.00019974 -0.00012164 0.00351614
1680836412.533215 -0.04851581 -0.02717199 0.01002950 0.00019928 -0.00012070 0.00351395
1680836412.599903 -0.04857447 -0.02723679 0.01003629 0.00019836 -0.00011955 0.00351054
1680836412.666590 -0.04853517 -0.02720811 0.01002453 0.00019806 -0.00011808 0.00350682
1680836412.733277 -0.04827971 -0.02744595 0.00999917 0.00019731 -0.00011750 0.00350508
1680836412.799964 -0.04836522 -0.02749311 0.01001338 0.00019660 -0.00011900 0.00350122
1680836412.866652 -0.04798208 -0.02759787 0.00995102 0.00019308 -0.00011811 0.00349802
1680836412.933339 -0.04772791 -0.02776969 0.00992682 0.00019128 -0.00011462 0.00349548
1680836413.000027 -0.04753044 -0.02782310 0.00988923 0.00019007 -0.00011313 0.00349343
1680836413.066714 -0.04754866 -0.02803874 0.00989508 0.00018974 -0.00011298 0.00349325
1680836413.133401 -0.04739147 -0.02825006 0.00987437 0.00018884 -0.00011183 0.00349159
1680836413.200089 -0.04721053 -0.02820942 0.00985321 0.00018545 -0.00011155 0.00348762
1680836413.266776 -0.04710295 -0.02830718 0.00983494 0.00018358 -0.00010999 0.00348684
1680836413.333464 -0.04703405 -0.02848994 0.00981988 0.00018412 -0.00010817 0.00348519
1680836413.400151 -0.04685388 -0.02866807 0.00980061 0.00018446 -0.00010691 0.00348337
1680836413.466839 -0.04674664 -0.02867513 0.00979107 0.00018200 -0.00010636 0.00348075
1680836413.533526 -0.04637860 -0.02873086 0.00972616 0.00018082 -0.00010539 0.00347839
1680836413.600213 -0.04630511 -0.02898752 0.00971720 0.00018076 -0.00010372 0.00347634
1680836413.666900 -0.04637850 -0.02904084 0.00973785 0.00017885 -0.00010301 0.00347403
1680836413.733588 -0.04591440 -0.02911219 0.00966362 0.00017842 -0.00010239 0.00347378
1680836413.800275 -0.04586917 -0.02929630 0.00966621 0.00017844 -0.00010104 0.00347220
1680836413.866963 -0.04561069 -0.02937506 0.00962248 0.00017783 -0.00010003 0.00346951
1680836413.933650 -0.04563960 -0.02928297 0.00962526 0.00017766 -0.00009992 0.00346544
1680836414.000336 -0.04537419 -0.02939063 0.00958124 0.00017718 -0.00009903 0.00346406
1680836414.067022 -0.04517304 -0.02969975 0.00955708 0.00017695 -0.00009835 0.00346343
1680836414.133709 -0.04517930 -0.02983134 0.00956092 0.00017586 -0.00009782 0.00346197
1680836414.200396 -0.04517600 -0.02988964 0.00956395 0.00017443 -0.00009898 0.00346142
1680836414.267083 -0.04502310 -0.02982091 0.00953558 0.00017218 -0.00009855 0.00345895
1680836414.333770 -0.04486251 -0.02994698 0.00951057 0.00017104 -0.00009756 0.00345628
1680836414.400456 -0.04473582 -0.02997538 0.00950170 0.00017041 -0.00009608 0.00345268
1680836414.467142 -0.04401025 -0.03028831 0.00942874 0.00017028 -0.00009361 0.00345052
1680836414.533828 -0.04420931 -0.03047288 0.00946763 0.00016780 -0.00009744 0.00345193
1680836414.600515 -0.04394854 -0.03068115 0.00942653 0.00016742 -0.00009560 0.00344839
1680836414.667202 -0.04411615 -0.03054362 0.00945904 0.00016642 -0.00009407 0.00344497
1680836414.733888 -0.04365298 -0.03076164 0.00939677 0.00016689 -0.00009293 0.00344454
1680836414.800575 -0.04375819 -0.03088069 0.00940532 0.00016658 -0.00009333 0.00344395
1680836414.867261 -0.04363444 -0.03087996 0.00938219 0.00016409 -0.00009272 0.00344196
1680836414.933947 -0.04349678 -0.03101564 0.00936335 0.00016195 -0.00009196 0.00344132
1680836415.000633 -0.04339497 -0.03109149 0.00935103 0.00016211 -0.00009168 0.00343974
1680836415.067320 -0.04339503 -0.03109146 0.00935104 0.00075428 -0.00026105 0.00339797
1680836415.134006 -0.04339504 -0.03109147 0.00935104 0.00008198 0.00096073 0.00347391
1680836415.200692 -0.04339503 -0.03109147 0.00935104 -0.00078912 -0.00036805 0.00217167
1680836415.267378 -0.04339503 -0.03109147 0.00935104 0.00149841 0.00063206 0.00308277
1680836415.334065 -0.04339503 -0.03109147 0.00935104 -0.00051462 0.00077075 0.00304647
1680836415.400750 -0.04339504 -0.03109147 0.00935104 -0.00146942 -0.00003853 0.00300602
1680836415.467436 -0.04339503 -0.03109148 0.00935104 0.00015580 -0.00038021 0.00321337
1680836415.534122 -0.04339503 -0.03109148 0.00935104 0.00063248 -0.00020600 0.00285552
1680836415.600808 -0.04339503 -0.03109148 0.00935104 -0.00086840 0.00000811 0.00280693
1680836415.667494 -0.04339502 -0.03109149 0.00935104 -0.00005742 0.00098891 0.00277517
1680836415.734181 -0.04339502 -0.03109149 0.00935104 0.00052805 0.00024417 0.00289243
1680836415.800865 -0.04339502 -0.03109149 0.00935104 0.00067193 -0.00069115 0.00320876
1680836415.867552 -0.04339502 -0.03109149 0.00935104 -0.00004481 0.00050519 0.00267906
1680836415.934239 -0.04339501 -0.03109150 0.00935104 -0.00032785 -0.00047124 0.00345281
1680836416.000926 -0.04339502 -0.03109150 0.00935104 0.00040576 -0.00021807 0.00267173
1680836416.067614 -0.04339502 -0.03109150 0.00935104 -0.00050832 -0.00011014 0.00327381
1680836416.134301 -0.04339502 -0.03109150 0.00935104 -0.00065058 0.00048042 0.00311722
1680836416.200988 -0.04339502 -0.03109151 0.00935104 -0.00013178 -0.00011468 0.00278224
1680836416.267674 -0.04339502 -0.03109151 0.00935104 0.00094693 0.00031749 0.00307114
1680836416.334362 -0.04339502 -0.03109151 0.00935104 -0.00047675 0.00024065 0.00241479
1680836416.401049 -0.04339502 -0.03109151 0.00935104 -0.00026640 0.00009518 0.00328277
1680836416.467736 -0.04339502 -0.03109151 0.00935104 0.00029316 0.00033041 0.00265836
1680836416.534423 -0.04339502 -0.03109152 0.00935104 0.00044910 -0.00030058 0.00329623
1680836416.601111 -0.04339501 -0.03109152 0.00935104 -0.00111211 0.00004458 0.00274018
1680836416.667798 -0.04339502 -0.03109152 0.00935104 0.00055496 0.00049831 0.00390116
1680836416.734484 -0.04339502 -0.03109152 0.00935104 0.00007927 0.00073710 0.00332423
1680836416.801171 -0.04339502 -0.03109153 0.00935104 -0.00094513 -0.00015651 0.00228618
1680836416.867858 -0.04339502 -0.03109153 0.00935104 0.00038944 -0.00014044 0.00363629
1680836416.934544 -0.04339502 -0.03109153 0.00935104 -0.00049860 0.00054543 0.00248140
1680836417.001229 -0.04339502 -0.03109153 0.00935104 0.00006049 0.00029906 0.00360030
1680836417.067915 -0.04339502 -0.03109153 0.00935104 -0.00033811 0.00016761 0.00310888
1680836417.134599 -0.04339502 -0.03109154 0.00935104 0.00021196 0.00050477 0.00299246
1680836417.201285 -0.04339502 -0.03109154 0.00935104 -0.00003805 0.00007416 0.00243722
1680836417.267970 -0.04339502 -0.03109154 0.00935104 0.00002686 0.00011508 0.00283955
1680836417.334656 -0.04339502 -0.03109154 0.00935104 -0.00021895 -0.00061448 0.00331550
1680836417.401341 -0.04339502 -0.03109154 0.00935104 0.00007415 0.00026990 0.00308115
1680836417.468026 -0.04339503 -0.03109154 0.00935104 0.00071572 0.00067360 0.00326505
1680836417.534712 -0.04339502 -0.03109155 0.00935104 0.00065587 -0.00034249 0.00286642
1680836417.601396 -0.04339503 -0.03109155 0.00935104 -0.00021416 -0.00034309 0.00295454
1680836417.668081 -0.04339503 -0.03109155 0.00935104 0.00056198 0.00095531 0.00304032
1680836417.734766 -0.04339503 -0.03109155 0.00935104 -0.00079453 -0.00032086 0.00347782
1680836417.801451 -0.04339503 -0.03109156 0.00935104 0.00002487 0.00073159 0.00273608
1680836417.868137 -0.04339503 -0.03109156 0.00935104 0.00011842 0.00012940 0.00292669
1680836417.934821 -0.04339503 -0.03109156 0.00935104 0.00106463 0.00042655 0.00356057
1680836418.001506 -0.04339502 -0.03109157 0.00935104 -0.00098600 -0.00109253 0.00288670
1680836418.068189 -0.04339503 -0.03109157 0.00935104 0.00000299 -0.00031517 0.00310784
1680836418.134874 -0.04339502 -0.03109157 0.00935104 0.00076052 -0.00017159 0.00307234
1680836418.201558 -0.04339503 -0.03109157 0.00935104 -0.00005485 0.00131388 0.00335782
1680836418.268243 -0.04339504 -0.03109157 0.00935104 -0.00030676 0.00008465 0.00225564
1680836418.334927 -0.04339504 -0.03109157 0.00935104 -0.00052416 0.00010206 0.00329930
1680836418.401611 -0.04339506 -0.03109156 0.00935104 -0.00118756 -0.00030859 0.00325780
1680836418.468295 -0.04339506 -0.03109156 0.00935104 -0.00104079 0.00067545 0.00377001
1680836418.534979 -0.04339506 -0.03109156 0.00935104 0.00006420 -0.00027078 0.00341530
1680836418.601663 -0.04339507 -0.03109156 0.00935104 -0.00022634 -0.00005462 0.00342492
1680836418.668347 -0.04339507 -0.03109157 0.00935104 0.00005694 0.00103131 0.00302320
1680836418.735031 -0.04339507 -0.03109157 0.00935104 -0.00010072 -0.00069507 0.00328764
1680836418.801715 -0.04339507 -0.03109157 0.00935104 -0.00081923 0.00005695 0.00340298
1680836418.868399 -0.04339507 -0.03109157 0.00935104 -0.00101592 -0.00014595 0.00343472
1680836418.935084 -0.04339507 -0.03109158 0.00935104 0.00020068 -0.00004953 0.00313521
1680836419.001770 -0.04339509 -0.03109157 0.00935104 0.00018512 -0.00001023 0.00249377
1680836419.068457 -0.04339508 -0.03109158 0.00935105 -0.00113015 0.00111449 0.00279687
1680836419.135143 -0.04339509 -0.03109158 0.00935105 -0.00040977 -0.00041767 0.00381688
1680836419.201830 -0.04339509 -0.03109158 0.00935105 -0.00033671 -0.00117047 0.00310983
1680836419.268516 -0.04339508 -0.03109158 0.00935105 -0.00026293 -0.00006408 0.00373422
1680836419.335203 -0.04339507 -0.03109159 0.00935104 0.00068441 0.00040047 0.00253411
1680836419.401888 -0.04339507 -0.03109160 0.00935105 -0.00095444 -0.00063362 0.00290492
1680836419.468575 -0.04339507 -0.03109160 0.00935105 0.00003009 0.00094448 0.00308388
1680836419.535261 -0.04339506 -0.03109160 0.00935105 0.00093817 0.00019239 0.00364896
1680836419.601947 -0.04339507 -0.03109160 0.00935105 -0.00056226 -0.00002704 0.00284594
1680836419.668634 -0.04339507 -0.03109160 0.00935105 0.00032555 0.00081670 0.00350101
1680836419.735320 -0.04339508 -0.03109160 0.00935105 -0.00050707 0.00029337 0.00291951
1680836419.802006 -0.04339508 -0.03109160 0.00935105 0.00013532 0.00024564 0.00354452
1680836419.868692 -0.04339509 -0.03109160 0.00935105 -0.00097422 -0.00065846 0.00266239
1680836419.935377 -0.04339509 -0.03109160 0.00935105 0.00033403 0.00082706 0.00359900
1680836420.002063 -0.04339510 -0.03109160 0.00935105 -0.00066730 -0.00035124 0.00246409
1680836420.068748 -0.04339510 -0.03109160 0.00935105 0.00086531 0.00049121 0.00348285
1680836420.135433 -0.04339510 -0.03109160 0.00935105 -0.00042560 -0.00083226 0.00317810
1680836420.202118 -0.04339511 -0.03109160 0.00935105 -0.00051998 0.00029513 0.00315209
1680836420.268802 -0.04339511 -0.03109161 0.00935105 0.00131752 0.00025962 0.00280350
1680836420.335487 -0.04339511 -0.03109161 0.00935105 0.00025622 0.00035171 0.00305840
1680836420.402172 -0.04339511 -0.03109161 0.00935105 0.00031058 0.00033593 0.00220833
1680836420.468858 -0.04339511 -0.03109161 0.00935105 -0.00017876 0.00008379 0.00313407
1680836420.535542 -0.04339511 -0.03109162 0.00935105 -0.00111032 -0.00066748 0.00327070
1680836420.602227 -0.04339511 -0.03109161 0.00935105 0.00083002 0.00036307 0.00267534
1680836420.668913 -0.04339512 -0.03109162 0.00935105 -0.00030001 0.00000719 0.00356793
1680836420.735596 -0.04339511 -0.03109162 0.00935105 -0.00097423 -0.00039215 0.00241428
1680836420.802281 -0.04339512 -0.03109162 0.00935105 0.00025497 -0.00028126 0.00372266
1680836420.868966 -0.04339511 -0.03109162 0.00935105 -0.00014252 0.00035876 0.00280934
1680836420.935651 -0.04339511 -0.03109163 0.00935105 -0.00017972 0.00082069 0.00305496
1680836421.002336 -0.04339512 -0.03109162 0.00935105 -0.00004768 -0.00004645 0.00366076
1680836421.069021 -0.04339512 -0.03109163 0.00935105 0.00013219 0.00021999 0.00323565
1680836421.135704 -0.04339513 -0.03109163 0.00935104 0.00002930 -0.00028154 0.00283717
1680836421.202389 -0.04339513 -0.03109163 0.00935104 -0.00009825 -0.00035713 0.00280055
1680836421.269074 -0.04339513 -0.03109163 0.00935104 0.00057424 0.00026973 0.00335930
1680836421.335758 -0.04339513 -0.03109163 0.00935104 -0.00074703 0.00016561 0.00265948
1680836421.402443 -0.04339514 -0.03109163 0.00935104 -0.00179079 -0.00082695 0.00353209
1680836421.469127 -0.04339513 -0.03109163 0.00935104 0.00046298 0.00095103 0.00310748
1680836421.535812 -0.04339515 -0.03109163 0.00935104 -0.00097414 -0.00032081 0.00294462
1680836421.602495 -0.04339515 -0.03109163 0.00935104 0.00066387 0.00005519 0.00353530
1680836421.669180 -0.04339515 -0.03109163 0.00935104 0.00137005 0.00013451 0.00347118
1680836421.735864 -0.04339515 -0.03109163 0.00935104 -0.00038895 -0.00050923 0.00282125
1680836421.802549 -0.04339517 -0.03109163 0.00935104 -0.00127965 -0.00030434 0.00222665
1680836421.869233 -0.04339518 -0.03109163 0.00935104 0.00080052 0.00061841 0.00358444
1680836421.935917 -0.04339518 -0.03109163 0.00935104 -0.00036160 -0.00018067 0.00337920
1680836422.002602 -0.04339518 -0.03109163 0.00935104 -0.00034363 -0.00020029 0.00321888
1680836422.069285 -0.04339516 -0.03109164 0.00935104 0.00004121 0.00028289 0.00299055
1680836422.135970 -0.04339515 -0.03109165 0.00935103 -0.00037878 -0.00037436 0.00268820
1680836422.202654 -0.04339516 -0.03109165 0.00935103 0.00008074 0.00001821 0.00451732
1680836422.269339 -0.04339516 -0.03109164 0.00935103 0.00042641 -0.00035463 0.00286870
1680836422.336023 -0.04339516 -0.03109165 0.00935103 0.00036044 0.00034831 0.00288899
1680836422.402707 -0.04339516 -0.03109165 0.00935103 0.00056980 0.00002360 0.00319599
1680836422.469390 -0.04339517 -0.03109165 0.00935103 0.00007416 0.00021866 0.00283272
1680836422.536074 -0.04339517 -0.03109165 0.00935103 0.00059324 0.00090092 0.00194878
1680836422.602759 -0.04339517 -0.03109165 0.00935103 0.00039406 -0.00123179 0.00336889
1680836422.669443 -0.04339516 -0.03109166 0.00935103 -0.00008741 -0.00013210 0.00234617
1680836422.736127 -0.04339515 -0.03109167 0.00935103 0.00079819 0.00084722 0.00298521
1680836422.802811 -0.04339515 -0.03109167 0.00935103 -0.00063844 -0.00050728 0.00287324
1680836422.869495 -0.04339515 -0.03109167 0.00935103 0.00044381 0.00031791 0.00333317
1680836422.936178 -0.04339515 -0.03109167 0.00935103 -0.00025330 0.00038894 0.00278002
1680836423.002862 -0.04339515 -0.03109168 0.00935103 -0.00074105 -0.00080300 0.00291825
1680836423.069546 -0.04339515 -0.03109168 0.00935103 -0.00002827 0.00043736 0.00294458
1680836423.136230 -0.04339515 -0.03109168 0.00935103 -0.00024773 -0.00056049 0.00327494
1680836423.202914 -0.04339515 -0.03109168 0.00935103 0.00011094 0.00020505 0.00284815
1680836423.269598 -0.04339515 -0.03109168 0.00935103 -0.00076390 -0.00020136 0.00210086
1680836423.336282 -0.04339515 -0.03109169 0.00935103 0.00158857 0.00031351 0.00275051
1680836423.402965 -0.04339516 -0.03109168 0.00935104 -0.00017423 0.00024499 0.00288994
1680836423.469649 -0.04339517 -0.03109168 0.00935104 -0.00010306 0.00045882 0.00277192
1680836423.536333 -0.04339517 -0.03109169 0.00935104 0.00031070 -0.00060678 0.00335803
1680836423.603016 -0.04339516 -0.03109169 0.00935103 -0.00031458 -0.00001362 0.00267132
1680836423.669700 -0.04339515 -0.03109170 0.00935104 -0.00052639 0.00034610 0.00286128
1680836423.736384 -0.04339519 -0.03109167 0.00935103 0.00043775 0.00020264 0.00007274
1680836423.803066 -0.04339996 -0.03109466 0.00935108 0.00665072 0.00749236 -0.01817527
1680836423.869750 -0.04339996 -0.03109466 0.00935107 0.00012153 -0.00012184 0.00270067
1680836423.936434 -0.04339995 -0.03109466 0.00935107 0.00006076 -0.00742770 0.00400254
1680836424.003119 -0.04339996 -0.03109466 0.00935108 0.00099271 -0.00093944 0.00177973
1680836424.069803 -0.04339996 -0.03109466 0.00935108 -0.00021135 0.00106123 0.00291848
1680836424.136487 -0.04339996 -0.03109467 0.00935108 -0.00019884 0.00178476 0.00360256
1680836424.203171 -0.04339996 -0.03109467 0.00935108 0.00046566 0.00154729 0.00295100
1680836424.269854 -0.04339996 -0.03109467 0.00935108 -0.00107733 -0.00210257 0.00275692
1680836424.336538 -0.04339996 -0.03109467 0.00935108 -0.00010136 -0.00110925 0.00414478
1680836424.403222 -0.04339996 -0.03109467 0.00935107 0.00098539 0.00160772 0.00069431
1680836424.469906 -0.04339997 -0.03109468 0.00935107 -0.00049954 0.00354656 0.01050655
1680836424.536590 -0.04339997 -0.03109468 0.00935107 0.00149206 -0.00584102 -0.00593617
1680836424.603274 -0.04339998 -0.03109470 0.00935108 -0.00982205 0.00531162 0.03369923
1680836424.669958 -0.04339997 -0.03109469 0.00935107 0.00429262 -0.01104348 -0.02338143
1680836424.736641 -0.04339993 -0.03109462 0.00935110 -0.00110927 0.00770049 0.02114648
1680836424.803324 -0.04339994 -0.03109462 0.00935110 0.00216313 0.00965001 0.02778576
1680836424.870008 -0.04339993 -0.03109462 0.00935110 0.00389051 -0.01081426 -0.01344151
1680836424.936693 -0.04339994 -0.03109463 0.00935110 0.00303552 0.00826956 -0.01150126
1680836425.003377 -0.04339995 -0.03109462 0.00935107 -0.00981875 -0.00665723 0.05279585
1680836425.070062 -0.04339995 -0.03109462 0.00935107 -0.00020912 0.00279865 0.00304038
1680836425.136745 -0.04339994 -0.03109461 0.00935110 0.00765210 0.00031111 -0.00503089
1680836425.203430 -0.04339997 -0.03109463 0.00935109 -0.00288257 0.00285889 0.02827594
1680836425.270114 -0.04339996 -0.03109468 0.00935112 -0.00743753 -0.00315882 0.03086301
1680836425.336799 -0.04339992 -0.03109468 0.00935113 -0.00312191 -0.00782094 -0.00755583
1680836425.403483 -0.04339992 -0.03109468 0.00935113 0.00201048 0.00679597 -0.00760456
1680836425.470167 -0.04339992 -0.03109468 0.00935113 -0.00478716 0.00027413 0.02777919
1680836425.536852 -0.04339992 -0.03109468 0.00935113 -0.00009403 0.00151268 -0.00277771
1680836425.603535 -0.04339993 -0.03109468 0.00935113 0.00203323 -0.00182076 -0.01982685
1680836425.670219 -0.04339995 -0.03109468 0.00935115 0.00033067 0.00050782 0.01838446
1680836425.736904 -0.04339995 -0.03109468 0.00935115 -0.00127082 -0.00119557 0.00692780
1680836425.803588 -0.04339995 -0.03109465 0.00935118 0.00363012 0.00393904 -0.01472385
1680836425.870272 -0.04339995 -0.03109463 0.00935121 -0.00235628 0.00631035 0.01459241
1680836425.936955 -0.04339995 -0.03109463 0.00935122 -0.00489903 -0.00163522 0.02651295
1680836426.003638 -0.04339995 -0.03109463 0.00935123 0.00361736 -0.00422309 -0.01783939
1680836426.070320 -0.04339995 -0.03109464 0.00935123 -0.00023885 0.01059464 0.00168281
1680836426.137003 -0.04339995 -0.03109464 0.00935123 -0.00239686 -0.00491126 0.02184499
1680836426.203686 -0.04339995 -0.03109464 0.00935123 0.00095066 -0.00646528 -0.00592461
1680836426.270369 -0.04339996 -0.03109464 0.00935123 0.00087070 0.00262786 -0.01210633
1680836426.337052 -0.04339998 -0.03109467 0.00935120 -0.00055855 -0.00306383 0.02720726
1680836426.403734 -0.04340000 -0.03109467 0.00935119 -0.00767094 -0.00645712 0.01852570
1680836426.470416 -0.04340003 -0.03109466 0.00935118 0.00159505 0.00831308 -0.00207012
1680836426.537099 -0.04340003 -0.03109466 0.00935118 0.00215286 -0.00450939 -0.00323066
1680836426.603781 -0.04340003 -0.03109467 0.00935118 -0.00374228 0.00208691 0.00259390
1680836426.670464 -0.04340004 -0.03109466 0.00935118 -0.01377578 -0.00782063 0.00313654
1680836426.737147 -0.04340007 -0.03109464 0.00935118 0.01567014 0.02276109 0.00434734
1680836426.803829 -0.04340008 -0.03109464 0.00935119 0.01794474 -0.00428325 0.00989091
1680836426.870512 0.02689766 -0.18298717 0.35021134 0.01409838 -0.00837239 0.01027135
1680836426.937197 -0.04058340 -0.22650482 0.19944921 0.01135230 -0.00668421 0.01090542
1680836427.003883 -0.20784547 -0.11677951 0.25140253 0.00709814 -0.00568914 0.00736009
1680836427.070570 -0.20112690 -0.07321903 0.13307448 0.00429753 -0.00602813 0.00689328
1680836427.137256 -0.29501401 -0.05001478 0.12364339 0.00310952 -0.00509685 0.00589352
1680836427.203942 -0.26380473 -0.06109891 0.09057977 0.00210737 -0.00467522 0.00587205
1680836427.270629 -0.23537631 -0.05000084 0.09249258 0.00122805 -0.00468070 0.00553594
1680836427.337315 -0.21340198 -0.01755141 0.07823793 0.00084098 -0.00403904 0.00550744
1680836427.404000 -0.16675434 -0.00779359 0.06334172 0.00040126 -0.00334966 0.00549583
1680836427.470686 -0.16975722 0.00834924 0.06068794 0.00013005 -0.00280346 0.00526624
1680836427.537373 -0.14787144 0.01381881 0.04593981 0.00003868 -0.00313314 0.00553288
1680836427.604059 -0.14283962 0.01708752 0.04235935 -0.00022597 -0.00290135 0.00528401
1680836427.670745 -0.14039798 0.02164084 0.04055989 0.00044794 -0.00250158 0.00536127
1680836427.737432 -0.12876792 0.01984618 0.03289795 0.00046498 -0.00247947 0.00547715
1680836427.804117 -0.12978626 0.02820555 0.03177036 0.00056095 -0.00205050 0.00519087
1680836427.870803 -0.13037829 0.03094855 0.03067040 0.00072146 -0.00172353 0.00460036
1680836427.937487 -0.14111472 0.03481838 0.03232693 0.00035366 -0.00030844 0.00420157
1680836428.004170 -0.13529989 0.03355421 0.02688156 0.00036423 -0.00017885 0.00375773
1680836428.070854 -0.13427733 0.03599171 0.02571523 0.00045688 -0.00011791 0.00377678
1680836428.137537 -0.13358020 0.03751313 0.02341829 0.00045556 -0.00044640 0.00416002
1680836428.204221 -0.13260271 0.03850987 0.02004891 0.00047771 -0.00083226 0.00432411
1680836428.270903 -0.13425415 0.03853628 0.01737104 0.00052723 -0.00088294 0.00437838
1680836428.337586 -0.13443762 0.03714180 0.01500888 0.00048504 -0.00087851 0.00441678
1680836428.404269 -0.13739982 0.04104146 0.01414330 0.00053966 -0.00106724 0.00470061
1680836428.470953 -0.13853227 0.04055138 0.01306120 0.00053439 -0.00100463 0.00452269
1680836428.537636 -0.13900746 0.03908343 0.01156514 0.00057550 -0.00094689 0.00459661
1680836428.604319 -0.14022567 0.04359490 0.01103372 0.00070398 -0.00092791 0.00480714
1680836428.671002 -0.14167382 0.04257337 0.00910663 0.00085368 -0.00120447 0.00512057
1680836428.737684 -0.14160951 0.03967796 0.00607573 0.00086004 -0.00132841 0.00508070
1680836428.804368 -0.14337937 0.03890284 0.00477458 0.00089494 -0.00136127 0.00507819
1680836428.871051 -0.14978521 0.03470412 0.00112062 0.00086218 -0.00117027 0.00488750
1680836428.937739 -0.15102136 0.03399134 -0.00153893 0.00074392 -0.00130755 0.00497904
1680836429.004427 -0.15204610 0.03269689 -0.00273237 0.00075986 -0.00141502 0.00503788
1680836429.071115 -0.15226628 0.03133576 -0.00350623 0.00076703 -0.00155188 0.00501989
1680836429.137802 -0.15253796 0.02994195 -0.00346051 0.00078126 -0.00158287 0.00486002
1680836429.204490 -0.15512674 0.02690805 -0.00562090 0.00087555 -0.00169916 0.00482314
1680836429.271178 -0.15581080 0.02423439 -0.00364631 0.00097890 -0.00161041 0.00483134
1680836429.337867 -0.15546799 0.02281259 -0.00296719 0.00100266 -0.00158495 0.00478398
1680836429.404555 -0.15259524 0.01881644 -0.00180600 0.00099001 -0.00156236 0.00471028
1680836429.471243 -0.15072931 0.01876111 -0.00174151 0.00094219 -0.00151261 0.00468418
1680836429.537932 -0.14902250 0.01781955 -0.00324004 0.00104049 -0.00154550 0.00469111
1680836429.604619 -0.13929132 0.01529594 -0.00764147 0.00096611 -0.00167926 0.00471488
1680836429.671308 -0.13961654 0.01458870 -0.00843772 0.00090602 -0.00166545 0.00475444
1680836429.737996 -0.13955745 0.01515942 -0.00966384 0.00089197 -0.00170662 0.00472286
1680836429.804684 -0.13983242 0.01604321 -0.01058388 0.00084953 -0.00173771 0.00466404
1680836429.871373 -0.14095907 0.01749679 -0.01050814 0.00078810 -0.00170045 0.00468895
1680836429.938059 -0.14257377 0.02012440 -0.00898177 0.00080658 -0.00171940 0.00470034
1680836430.004745 -0.14260688 0.01961609 -0.00839878 0.00082338 -0.00169748 0.00465216
1680836430.071430 -0.14364700 0.02005570 -0.00808776 0.00084769 -0.00156687 0.00455752
1680836430.138115 -0.14392328 0.02071152 -0.00772656 0.00087167 -0.00150559 0.00456159
1680836430.204802 -0.14432503 0.02180208 -0.00734656 0.00086774 -0.00147460 0.00464608
1680836430.271487 -0.14437078 0.02112195 -0.00750135 0.00087315 -0.00138464 0.00467432
1680836430.338173 -0.14417686 0.01967222 -0.00639352 0.00087649 -0.00143648 0.00468428
1680836430.404859 -0.14427454 0.01883108 -0.00572957 0.00091557 -0.00143788 0.00462764
1680836430.471544 -0.14073523 0.01655656 -0.00385789 0.00092531 -0.00142966 0.00446531
1680836430.538230 -0.14156092 0.01468625 -0.00248142 0.00088010 -0.00132644 0.00434841
1680836430.604916 -0.14272611 0.01239904 -0.00087994 0.00082741 -0.00120723 0.00433003
1680836430.671602 -0.13682791 0.00712061 0.00199866 0.00075052 -0.00116943 0.00422551
1680836430.738288 -0.13973574 0.00657869 0.00374213 0.00083042 -0.00087737 0.00423472
1680836430.804974 -0.14388094 0.00763117 0.00489151 0.00083166 -0.00075767 0.00420824
1680836430.871660 -0.14520226 0.00628016 0.00629302 0.00076279 -0.00065017 0.00429421
1680836430.938345 -0.14532903 0.00601691 0.00687118 0.00070453 -0.00056826 0.00436102
1680836431.005031 -0.14570527 0.00720800 0.00736594 0.00064261 -0.00056566 0.00444210
1680836431.071717 -0.14578581 0.00657257 0.00710675 0.00065877 -0.00056143 0.00447209
1680836431.138404 -0.14903358 0.00779291 0.00704991 0.00063846 -0.00040337 0.00442724
1680836431.205090 -0.14821739 0.00773277 0.00745910 0.00061889 -0.00042126 0.00448633
1680836431.271776 -0.14720901 0.00806806 0.00701111 0.00062555 -0.00040686 0.00449136
1680836431.338462 -0.14592305 0.00572054 0.00744944 0.00057892 -0.00035492 0.00442921
1680836431.405147 -0.14547469 0.00455851 0.00798713 0.00054761 -0.00036737 0.00441420
1680836431.471833 -0.14505881 0.00508393 0.00784764 0.00052075 -0.00032952 0.00445284
1680836431.538519 -0.14477177 0.00453609 0.00793970 0.00046934 -0.00028103 0.00447142
1680836431.605205 -0.14468449 0.00446965 0.00792951 0.00050021 -0.00023096 0.00438961
1680836431.671891 -0.14342588 0.00308354 0.00849856 0.00051081 -0.00025974 0.00437555
1680836431.738578 -0.14385292 0.00292640 0.00886898 0.00045971 -0.00024950 0.00444727
1680836431.805263 -0.14318583 0.00414592 0.00811951 0.00033812 -0.00032317 0.00449500
1680836431.871949 -0.14625914 0.00371457 0.00948597 0.00033287 -0.00014803 0.00448384
1680836431.938632 -0.14622201 0.00377287 0.00981506 0.00025950 -0.00016024 0.00456446
1680836432.005315 -0.14507126 0.00444040 0.00946797 0.00021902 -0.00020723 0.00460699
1680836432.071998 -0.14463781 0.00534209 0.00981620 0.00022582 -0.00026558 0.00461640
1680836432.138681 -0.14585106 0.00540103 0.01018240 0.00018389 -0.00031382 0.00465576
1680836432.205364 -0.14680614 0.00623681 0.01032869 0.00015534 -0.00037030 0.00465621
1680836432.272045 -0.14632869 0.00632569 0.01085565 0.00013811 -0.00043392 0.00467289
1680836432.338728 -0.14633397 0.00634959 0.01111070 0.00012092 -0.00046920 0.00465058
1680836432.405411 -0.14687370 0.00631681 0.01161957 0.00010192 -0.00046734 0.00464716
1680836432.472094 -0.14522065 0.00713859 0.01083023 -0.00005871 -0.00067844 0.00468305
1680836432.538776 -0.14558473 0.00717133 0.01164072 -0.00007092 -0.00056634 0.00468105
1680836432.605459 -0.14553633 0.00665229 0.01214138 -0.00012261 -0.00061221 0.00470948
1680836432.672142 -0.14529634 0.00840735 0.01283397 -0.00027006 -0.00055554 0.00467701
1680836432.738823 -0.14541190 0.00866742 0.01276760 -0.00024360 -0.00049153 0.00462915
1680836432.805506 -0.14515579 0.00780837 0.01316306 -0.00022665 -0.00049569 0.00461633
1680836432.872189 -0.14544938 0.00700763 0.01293032 -0.00019326 -0.00045716 0.00459720
1680836432.938872 -0.14519715 0.00630203 0.01310649 -0.00019549 -0.00043999 0.00462699
1680836433.005555 -0.14407024 0.00612979 0.01305240 -0.00016734 -0.00045535 0.00466994
1680836433.072238 -0.14137170 0.00821569 0.01330251 -0.00019269 -0.00052312 0.00471340
1680836433.138920 -0.14177547 0.00688286 0.01446696 -0.00019788 -0.00044729 0.00474341
1680836433.205604 -0.14181132 0.00745518 0.01491044 -0.00021449 -0.00041261 0.00473790
1680836433.272287 -0.14054460 0.00810200 0.01481628 -0.00028843 -0.00039091 0.00480479
1680836433.338969 -0.14082769 0.00851072 0.01440768 -0.00032143 -0.00035233 0.00480949
1680836433.405653 -0.14026006 0.00909563 0.01447054 -0.00034838 -0.00032720 0.00478368
1680836433.472336 -0.14040052 0.00985865 0.01384473 -0.00038722 -0.00029304 0.00479863
1680836433.539019 -0.13938666 0.01077145 0.01334939 -0.00041534 -0.00026130 0.00483949
1680836433.605700 -0.13967132 0.01196872 0.01276602 -0.00047112 -0.00025598 0.00485879
1680836433.672383 -0.13923594 0.01290618 0.01244525 -0.00047692 -0.00028318 0.00485397
1680836433.739066 -0.13939073 0.01357743 0.01239007 -0.00051231 -0.00031950 0.00483753
1680836433.805749 -0.13990047 0.01511091 0.01246138 -0.00053891 -0.00034397 0.00486377
1680836433.872432 -0.14198235 0.01460002 0.01162454 -0.00064197 -0.00030721 0.00483461
1680836433.939115 -0.14425995 0.01549111 0.01112722 -0.00064862 -0.00031137 0.00486942
1680836434.005798 -0.14604319 0.01507762 0.01086363 -0.00066216 -0.00032523 0.00485961
1680836434.072480 -0.14610101 0.01539193 0.01081458 -0.00066352 -0.00035467 0.00485612
1680836434.139163 -0.14647967 0.01708346 0.01062627 -0.00067285 -0.00036286 0.00483114
1680836434.205845 -0.14694407 0.01699069 0.01056705 -0.00065599 -0.00040853 0.00486840
1680836434.272528 -0.14645535 0.01713996 0.01027456 -0.00064609 -0.00044359 0.00484476
1680836434.339211 -0.14530664 0.01723270 0.00942211 -0.00063920 -0.00046781 0.00487634
1680836434.405894 -0.14357982 0.01815262 0.00893198 -0.00061213 -0.00048426 0.00483639
1680836434.472576 -0.14225856 0.01824205 0.00849674 -0.00060923 -0.00051329 0.00486647
1680836434.539258 -0.14220628 0.01800704 0.00825345 -0.00059775 -0.00053401 0.00487206
1680836434.605941 -0.14302902 0.01769940 0.00809747 -0.00056926 -0.00055415 0.00486608
1680836434.672624 -0.14189744 0.02016461 0.00773159 -0.00057036 -0.00058260 0.00483355
1680836434.739306 -0.14247465 0.02068371 0.00796237 -0.00054488 -0.00055329 0.00483409
1680836434.805989 -0.14384647 0.01870842 0.00831879 -0.00054067 -0.00053223 0.00484185
1680836434.872672 -0.14364094 0.01888329 0.00813404 -0.00054980 -0.00054885 0.00481639
1680836434.939354 -0.14071083 0.01993359 0.00747872 -0.00053039 -0.00056078 0.00481680
1680836435.006037 -0.13972644 0.02110449 0.00709498 -0.00050269 -0.00056210 0.00484139
1680836435.072720 -0.14009339 0.02046078 0.00719259 -0.00049236 -0.00056179 0.00485827
1680836435.139404 -0.14063406 0.01935871 0.00741759 -0.00047222 -0.00055634 0.00485189
1680836435.206087 -0.14087367 0.01868509 0.00758725 -0.00043999 -0.00053970 0.00484576
1680836435.272770 -0.14010322 0.01793992 0.00758519 -0.00041457 -0.00050070 0.00481101
1680836435.339453 -0.13959236 0.01763087 0.00745706 -0.00041595 -0.00042973 0.00476122
1680836435.406135 -0.13949587 0.01699540 0.00753943 -0.00039000 -0.00037307 0.00473388
1680836435.472818 -0.13956948 0.01633564 0.00767121 -0.00038724 -0.00035385 0.00474696
1680836435.539501 -0.13822176 0.01553930 0.00748091 -0.00037375 -0.00032604 0.00477610
1680836435.606184 -0.13840693 0.01601848 0.00755909 -0.00034867 -0.00030911 0.00480149
1680836435.672867 -0.13676186 0.01653907 0.00717966 -0.00033864 -0.00027474 0.00484291
1680836435.739550 -0.13655182 0.01486321 0.00688655 -0.00033649 -0.00018375 0.00480514
1680836435.806232 -0.13448788 0.01498725 0.00637172 -0.00028068 -0.00015688 0.00477976
1680836435.872915 -0.13477404 0.01394930 0.00677266 -0.00028639 -0.00016577 0.00481544
1680836435.939597 -0.13649904 0.01571589 0.00677571 -0.00026470 -0.00013158 0.00484215
1680836436.006279 -0.13655485 0.01634107 0.00674105 -0.00024108 -0.00006034 0.00482132
1680836436.072962 -0.13768950 0.01434874 0.00689926 -0.00023547 -0.00002195 0.00481986
1680836436.139644 -0.13837715 0.01636611 0.00702605 -0.00025784 0.00000470 0.00484144
1680836436.206326 -0.13930448 0.01682984 0.00668212 -0.00029158 0.00004958 0.00486049
1680836436.273007 -0.14006966 0.01802329 0.00640757 -0.00032645 0.00004907 0.00492296
1680836436.339689 -0.13872658 0.01847359 0.00601454 -0.00036434 0.00006842 0.00495205
1680836436.406371 -0.13807769 0.01792377 0.00579408 -0.00037343 0.00006318 0.00495613
1680836436.473053 -0.13548650 0.01464296 0.00524701 -0.00038448 0.00001261 0.00494471
1680836436.539735 -0.13564986 0.01255421 0.00504826 -0.00038558 -0.00000304 0.00494912
1680836436.606417 -0.13554381 0.01224171 0.00493570 -0.00038686 -0.00003419 0.00495986
1680836436.673099 -0.13758527 0.01164535 0.00433661 -0.00040013 -0.00002130 0.00496978
1680836436.739780 -0.13914598 0.01059304 0.00383104 -0.00040386 -0.00001290 0.00496487
1680836436.806462 -0.14277104 0.01109261 0.00296200 -0.00037996 0.00001165 0.00492292
1680836436.873144 -0.14713923 0.01314670 0.00219388 -0.00038944 0.00001911 0.00489708
1680836436.939826 -0.14913789 0.01568902 0.00167916 -0.00039508 0.00000486 0.00487077
1680836437.006507 -0.15080934 0.01655133 0.00124368 -0.00040434 0.00001060 0.00490144
1680836437.073189 -0.14979737 0.01577855 0.00129184 -0.00039238 -0.00000497 0.00492066
1680836437.139869 -0.14803016 0.01560361 0.00135318 -0.00037129 -0.00004240 0.00487629
1680836437.206551 -0.14704453 0.01573887 0.00136918 -0.00034507 -0.00007687 0.00485909
1680836437.273232 -0.14894284 0.01792190 0.00095753 -0.00032898 -0.00005403 0.00486382
1680836437.339914 -0.14971567 0.02046505 0.00076183 -0.00033201 -0.00002519 0.00483192
1680836437.406595 -0.15028083 0.02285736 0.00062124 -0.00032627 -0.00001890 0.00477430
1680836437.473276 -0.14855658 0.02837041 0.00083282 -0.00029594 -0.00000719 0.00475435
1680836437.539958 -0.14985663 0.03011310 0.00106989 -0.00028027 0.00000817 0.00478981
1680836437.606638 -0.15017188 0.03368880 0.00179721 -0.00024829 0.00001972 0.00480113
1680836437.673319 -0.15269331 0.04591755 0.00241639 -0.00024792 -0.00002716 0.00482747
1680836437.740000 -0.15220577 0.05155671 0.00336734 -0.00029738 -0.00005505 0.00485875
1680836437.806682 -0.15365379 0.05773334 0.00401729 -0.00032276 -0.00007959 0.00487121
1680836437.873363 -0.15373867 0.06218433 0.00459206 -0.00032509 -0.00010119 0.00487483
1680836437.940046 -0.15003030 0.06786482 0.00541996 -0.00033148 -0.00013336 0.00489781
1680836438.006730 -0.14971117 0.06742915 0.00547350 -0.00033880 -0.00015740 0.00485319
1680836438.073413 -0.14877474 0.06657629 0.00536092 -0.00031760 -0.00016025 0.00480971
1680836438.140097 -0.14927814 0.07057804 0.00566880 -0.00032484 -0.00014011 0.00479439
1680836438.206781 -0.14814668 0.07005419 0.00550044 -0.00032812 -0.00013390 0.00476891
1680836438.273465 -0.14711122 0.07443347 0.00566231 -0.00031581 -0.00010750 0.00474795
1680836438.340148 -0.14641472 0.07311214 0.00551645 -0.00032364 -0.00010209 0.00475738
1680836438.406832 -0.14629783 0.07667416 0.00538181 -0.00033985 -0.00006644 0.00472450
1680836438.473515 -0.14625657 0.07529904 0.00532765 -0.00035214 -0.00005084 0.00472868
1680836438.540199 -0.14341385 0.07532667 0.00535097 -0.00035896 -0.00000491 0.00470172
1680836438.606882 -0.14306056 0.07342700 0.00524538 -0.00036482 0.00001182 0.00471622
1680836438.673566 -0.14203026 0.07589233 0.00532247 -0.00040259 0.00006646 0.00470000
1680836438.740250 -0.14294436 0.07777863 0.00552819 -0.00041844 0.00006479 0.00472209
1680836438.806934 -0.14394364 0.07843027 0.00550403 -0.00043577 0.00013016 0.00472563
1680836438.873617 -0.14424308 0.07773523 0.00554812 -0.00043930 0.00013737 0.00473140
1680836438.940299 -0.14305156 0.08012808 0.00543846 -0.00044517 0.00023170 0.00470257
1680836439.006981 -0.14210296 0.08012936 0.00543766 -0.00042782 0.00023866 0.00469163
1680836439.073663 -0.14524162 0.07902365 0.00559635 -0.00045801 0.00029948 0.00466807
1680836439.140346 -0.14609876 0.07832283 0.00554763 -0.00047400 0.00030424 0.00467121
1680836439.207028 -0.14661584 0.07526686 0.00550833 -0.00051891 0.00034406 0.00466358
1680836439.273711 -0.14606621 0.07586636 0.00555629 -0.00050666 0.00033428 0.00466121
1680836439.340393 -0.14716562 0.07629832 0.00575169 -0.00050870 0.00035560 0.00462959
1680836439.407074 -0.14783342 0.08045240 0.00609884 -0.00050785 0.00034715 0.00463194
1680836439.473757 -0.14911997 0.08119860 0.00627257 -0.00051203 0.00035817 0.00460217
1680836439.540439 -0.14878504 0.07980596 0.00616522 -0.00051251 0.00035854 0.00459698
1680836439.607121 -0.14947189 0.07951660 0.00620864 -0.00050833 0.00035096 0.00458525
1680836439.673804 -0.14953625 0.07938878 0.00618630 -0.00049457 0.00033355 0.00457888
1680836439.740486 -0.14961158 0.07789359 0.00615676 -0.00044376 0.00032534 0.00454664
1680836439.807167 -0.14834058 0.07349274 0.00586418 -0.00043409 0.00031295 0.00455990
1680836439.873849 -0.14642789 0.06700714 0.00552806 -0.00039107 0.00031732 0.00454274
1680836439.940530 -0.14587274 0.06664596 0.00548770 -0.00036485 0.00030979 0.00453430
1680836440.007211 -0.14665336 0.06869563 0.00580844 -0.00035315 0.00029825 0.00451896
1680836440.073892 -0.14614298 0.06899117 0.00579309 -0.00033706 0.00031149 0.00451682
1680836440.140573 -0.14568771 0.07087218 0.00609729 -0.00030210 0.00031204 0.00450174
1680836440.207253 -0.14525226 0.07276692 0.00631043 -0.00027004 0.00033580 0.00451476
1680836440.273933 -0.14393925 0.07257985 0.00639829 -0.00021924 0.00035931 0.00453974
1680836440.340614 -0.14443538 0.07363352 0.00663291 -0.00021907 0.00036769 0.00455219
1680836440.407295 -0.14388633 0.07450289 0.00679043 -0.00021043 0.00038141 0.00458865
1680836440.473975 -0.14343653 0.07316638 0.00665057 -0.00019722 0.00038430 0.00458450
1680836440.540656 -0.14458067 0.07309157 0.00679443 -0.00018256 0.00038199 0.00462406
1680836440.607336 -0.14510332 0.07293615 0.00692754 -0.00016611 0.00037116 0.00461338
1680836440.674017 -0.14394634 0.07246324 0.00685230 -0.00017152 0.00034095 0.00465707
1680836440.740696 -0.14572077 0.07566451 0.00701089 -0.00021007 0.00028444 0.00467507
1680836440.807376 -0.14519053 0.07751089 0.00701055 -0.00024003 0.00022203 0.00472071
1680836440.874057 -0.14382985 0.07645411 0.00676724 -0.00022678 0.00018398 0.00471165
1680836440.940741 -0.14326882 0.07615156 0.00677402 -0.00023093 0.00012059 0.00474775
1680836441.007425 -0.14263425 0.07399065 0.00663542 -0.00022063 0.00010065 0.00473031
1680836441.074108 -0.14175760 0.07409312 0.00653508 -0.00020523 0.00004796 0.00476530
1680836441.140790 -0.14155982 0.07168253 0.00602075 -0.00019978 0.00005758 0.00477325
1680836441.207473 -0.14053158 0.06691450 0.00556955 -0.00018817 0.00004609 0.00481347
1680836441.274157 -0.13997468 0.06434623 0.00487548 -0.00018756 0.00007436 0.00484123
1680836441.340840 -0.13753097 0.06233991 0.00449933 -0.00017919 0.00010359 0.00483229
1680836441.407523 -0.13725902 0.06162435 0.00384586 -0.00018308 0.00016571 0.00484662
1680836441.474206 -0.13698893 0.06105802 0.00369357 -0.00018234 0.00019817 0.00484394
1680836441.540890 -0.13639978 0.05927848 0.00294371 -0.00018686 0.00027334 0.00484841
1680836441.607572 -0.13624886 0.05876338 0.00290281 -0.00018344 0.00029424 0.00485184
1680836441.674255 -0.13752600 0.05998695 0.00269629 -0.00018289 0.00035567 0.00483764
1680836441.740938 -0.13737483 0.05859598 0.00276346 -0.00018755 0.00038046 0.00484201
1680836441.807621 -0.13759094 0.05971596 0.00243499 -0.00017374 0.00044447 0.00482434
1680836441.874305 -0.13728827 0.06060195 0.00249630 -0.00018830 0.00044227 0.00483299
1680836441.940984 -0.13660539 0.06085583 0.00239839 -0.00017599 0.00048696 0.00480283
1680836442.007664 -0.13704442 0.06361018 0.00256948 -0.00017449 0.00047186 0.00480685
1680836442.074343 -0.13581656 0.06706089 0.00276665 -0.00018745 0.00049608 0.00480013
1680836442.141023 -0.13605477 0.06845799 0.00298766 -0.00019654 0.00048186 0.00479808
1680836442.207703 -0.13615418 0.07145234 0.00341056 -0.00020888 0.00048346 0.00479982
1680836442.274383 -0.13627057 0.07258001 0.00372979 -0.00020362 0.00047955 0.00480485
1680836442.341063 -0.13554233 0.07439868 0.00438799 -0.00020501 0.00046596 0.00479803
1680836442.407743 -0.13503037 0.07422157 0.00473614 -0.00022328 0.00046631 0.00479172
1680836442.474422 -0.13367285 0.07421665 0.00567733 -0.00021696 0.00046238 0.00477156
1680836442.541101 -0.13396380 0.07404621 0.00631537 -0.00022154 0.00044353 0.00477131
1680836442.607781 -0.13497012 0.07384529 0.00712838 -0.00021186 0.00045803 0.00474970
1680836442.674460 -0.13565912 0.07490193 0.00762751 -0.00020961 0.00044252 0.00474270
1680836442.741140 -0.13685164 0.07532306 0.00842978 -0.00020914 0.00045970 0.00472654
1680836442.807819 -0.13703138 0.07596763 0.00886982 -0.00020247 0.00044937 0.00472309
1680836442.874500 -0.13694159 0.07738000 0.00935614 -0.00020561 0.00048170 0.00470086
1680836442.941181 -0.13779460 0.07785648 0.00944311 -0.00019807 0.00047903 0.00470597
1680836443.007863 -0.13720749 0.07813030 0.00977713 -0.00019271 0.00051312 0.00468538
1680836443.074545 -0.13700650 0.07818747 0.00989436 -0.00018198 0.00048221 0.00469888
1680836443.141227 -0.13654583 0.07841669 0.00999455 -0.00017716 0.00049799 0.00470374
1680836443.207909 -0.13744470 0.07948032 0.01008135 -0.00017879 0.00048782 0.00470370
1680836443.274591 -0.13746029 0.07957305 0.01019278 -0.00015982 0.00049418 0.00471809
1680836443.341273 -0.13705560 0.07829006 0.01043416 -0.00016944 0.00049914 0.00471302
1680836443.407954 -0.13635350 0.07656917 0.01081263 -0.00015839 0.00050639 0.00473037
1680836443.474636 -0.13595689 0.07589108 0.01086725 -0.00016371 0.00049569 0.00472044
1680836443.541318 -0.13523371 0.07457053 0.01110652 -0.00016338 0.00049982 0.00474840
1680836443.608000 -0.13432586 0.07233269 0.01144562 -0.00017057 0.00049096 0.00473953
1680836443.674682 -0.13127918 0.06695786 0.01194672 -0.00015094 0.00050070 0.00476068
1680836443.741364 -0.12955036 0.06392514 0.01230591 -0.00013811 0.00049692 0.00473810
1680836443.808045 -0.12672797 0.05921129 0.01268871 -0.00011003 0.00051670 0.00474909
1680836443.874727 -0.12686705 0.05813930 0.01284231 -0.00009020 0.00049785 0.00473983
1680836443.941406 -0.12563721 0.05432478 0.01312282 -0.00005407 0.00051574 0.00473858
1680836444.008087 -0.12594962 0.05118264 0.01335200 -0.00003709 0.00051237 0.00472578
1680836444.074767 -0.12855625 0.05516069 0.01302691 -0.00000030 0.00054716 0.00471891
1680836444.141447 -0.13177135 0.05882541 0.01284885 0.00005514 0.00059945 0.00469606
1680836444.208127 -0.13796236 0.06700612 0.01252886 0.00007595 0.00062655 0.00469411
1680836444.274806 -0.14474162 0.07547422 0.01207845 0.00010879 0.00066732 0.00469732
1680836444.341486 -0.14690980 0.07773156 0.01191114 0.00011940 0.00069331 0.00470430
1680836444.408166 -0.15293252 0.08720193 0.01134798 0.00015442 0.00073877 0.00469078
1680836444.474846 -0.14987587 0.08403370 0.01157704 0.00013874 0.00073328 0.00468668
1680836444.541526 -0.14752457 0.08187331 0.01171235 0.00012922 0.00071780 0.00468310
1680836444.608206 -0.14330715 0.07427078 0.01221716 0.00011484 0.00069504 0.00468071
1680836444.674886 -0.13584878 0.06133570 0.01299075 0.00010445 0.00068211 0.00470856
1680836444.741564 -0.12663961 0.03760602 0.01416404 0.00010281 0.00062282 0.00469671
1680836444.808244 -0.12015192 0.01159036 0.01555272 0.00011320 0.00058383 0.00467997
1680836444.874924 -0.10917157 -0.02082469 0.01716149 0.00011946 0.00055965 0.00467626
1680836444.941607 -0.10112083 -0.04629147 0.01851479 0.00012191 0.00054516 0.00465983
1680836445.008291 -0.09418493 -0.06927416 0.01974042 0.00013593 0.00053020 0.00464863
1680836445.074973 -0.08450944 -0.09696462 0.02112818 0.00015444 0.00049623 0.00463943
1680836445.141655 -0.07923579 -0.11276864 0.02208300 0.00015598 0.00048950 0.00462094
1680836445.208338 -0.07317389 -0.12973003 0.02313331 0.00014986 0.00048736 0.00462492
1680836445.275022 -0.06723056 -0.14606460 0.02414857 0.00015412 0.00046633 0.00459465
1680836445.341704 -0.06707555 -0.14881259 0.02451412 0.00014714 0.00046951 0.00458655
1680836445.408387 -0.06682065 -0.15412768 0.02501625 0.00013566 0.00047353 0.00457433
1680836445.475070 -0.06390978 -0.16527013 0.02576059 0.00012452 0.00047330 0.00454754
1680836445.541754 -0.06316343 -0.17201783 0.02630747 0.00012286 0.00047218 0.00453871
1680836445.608436 -0.05915535 -0.18373512 0.02709227 0.00011673 0.00046792 0.00455340
1680836445.675119 -0.05810226 -0.18778395 0.02737619 0.00011858 0.00046506 0.00455230
1680836445.741802 -0.05557213 -0.19463416 0.02775043 0.00011341 0.00045926 0.00454647
1680836445.808485 -0.05538768 -0.19700173 0.02792863 0.00012135 0.00046624 0.00454715
1680836445.875168 -0.05344868 -0.20110317 0.02819680 0.00012332 0.00047886 0.00453910
1680836445.941851 -0.05261894 -0.20207256 0.02827057 0.00011844 0.00047654 0.00454136
1680836446.008533 -0.05097794 -0.20217762 0.02829028 0.00012380 0.00052489 0.00452466
1680836446.075215 -0.05120176 -0.20112271 0.02820350 0.00013014 0.00052617 0.00453475
1680836446.141897 -0.04720894 -0.20719650 0.02836279 0.00014449 0.00057669 0.00452622
1680836446.208580 -0.04648822 -0.20848035 0.02850965 0.00013691 0.00056939 0.00452909
1680836446.275263 -0.04679768 -0.21004005 0.02871424 0.00013884 0.00059964 0.00452652
1680836446.341945 -0.04687561 -0.21008287 0.02873973 0.00012866 0.00058625 0.00452437
1680836446.408628 -0.04482721 -0.21254531 0.02905471 0.00011506 0.00058845 0.00450599
1680836446.475310 -0.04380461 -0.21633042 0.02933185 0.00011985 0.00056932 0.00449953
1680836446.541992 -0.04301494 -0.21870822 0.02957063 0.00010111 0.00054565 0.00446581
1680836446.608675 -0.04374536 -0.21863216 0.02965574 0.00010368 0.00052688 0.00446569
1680836446.675357 -0.04430662 -0.22165144 0.02993563 0.00008938 0.00050488 0.00443605
1680836446.742040 -0.04408657 -0.22282801 0.03009782 0.00008208 0.00049401 0.00443479
1680836446.808723 -0.04437384 -0.22803502 0.03061415 0.00007527 0.00046631 0.00442078
1680836446.875405 -0.04536813 -0.22871480 0.03074363 0.00007011 0.00044884 0.00442177
1680836446.942087 -0.04810557 -0.23141936 0.03120992 0.00004544 0.00041822 0.00439877
1680836447.008770 -0.04815858 -0.23202638 0.03124945 0.00004993 0.00040138 0.00439155
1680836447.075453 -0.04954630 -0.23599694 0.03166776 0.00003168 0.00036764 0.00436609
1680836447.142135 -0.05032173 -0.23523601 0.03165082 0.00002777 0.00035765 0.00436667
1680836447.208818 -0.05370322 -0.23856787 0.03214533 0.00001682 0.00034218 0.00435243
1680836447.275501 -0.05364520 -0.23806722 0.03209963 0.00001538 0.00034278 0.00436322
1680836447.342184 -0.05549081 -0.23929341 0.03229935 0.00000827 0.00033597 0.00435390
1680836447.408866 -0.05624437 -0.23946824 0.03245465 -0.00000563 0.00032070 0.00434697
1680836447.475549 -0.05783944 -0.24071085 0.03266356 -0.00001355 0.00031466 0.00434179
1680836447.542232 -0.05778237 -0.24126280 0.03274775 -0.00000942 0.00031019 0.00434608
1680836447.608915 -0.05843219 -0.24231526 0.03293251 -0.00001173 0.00030694 0.00436312
1680836447.675597 -0.05841286 -0.24275198 0.03299922 -0.00001662 0.00030345 0.00435892
1680836447.742280 -0.05876269 -0.24436942 0.03320134 -0.00002626 0.00029540 0.00436968
1680836447.808962 -0.05899925 -0.24474098 0.03341757 -0.00002648 0.00028445 0.00436908
1680836447.875645 -0.05894103 -0.24625245 0.03366164 -0.00003724 0.00026464 0.00437761
1680836447.942328 -0.05908639 -0.24700233 0.03382937 -0.00004322 0.00026375 0.00437624
1680836448.009011 -0.05912539 -0.24855610 0.03404319 -0.00006081 0.00024010 0.00438953
1680836448.075694 -0.05946025 -0.24866896 0.03419511 -0.00006434 0.00023374 0.00438152
1680836448.142376 -0.05937696 -0.24831016 0.03412349 -0.00008195 0.00021705 0.00439229
1680836448.209059 -0.05913508 -0.24822977 0.03405381 -0.00008531 0.00022439 0.00438704
1680836448.275741 -0.05898370 -0.24826453 0.03402912 -0.00009526 0.00021385 0.00439003
1680836448.342424 -0.05916596 -0.24833286 0.03401516 -0.00009525 0.00022363 0.00437760
1680836448.409107 -0.05903765 -0.24869702 0.03402259 -0.00010502 0.00021822 0.00437784
1680836448.475789 -0.05921188 -0.24854245 0.03410099 -0.00010853 0.00021320 0.00438792
1680836448.542472 -0.05925838 -0.24842218 0.03401363 -0.00011552 0.00020661 0.00437696
1680836448.609155 -0.05908045 -0.24838963 0.03394833 -0.00011169 0.00020694 0.00437992
1680836448.675838 -0.05901253 -0.24818065 0.03386689 -0.00011826 0.00020006 0.00437346
1680836448.742519 -0.05889001 -0.24817532 0.03374281 -0.00012831 0.00020297 0.00437163
1680836448.809202 -0.05853301 -0.24839867 0.03358064 -0.00013449 0.00019840 0.00435781
1680836448.875885 -0.05833830 -0.24825094 0.03342513 -0.00012727 0.00020261 0.00435293
1680836448.942566 -0.05855076 -0.24884563 0.03325259 -0.00013423 0.00020459 0.00434038
1680836449.009248 -0.05907174 -0.24863882 0.03312758 -0.00014984 0.00021324 0.00434535
1680836449.075929 -0.05898244 -0.24908865 0.03284257 -0.00015299 0.00023116 0.00432312
1680836449.142610 -0.05848906 -0.24944210 0.03274262 -0.00013541 0.00023183 0.00433309
1680836449.209291 -0.05889634 -0.24961685 0.03268284 -0.00012802 0.00023632 0.00431707
1680836449.275973 -0.05916116 -0.24921378 0.03271527 -0.00013934 0.00023809 0.00432097
1680836449.342654 -0.05942394 -0.24918990 0.03266900 -0.00013883 0.00023412 0.00431112
1680836449.409336 -0.05879042 -0.24925385 0.03260413 -0.00013520 0.00024211 0.00430321
1680836449.476017 -0.05903895 -0.24876366 0.03252685 -0.00013530 0.00025124 0.00429111
1680836449.542699 -0.05930810 -0.24863378 0.03259221 -0.00014042 0.00025898 0.00429773
1680836449.609380 -0.05939070 -0.24815064 0.03245395 -0.00013748 0.00027554 0.00428496
1680836449.676061 -0.05905257 -0.24819008 0.03223110 -0.00013604 0.00029417 0.00428953
1680836449.742743 -0.05878176 -0.24778492 0.03198931 -0.00013246 0.00031456 0.00427201
1680836449.809424 -0.05970058 -0.24701742 0.03196754 -0.00012095 0.00033670 0.00427301
1680836449.876106 -0.06095594 -0.24560159 0.03163035 -0.00011491 0.00036181 0.00426354
1680836449.942789 -0.06165547 -0.24474420 0.03164339 -0.00011417 0.00037971 0.00427383
1680836450.009473 -0.06240348 -0.24304194 0.03136419 -0.00011251 0.00040145 0.00427847
1680836450.076155 -0.06255635 -0.24252063 0.03123123 -0.00011184 0.00041205 0.00428654
1680836450.142839 -0.06323218 -0.24101388 0.03087266 -0.00010549 0.00044164 0.00428811
1680836450.209522 -0.06295717 -0.24128739 0.03081545 -0.00009542 0.00044629 0.00428625
1680836450.276206 -0.06371898 -0.23977782 0.03060641 -0.00008208 0.00046500 0.00429248
1680836450.342889 -0.06521753 -0.23845153 0.03051607 -0.00008933 0.00047253 0.00428901
1680836450.409573 -0.06888818 -0.23505933 0.03021302 -0.00009426 0.00049315 0.00428748
1680836450.476255 -0.07054644 -0.23427330 0.03008819 -0.00009395 0.00049818 0.00428594
1680836450.542938 -0.07296215 -0.23307935 0.02994057 -0.00010877 0.00051190 0.00428458
1680836450.609622 -0.07306878 -0.23367114 0.02991960 -0.00011158 0.00051259 0.00429094
1680836450.676306 -0.07469325 -0.23305788 0.02966331 -0.00012992 0.00051049 0.00428845
1680836450.742989 -0.07484665 -0.23274870 0.02963358 -0.00012317 0.00050980 0.00428606
1680836450.809672 -0.07432573 -0.23331486 0.02959374 -0.00013902 0.00048882 0.00428749
1680836450.876355 -0.07386293 -0.23409529 0.02967111 -0.00014529 0.00048515 0.00428849
1680836450.943036 -0.07417589 -0.23374976 0.02949335 -0.00016292 0.00046005 0.00429220
1680836451.009718 -0.07501373 -0.23243645 0.02941458 -0.00016964 0.00046441 0.00429049
1680836451.076400 -0.07562424 -0.23179202 0.02929268 -0.00018486 0.00044191 0.00428592
1680836451.143083 -0.07521276 -0.23246677 0.02930226 -0.00019666 0.00043924 0.00429075
1680836451.209764 -0.07481937 -0.23190378 0.02929510 -0.00021294 0.00042048 0.00428298
1680836451.276446 -0.07425080 -0.23208972 0.02934791 -0.00020869 0.00041710 0.00428738
1680836451.343128 -0.07044260 -0.23100638 0.02952460 -0.00020404 0.00039099 0.00428251
1680836451.409809 -0.06523012 -0.23178562 0.02980925 -0.00021095 0.00037805 0.00428229
1680836451.476491 -0.06011171 -0.23157698 0.03004574 -0.00020561 0.00034891 0.00427671
1680836451.543173 -0.05868265 -0.23125964 0.03010708 -0.00021431 0.00034856 0.00427678
1680836451.609855 -0.05612348 -0.23008340 0.03027759 -0.00021746 0.00033899 0.00426704
1680836451.676537 -0.05342281 -0.22945144 0.03040976 -0.00021575 0.00033041 0.00427099
1680836451.743219 -0.05322857 -0.22941657 0.03044130 -0.00022386 0.00032525 0.00425892
1680836451.809900 -0.05413736 -0.22960694 0.03040347 -0.00022655 0.00033155 0.00425891
1680836451.876582 -0.05523100 -0.22983044 0.03043755 -0.00023255 0.00034136 0.00424741
1680836451.943263 -0.05735680 -0.23016443 0.03034796 -0.00024081 0.00034585 0.00425443
1680836452.009944 -0.05794053 -0.22963051 0.03033645 -0.00025275 0.00035330 0.00424088
1680836452.076625 -0.05810417 -0.22947105 0.03029913 -0.00026383 0.00034775 0.00423878
1680836452.143307 -0.05903470 -0.22822592 0.03026298 -0.00027962 0.00033616 0.00422785
1680836452.209988 -0.05874314 -0.22666983 0.03026578 -0.00028645 0.00031933 0.00423409
1680836452.276668 -0.06008516 -0.22759681 0.03019187 -0.00029248 0.00031400 0.00423197
1680836452.343349 -0.06014231 -0.22578057 0.03014210 -0.00030172 0.00029215 0.00421630
1680836452.410030 -0.05949528 -0.22421124 0.03017609 -0.00030362 0.00028024 0.00422470
1680836452.476711 -0.06052092 -0.22468788 0.03014973 -0.00030208 0.00027428 0.00421527
1680836452.543392 -0.06155750 -0.22341443 0.03010381 -0.00030799 0.00025063 0.00420153
1680836452.610073 -0.06109551 -0.21980445 0.03015191 -0.00032105 0.00024683 0.00420686
1680836452.676754 -0.06124629 -0.21745792 0.03017079 -0.00032740 0.00023599 0.00420143
1680836452.743434 -0.06300985 -0.20963013 0.03019298 -0.00034326 0.00020497 0.00419462
1680836452.810115 -0.06378870 -0.20336160 0.03025374 -0.00034609 0.00019691 0.00421010
1680836452.876797 -0.06537710 -0.19202386 0.03036350 -0.00035579 0.00017644 0.00419430
1680836452.943477 -0.06579335 -0.19301211 0.03032011 -0.00035540 0.00017086 0.00421007
1680836453.010158 -0.06865701 -0.18373846 0.03040996 -0.00036593 0.00015068 0.00420231
1680836453.076839 -0.07007532 -0.18039769 0.03045109 -0.00035972 0.00013760 0.00420360
1680836453.143519 -0.07283494 -0.17455196 0.03054174 -0.00036938 0.00012439 0.00418738
1680836453.210199 -0.07372975 -0.17187067 0.03056946 -0.00035875 0.00011558 0.00418800
1680836453.276880 -0.07770707 -0.16468814 0.03073748 -0.00036269 0.00011447 0.00415598
1680836453.343561 -0.07608729 -0.16704709 0.03069588 -0.00035874 0.00011969 0.00416313
1680836453.410242 -0.07415693 -0.17370522 0.03065828 -0.00036122 0.00013222 0.00415237
1680836453.476922 -0.07408814 -0.17614153 0.03073057 -0.00035383 0.00014407 0.00412043
1680836453.543603 -0.07230161 -0.17800618 0.03071769 -0.00035276 0.00015279 0.00411472
1680836453.610282 -0.07035652 -0.17924112 0.03070679 -0.00034933 0.00016346 0.00410794
1680836453.676963 -0.06689534 -0.18455311 0.03065029 -0.00034765 0.00017774 0.00410905
1680836453.743644 -0.06077946 -0.19530897 0.03062677 -0.00034453 0.00020446 0.00409160
1680836453.810324 -0.05836896 -0.19925583 0.03059952 -0.00034141 0.00019542 0.00407707
1680836453.877004 -0.05613997 -0.20163713 0.03057222 -0.00033385 0.00019757 0.00407137
1680836453.943686 -0.04548607 -0.21799640 0.03050570 -0.00033583 0.00020643 0.00403360
